-0.01561783115812769
-0.03998707194674942
0.03297912260193231
-0.007834002462463352
-0.007840713268839422
-0.09453039370228754
-0.0646180932652812
-0.06306451191747062
0.05740860341737136
-0.027845345182535786
-0.0643457361457008
0.03484492177450721
-0.055916114905524755
0.07867400881078424
-0.027036315606883132
0.011389537041279721
0.05037806018687166
0.0710597025254753
-0.057694041189697454
-0.08820542056159056
-0.09775832833986271
0.024251323690696908
-0.022647642396398576
0.05718306408327564
-0.01616440141687095
0.07658103930142549
-0.06621708281129429
0.07778956019554581
0.059982274868786295
-0.036844223690696065
0.028055733902980134
0.07430000701144435
0.04760187036499114
0.030562524769002647
-0.07222476820496433
0.06616199565330336
0.08657365238878578
0.046106638168914055
-0.09519417463900924
-0.06174681722362721
-1.5926220337525443e-05
0.02466804445976141
0.025890733377533948
-0.09226224365366904
0.07501356920769359
0.03333765406210126
0.022525905456971862
0.08884848943445961
-0.027276207042059727
0.08530244599913683
0.04179420562269251
0.004406666166547876
-0.08025211092544737
-0.05350112334704378
0.0844703191324023
0.03085555792700362
0.03525309441036528
0.01375066036464008
0.09896557793743896
-0.07575385549517955
0.031420957968946006
-0.03223089604686494
-0.02018839504349368
0.08464032135726923
0.07506182263683078
0.054581396980753816
-0.05543244393334523
0.050849632319199894
0.01110706241110651
-0.013959240005649118
0.01579734034709554
-0.011942485396685992
0.0009760545962499145
0.00779021496457151
-0.004431536910696504
0.016663418712122333
-0.07128520684578386
-0.001754042038166495
-0.054329443295025696
0.2731962837701929
-0.06662538213175792
-0.0928734537676665
-0.17554205239601334
-0.16491259261069394
-0.012341907671022232
0.011725251696072962
0.02083159575576086
-0.07452265176022428
-0.09949922853576217
-0.11983877652551056
-0.37445130972786356
0.20251216682338763
-0.2817872078521872
0.023596345949498148
0.07607533324420584
0.13726109017107227
-0.09205588175953242
-0.1371585843171952
0.2360541434943848
0.18700077964858378
-0.02027423630497354
-0.09129435698499418
0.07971498024629056
0.1478511848488913
-0.06567680432523613
0.03277287176951981
0.0776170210376535
-0.1462745168176438
-0.007789617571695562
-0.10018366780928045
0.0686762537134104
0.03694962609134219
0.02655698139205833
-0.02948351405142354
0.16262221627467616
0.16115186610658852
-0.16586891710633106
-0.15915274775855118
-0.1686663641014676
0.04285551833528877
0.06005203556876079
-0.0029840124490719835
-0.007521486407054472
-0.079026798959071
0.047197383062419294
0.019976843647168868
-0.03180842118292191
-0.0438421583450098
0.02321776173380326
-0.019248527955433574
0.025359390242338478
0.018413460482348792
-0.011204494458242537
0.3301440149989223
0.09764906094559575
-0.06041958462815337
-0.05257798255461637
0.1791140059029745
0.30284825359853557
0.10640320840912702
-0.10246374908480053
-0.12024078166864315
-0.004641956935813259
-0.03695183630426886
0.09795540324429235
-0.32774170669423297
0.05908404098032799
-0.3995044411604368
0.12491309449900903
-0.13478408720125404
-0.07637004245160013
-0.11322789013816363
-0.1048151851163
-0.10982200340229051
0.08636712942835524
0.07179609012557961
-0.0662388394261287
0.061711533516904
-0.19318893608073323
0.009082263468520445
0.055024929309788154
0.05004324021353266
0.06701950766797236
0.03210905984917081
-0.10902869047987704
-0.07652421127268438
-0.09494224634038068
-0.05457202820793932
-0.2077909269862709
0.01478529568408672
-0.1364798302421565
0.011867870954055337
-0.07806818244445993
0.07621218976932581
-0.16642040557098117
0.11824397437535214
0.005813232171813868
-0.26230400743387766
0.3899676579455093
0.09973093356836006
0.02183910282304298
-0.03478753209104926
0.11888406131535846
-0.03850557884730137
0.06013620649927669
0.2873273412692809
0.013023802487332668
-0.03474751898995093
-0.04595467083013904
0.03002293879713215
-0.10947925347881457
0.293145778063574
-0.4051313485141831
0.06357808663264461
0.2693616308815026
-0.09580910393336074
-0.22078038315486465
-0.161359146113991
-0.36102016383942
-0.09672517802400737
0.24213651287907437
-0.05883917037143852
0.19222003511526228
0.20693124324565607
-0.01492497136814551
-0.0008539044709909291
0.016505720992169837
0.19645632802674054
-0.17724859710029983
0.02597583584347947
-0.06450837761493161
0.028341060929892435
0.020334197696575414
-0.11716841517739768
-0.36273516021374647
-0.2056730990369291
0.22173438105839252
0.23486705986463904
-0.0020914018419046897
-0.40512289574905974
0.24309978919752373
0.10618038071423702
-0.002502674609039826
0.2991368507465006
-0.5860130271266518
0.05297005384386867
-0.13553021595658432
0.20432169476340986
-0.2160671309929439
-0.13586476020652424
0.012895153013257204
0.239848008769319
0.06910082523058485
0.050255672008879315
-0.03236512449439033
-0.1251918543591415
-0.11524182856917528
-0.04267794701536864
0.08946083608573029
-0.04800102962462264
0.01756351454316928
-0.028139361599882687
-0.10828601749321383
-0.024643897082831042
-0.03001395739604576
0.0505010149791508
-0.08353232968420628
-0.19374484173565754
-0.0029333374021319873
-0.05567634284894111
-0.18197861356175188
0.04064330037651928
0.02596493171773734
0.030789153892161192
-0.12143521469533916
-0.14776505149166175
0.10685403442227825
-0.10655895183225944
-0.05386683444577368
0.04952967842822856
0.0638216934145571
-0.003103012291773405
-0.0821256071553397
0.04857938793414269
0.02747319937376507
-0.1328221964675901
-0.0906754897534033
-0.09372384266892475
-0.023773450878978232
0.07945072758994186
-0.006248014128640211
-0.025215822031360607
0.01129790334010582
-0.05248304257865611
0.004924414572595815
0.05380148374161865
-0.08682454418050556
-0.12039284617419974
-0.047091932969073616
-0.026231847631845363
-0.08492845282139616
-0.020080513587653174
-0.02006579396408783
0.07774033251065254
-0.03480338375458711
0.041437856516319274
0.004267091323358188
-0.11063786091202757
-0.14217178000101974
0.09273132220104205
-0.0381917941754641
0.08892246838768139
0.011161646686277716
-0.14064634142294102
-0.08789465352935766
-0.09801473495425901
0.14941475545568436
0.1002254041604337
0.05361845268464053
0.05172299587484156
-0.04365149631364804
-0.0571766500457159
-0.058886989807515715
-0.05186961900486162
0.024186827218887215
-0.21648738696546527
-0.04452017236736362
0.04170382240284626
-0.13103670824530736
0.03252498850603986
-0.0014277445511823052
0.05501369809944493
-0.07161321432378563
-0.022923122136618485
-0.20453323211360863
0.02384319376603246
0.06758651017615307
-0.062293569991321227
-0.07138139534409156
-0.14145354384162473
-0.11035875028559203
-0.10248587986615275
-0.053175244835359944
0.025391160961511564
-0.0018146999579449485
0.07930834459007849
-0.08730842630474686
-0.22037030519913847
0.006486712511272097
-0.11867348384676678
0.03370470201856719
-0.08732336597926288
-0.015193497229185627
-0.015062710342932283
0.08275250133962513
0.11253488482331887
0.23618285982621334
-0.10048442541039256
0.09141672952811813
0.08803743970645247
0.08807595244862013
-0.15102420920097603
0.005653881489271537
0.17967310471736553
-0.1773506814239263
0.06330246889103246
-0.01772152565431573
0.013897730220150653
-0.13873116742283276
0.09934140083235812
-0.17486496611973906
0.14152743299720574
0.07629617415824276
-0.03678734414233041
-0.10045301107913074
-0.18594081047271105
-0.07029777558167555
-0.05208965358219653
-0.02625302590843252
-0.1381284927881961
0.09979657831763425
0.24166269817955358
-0.025004347043730262
0.09815156169466144
-0.00810660482656917
0.16326312814614818
-0.09920907629150885
0.13933912055457315
-0.004544919113377732
0.03852361786901671
0.22912144029758838
0.16829386045599207
-0.15608508256006629
-0.15763743678761477
0.08360529092832725
0.3019933422801366
0.06619417009058878
-0.2501316229077664
0.10013539752310859
0.19238892371356953
0.08940592538616161
0.24950814504356988
-0.5247780333745949
0.0003949875622989855
-0.29864395757448065
0.01835162633512853
-0.17677896200973078
-0.06930487363755272
-0.04275065043486321
0.050089824528284935
-0.04447607173309071
0.0008750899283591974
0.015169944351235781
-0.06253354655004727
0.13555508443181513
-0.051440362404871535
0.06429573413038643
-0.08398620395667422
0.06555071866210184
-0.10136304516451582
-0.08414696716732786
0.0374355455161292
-0.02790721307402618
-0.01607454559669126
-0.09161325393696718
-0.3882934612788091
0.03018953557461952
-0.13877211908700904
0.12077042454125216
-0.1566703416632361
0.045776267816829364
-0.04466222714814236
-0.07644011560155964
0.001459972243725098
-0.10716702981311702
0.23115825610770183
0.014695253584781487
0.018665212652996505
0.08330199651653888
0.12274763664863246
-0.11396607111748262
0.1110235425349589
0.13773657208221401
0.06886209028062433
-0.1375130699900446
-0.002986605697062621
-0.000730817742135995
0.010422930651259236
0.2799070217206553
-0.3756316507857426
0.19187955658797018
0.2855829220606369
-0.0696605252686456
-0.19074654753390094
-0.028085509571497063
-0.3181970002631663
0.09645428563355815
0.04196094888290426
-0.117992838682735
0.023896551164238607
0.28017332387699045
0.009440042282706266
0.1898234524743638
0.0756331228691997
0.12758179215952303
-0.1600764729141794
-0.01817353406470461
0.04545554179813635
-0.05932042226385346
0.10772139804623909
-0.03495545033453162
-0.20145748359550109
-0.14853548030283237
0.2609466148561411
0.2568302280487067
-0.0004382196748082114
-0.5158154242659017
0.12747827032679096
0.1075823639314339
-0.0053435637079146826
0.2145447426112332
-0.6115417980644723
0.12234759013001138
-0.32652984277619657
0.2015897854892058
-0.11048860532929417
-0.22925513368660316
-0.008739443488466976
0.22857966183920922
-0.10306965958661349
0.11320118452199622
-0.0427702825157819
-0.060689208995237845
-0.019050428981874295
0.18919112991573597
0.08081977401889374
-0.08266573213017184
-0.19959474729970045
-0.18577035089175348
-0.11488220052373559
-0.025807897625868024
0.021348735169757334
-0.07505212139877643
0.052931380048371696
-0.15491964012736612
-0.10447095394279507
0.03733492605314503
-0.1674227761944376
-0.051627075956357994
0.02490590716017102
-0.018058165398776176
-0.02531800507643236
0.09790312918018156
0.11199889367835503
0.2889559985786941
-0.040535471472141094
-0.09019463698699333
-0.0002706511276392848
-0.018066184535557098
-0.06314495092963748
0.12282229144409788
0.1257087652735197
-0.09846376278979675
0.0400898176812672
-0.05140817728746945
0.07237623334997569
-0.09627631495440575
0.10445465081746723
-0.09623994808909225
0.058128231324604686
0.1416519210086683
-0.05929516819901288
-0.12997204536844678
-0.15297195458510304
-0.10690662888767943
0.0458986083065894
0.0814548279310439
-0.19335381960864978
0.0977272060797514
0.12872280929439645
-0.02644028320363536
0.10333020094797238
-0.02778355214707903
0.05595522500604816
-0.08228336189112453
0.12831245662398244
-0.050664299574758265
0.03478573335539266
0.25752555496148033
0.07575867240385617
-0.37771747766084385
-0.004271290276561514
0.255087344081757
0.263691322115231
0.12406542050324261
-0.3277629096429609
0.02202608624136661
0.09785100582612546
0.10767768822136752
0.22440428932584253
-0.6705576556745616
-0.022875282713933895
-0.36296024012025746
0.17585863966875892
-0.07364339808185547
-0.21471336625938095
0.10431795653634825
0.08739728257565121
-0.044481713684649524
0.04926710892559117
0.007589308674939538
-0.08712584996994419
-0.24172252911611977
0.01130795261280367
0.05808051801005902
-0.08324111212735497
-0.14475974167821357
0.08041498768636333
0.02713823772790116
-0.09176156357915767
-0.06011891604496455
0.028009518593118427
-0.06887076820601234
-0.018992759139441023
-0.00020416875051832475
0.02218143430303024
-0.001881547520088174
0.010357578512283363
-0.05508780637033948
-0.09777272734022086
-0.0007120499803427448
-0.056053757891808366
-0.049779441358433124
-0.2620899321068536
-0.02399356684709109
0.013385761953015413
0.03835913606349017
-0.1599104875932929
0.06303860782980042
-0.1081125783385349
-0.08101029670171436
-0.009780112137407477
-0.12263403217004752
0.04442789897969835
-0.13346621140237533
-0.07729441208837784
-0.1508275127546819
0.20102429184675552
-0.15520815590320716
-0.07324854164426187
0.10500019214314445
0.027411878272048083
0.09447955466662701
0.1557592046004978
-0.040236957111293825
-0.17518439182042986
0.003342402255751747
-0.1702303727614292
-0.23715698638364102
-0.011238795446824726
-0.11017386598053519
0.09427144175943336
-0.2068319107396451
-0.0022049582288813803
-0.10126744512262241
-0.05404294559779539
-0.03852735248431544
-0.2597075142917045
-0.14424934199963968
0.32478509677265793
-0.015163126675162043
-0.21170678586466463
-0.17438126871878057
-0.02006992994313282
0.37529876113493493
-0.05201487528850059
-0.12185860358938717
-0.03719018369711997
-0.3792674431212144
0.4394313939460381
-0.001960559981997551
0.13399680525601268
-0.16100154085393095
0.031248767427726188
0.19308940765973137
-0.04815901252226096
-0.10842371874295276
0.04428534979970134
-0.11574863852717597
0.0804449924978686
-0.08198470521138682
-0.03688210640178497
-0.1073131088653896
-0.034300614876131515
-0.0007599594872486237
-0.04837938462657688
0.15833641269837556
0.04371837620782351
0.017626276316624955
-0.0218325224223056
-0.09801791696020962
-0.07812322254536495
-0.18316547452122284
0.13827447786596664
-0.052536119027465834
0.09491294268039936
0.032219675087137335
0.05337550182786732
-0.20134999973023512
0.09233315424805971
0.13247377442153874
-0.1720872901475291
-0.0259855788041176
-0.021009868060958673
0.05306485832852356
-0.004109154385206801
0.038489526553421895
0.008220158461072293
0.016331212712157976
0.11930572781723987
0.019473656030449506
-0.035671689863535604
-0.08777006613019242
-0.020452079952941293
-0.09694937144381863
0.07608523766301434
-0.09118049338431597
0.06396388427538593
0.15793411756641101
0.0688531913148979
-0.13955364070955623
-0.13536201053024197
-0.03662559894132299
-0.09895945063459262
-0.00911560536423343
-0.13635460541622607
-0.00311558600140782
0.058558882493703356
0.009853237442027159
-0.06508019428011198
-0.0851919192712517
0.014529961134748273
0.01268125593193599
0.004696862528689135
0.027291881197149315
-0.1776538132085509
-0.09062495874560587
-0.052867219443245114
-0.14727527695891257
-0.047131754233716586
-0.014474849746856684
0.09961919754680103
0.10475243892391896
-0.24790985982852506
0.07342906918899475
0.09017729218305234
0.03399864370863284
-0.007033954420566461
-0.22106006540348566
0.11274430677112748
-0.028217305669970723
0.12480835261353508
0.015378116186401862
-0.20501797317671352
-0.07310842781491726
0.10414172270217262
-0.08430390095862686
0.060639160326103995
-0.045493098047065965
-0.026858129262188644
-0.052832937531943965
0.020647440015148066
-0.023322988715617166
-0.04818934331615438
-0.018470473859091504
0.05941684889280432
0.04204954132519404
0.02317060818755934
-0.16246422564440138
-0.05615484502857622
0.027108345023542618
-0.12643210943482494
0.009225390275896852
0.05441479649262279
0.10204931540775823
0.054896210377579746
-0.09350061665059262
-0.16702145847989566
-0.05264199368861296
0.06804249985962431
-0.04952247171718232
-0.00020133606988693883
0.05231941400682874
0.02712924957556398
0.08596692807129838
0.05436296907687425
0.005479033165308519
-0.07998672894363451
-0.0793989176883183
-0.08694267388833644
-0.022457021409761958
-0.1119785176954407
-0.08370731014409052
-0.018093099121668284
-0.02433240919953964
-0.0966805595612927
-0.033687525768655295
0.05630734573866739
-0.07522455594495456
-0.08481843770644984
-0.06517346287562045
-0.11712686821117708
-0.0420171311423401
-0.06949729526495531
-0.0319146514803331
-0.09983152879348858
-0.10484713320187684
-0.03219359436421889
-0.04220209887409976
0.04048294868386679
0.018561288682064556
-0.06763153775499635
-0.0011367146446361917
-0.070994630674069
0.022041079115919425
0.03167812671149372
-0.173952014845211
-0.09177201099869686
0.002826705644724389
-0.14250447483727272
0.052492052232959364
-0.03410829114242823
0.10118502095178157
0.07531188636259663
-0.040112084201374465
-0.09655270925448461
-0.1114438133986612
-0.005274579904131816
-0.09666469821283984
0.006070421835994224
-0.05188882121894064
0.046561876857738965
0.021743834426759704
0.015570077724828362
-0.08130525365568797
0.03840360340997515
-0.030219217975690944
-0.038715857804666645
-0.14577206500377662
-0.19388527712492284
-0.11279523162837886
0.07707413812963707
-0.11294836496949276
-0.035897482747999886
0.15707889968270763
0.017020792936638388
0.057698627381459464
-0.11094748069831295
-0.08592517373087227
0.08384258167035416
0.00729614521034551
-0.06494405226239855
-0.14343007386362452
0.11168998183492537
-0.02795899551453527
-0.04685436420713647
-0.04747119851370316
-0.009020845483448418
-0.15479891459034467
0.041124129738910144
-0.15584346768206034
0.08010092153508278
0.03971621490720409
0.07096194439363476
-0.019418088281825875
-0.12683529574657013
-0.1408496114524751
-0.0748315579942703
-0.1700887925656361
-0.05203989395680816
-0.09063066844247307
0.06409042393083549
-0.031699393730641214
-0.022414167132725343
0.14183935795738684
-0.09365582017560137
-0.11364073017077271
0.07989918630450701
0.04821816525950549
-0.00646041621826239
0.12341364827483114
0.09202713009586025
-0.13962312831931561
0.1285757576762032
-0.13826062437399023
-0.15570148955735372
-0.10352059346525373
0.012841427962166106
-0.015432394014299895
-0.10672506659751933
0.05991200664854461
-0.09426457878899319
-0.08040335586243988
0.0005874579512409428
-0.18928807925097849
-0.08884516929911698
-0.011786052403229852
-0.013866849842052189
-0.0978263677002364
-0.19193972233226972
-0.007814937070647423
0.14956541119408087
-0.004783786519850747
0.03492824884451762
-0.09477778853571062
-0.11225521594879447
0.22187272300852753
-0.05330910058984118
0.08365854148348122
-0.10224827178846173
-0.07752096615725693
0.07855403872177677
0.012403466468665816
-0.09984866816130317
0.062028644480208325
-0.13430540139141334
0.027612992722026303
-0.2378871970401794
-0.06271850299725702
-0.052093867443284085
-0.10324696261417605
0.08301469742759468
-0.09431517565931267
-0.016025526074890762
0.018730451121245967
-0.14473844762488494
-0.015570744898785098
-0.0643109618505383
-0.06791073267914301
-0.09474971929637048
-0.07960287504112738
-0.11817522404669474
0.08601568501551278
-0.08710715171930783
-0.02341630083098767
-0.18441597060952794
0.06557586715930991
-0.04123834421510137
-0.03075802429003455
-0.08292947575471724
0.01226323033989264
0.05923289495053871
-0.07379892447943895
-0.062496834223773834
-0.042176022213891676
-0.04229534320901358
0.022839695890903504
-0.04422340293716847
-0.06613055791286497
0.052151660052879245
0.028767590543973064
-0.00417779566941545
-0.05215114423497114
-0.015283374664117368
-0.0737874454441075
-0.024274182876203098
0.060849253397159686
-0.010134329382360039
-0.13799529168770489
-0.1078908194053106
-0.04928519847858213
0.06873347452866817
0.046498139005151075
0.06699036175805283
0.05726167826600617
-0.07322951121105362
0.0913206026733136
-0.0202967723570549
-0.026232709692020937
-0.002732539374230014
-0.007554543814565099
0.08312915691452269
-0.038579142090713975
-0.08874050285923042
-0.05628425493586136
-0.01607702040857554
0.007750867216628588
-0.048520901914232334
-0.13925919684044133
0.08316795344225049
-0.012242429684049051
-0.032892349018678525
-0.04543937075023075
-0.10802152423048682
-0.12351650713607429
-0.04663077712067333
0.03338185474838843
0.019386211996009373
0.09246745028052902
0.052280150792458964
-0.10825099877864051
0.033724280180454175
-0.029189237076273054
-0.029598051547671356
-0.0750357376684488
-0.023386637100422242
-0.04609753814833251
0.04501200224952099
0.017072671775161804
0.03638108870706105
0.02446860685326687
-0.04133566783189396
0.00545666546404811
-0.11085218065245807
-0.02569929644211653
-0.08008818026202859
-0.013317262403212071
-0.0904804108794221
-0.26872338978806926
-0.08669303020224799
-0.01713212075615599
-0.07686804177913333
-0.1296048381774225
-0.0582603577722604
-0.11362145566992865
0.04242143650177705
-0.04741747348704578
-0.12099873678250803
-0.02746582329075908
-0.03689889411683573
0.016379552834726335
0.04169807582827445
0.10114279263056158
-0.09905675893296527
0.08587871954170465
0.037815353407730026
-0.0014448670857485496
-0.09158885236556102
-0.07131272869584698
0.06712720837956412
-0.08171670665378615
0.011650751938163933
-0.021651321375698956
-0.007963623560819774
0.08825280735074323
-0.07019014617810627
-0.06092163546105041
0.009519352791759328
-0.14660869808038507
-0.030808141774019734
-0.07145954517502262
-0.06768270511351862
0.08904562182616454
-0.016541765166559554
0.06849968848738393
0.06340046806758723
0.06558180463913012
0.10044804540364922
-0.12663865752534573
-0.05774169957433418
-0.02783491714041586
-0.1275846455872731
-0.03715095235733426
0.004887490283189001
-0.05045351803572074
0.02434358190909146
0.1283989441913893
0.09798724772414882
0.08092530426882365
-0.22581990125234486
-0.07990878743620425
-0.04079414422914746
0.08201100872524877
0.05523826687957263
-0.2250844620512568
0.017228700756487084
-0.22845831603012914
-0.023597937321295146
0.05042390800971767
-0.020789464732800172
0.05541789529347294
-0.06709543799078185
0.038227791666262896
0.12977326790873905
0.00846068039476608
-0.13825094463540194
0.05731558462164965
-0.1329734416635426
-0.024322010543221934
-0.10992681943022045
0.015911434333396094
-0.10272631699737779
-0.043117586828698755
0.0003661499434953819
0.030878249998667937
-0.024425950362003387
-0.09808468317337798
-0.10884937670575993
-0.09655358011617646
0.047170620651881254
0.05541928003218868
0.012297025085451987
-0.07648634416240717
-0.14581956854677514
0.014545023604629677
0.054308096205702476
-0.12688391077918126
0.22553720699485671
0.010969436931897007
0.005402823885868366
-0.08577552041886714
-0.006768308818913737
-0.16550406782459592
0.034967073914438165
0.03399406821557188
-0.03905437183831591
0.06911070173510363
-0.06003769118003529
0.06918713637216292
-0.1382259634514062
0.08816705818736906
-0.17242477939540124
0.03149393272820288
0.050602976803054305
0.008122845361269674
-0.2101901719492622
-0.04073576918785418
-0.16441474623422284
-0.023292502667711212
0.1457509460116791
-0.033026754121764715
0.14451976094399585
0.1398519840941626
0.08744344143358938
0.037129048378388096
-0.04889087766981294
0.13821527584942384
-0.10848320725633286
-0.03434409389246245
-0.0742293746883614
-0.06703849395764207
0.0313353343764968
0.026513211192985636
-0.2863038896058493
-0.10895002464921207
0.021541351971617564
0.11212437263586987
-0.07303494902210739
-0.3188114170022745
0.003244451318766434
-0.03715147123826689
0.02922109537881427
0.21090015547710222
-0.4389297603483278
0.11933291096187268
-0.15278338268552197
0.0757846093081668
-0.09772795328768362
-0.11582311115512578
0.06484925874465847
0.061474277326577634
0.031534251695789814
0.07748409228794186
-0.05809128319628196
-0.09465202326199393
-0.4896822913317338
-0.12896604220095445
-0.09274533729279334
-0.09284265119841087
0.08360500936968462
0.06787924373953154
-0.011506204945299423
-0.10225361069088376
-0.05313811888351798
-0.0965289023944092
-0.08326533971678758
0.3438756420670978
0.14065060853554898
-0.20412145363660986
-0.010177514436594468
0.07788718530076712
-0.07232128619286976
0.076344357291117
-0.1037763284319183
-0.10454188885754753
0.015563171870186486
-0.25229680005846034
-0.06379524762517472
0.011497059843778606
-0.0062693098330137975
-0.16694527417786695
0.2722999494898769
-0.2414957430062722
-0.312799331355596
-0.1279931122243941
-0.1905589676825529
-0.17691469448237054
-0.12498533252461377
0.10654043519925548
-0.30279534069103575
0.3189448170083276
-0.2770982571665708
-0.1754021059854456
0.10789149760813396
0.31607847004739703
-0.0792073712101984
0.2664795791594052
0.06393136409094538
-0.30612502455459895
0.2949746093803477
-0.06820339424855786
-0.3846247896249881
-0.0019498398210758836
-0.20089306554889763
-0.04212309911096714
-0.27612417947671675
0.20856192569593957
-0.2909382168736892
-0.07583119699282473
-0.12759308541108194
-0.31860832435025327
-0.34700260244415077
0.5851064333358827
0.0767890107487067
-0.25455266112295905
-0.45625287311330787
-0.06830760559161375
0.5968661062111533
-0.3331320567636686
-0.2445624669710697
-0.049118131604038356
-0.5726093880646408
0.7137183974456848
-0.10350880611345657
0.2616621243482133
-0.3674380095118415
0.23753321318392717
0.47349269847740155
-0.07359468682967861
-0.1525831337519789
-0.06287258329045815
-0.17491864586722974
0.020140415282104904
-0.19456789712087558
-0.17348216628113633
0.017724083928172117
-0.014148168662265714
-0.13077429895007922
-0.04679141963384639
-0.08576829865003077
-0.11806775537625686
-0.00829698334587832
-0.002658631107182963
-0.004290639116790104
0.0688999028162792
-0.057338871671566205
-0.12597910058005976
-0.007994251203243463
-0.0477465459454298
-0.07528514527069005
0.03906163682674996
-0.03240982859529944
-0.1399844708385619
-0.13852787854771947
0.05401352518503634
0.11518517565676448
0.03397723246323806
-0.02948164641082192
0.04942915428150041
-0.045322329947988564
-0.12490797967381018
-0.1028940243502785
-0.09042373357388538
-0.07259361578569005
0.05081518357688583
-0.0033769124357388575
0.014243239801966389
0.005735809191157423
0.06949024659487697
-0.0909705965259025
0.019062474381116416
-0.03404534646638279
-0.0790309051558662
-0.10958970912913253
-0.15361649610348474
-0.013610663362344134
-0.01801949470100092
-0.10000245831839721
-0.005494408436257723
0.00018201329307969175
0.0889061298695344
0.025660482077701444
0.09122461315042175
0.005802577708344786
-0.06455334936803522
-0.03644599594441497
-0.12725266071877517
-0.040340101045783165
-0.11331075029895547
-0.021451697997943418
0.0408337316879743
0.01099548042724492
-0.12743997641737395
-0.06442687117639527
0.03095937614505684
-0.010821226434053656
-0.10619107455280488
0.030346138624791436
0.03070199231272287
-0.09674821617491554
0.02319209059508549
-0.09054383255721245
0.05756029161870691
-0.1347523387997089
-0.09878440132728998
0.06339671343091645
-0.08456443516892098
0.010681927567881175
-0.06012663740876539
0.02143744241258458
-0.0626549123614488
-0.08133034389859872
-0.029014197085367583
-0.1649374305509089
0.13406456345171153
0.08590583652036224
-0.13480845579375508
-0.11045193539564485
-0.23894150532299727
-0.08590741441931392
-0.08114489739259058
-0.085051629390993
-0.004237439553640893
-0.02768158164785342
-0.03784409775693343
-0.1673720686353536
-0.013089529540016178
-0.2349991843554089
-0.04646252580533451
-0.010087701834223223
0.11253904869685875
-0.1355203571539284
-0.14779999586594073
0.2348300473024672
0.16931205528621032
0.03306011811262501
-0.08825424556057596
0.08425608585131614
0.0679204859618809
-0.0699196546266445
-0.0753630878730373
0.022827381036792913
-0.03966692328967094
-0.04834700667149267
0.06562572179789507
-0.03239237800530399
-0.014672699482105462
0.033173561979804846
-0.07030605223280406
-0.024249535233414908
0.060186822283033535
-0.09482678555594563
-0.15924700156534294
-0.03909908412413047
-0.09876643231995536
-0.07037774480513802
-0.059729289096228544
0.03901611947710318
-0.03319837491870189
-0.054899665675925836
-0.09181858245412007
-0.06296413177636895
0.07819760556150562
-0.011553547211676955
-0.11874032623935209
-0.026309795912274937
-0.04381139138047836
-0.005734299758767458
0.22441719667581086
0.013387134287814068
-0.11462915068119739
-0.07635544211595333
0.12062260706615026
0.22220252416615327
-0.043336923535808404
-0.017468553978971926
0.012239130901682018
0.07999630544702538
0.012675000926617684
0.17017291897652065
-0.2507806231799159
0.10668028571665245
-0.21081456053271255
-0.0646319884312238
-0.16229399869156497
-0.004611142913480392
0.04291939867301829
-0.108643863129777
-0.0064316050196663805
-0.07833617959073223
0.05933792309966235
-0.0823590840785038
0.03388220368293585
0.05060400648051098
-0.04212769066402414
-0.07805504238475927
0.15544829548096206
-0.05283364274963464
0.01694936902753395
0.09453595484307174
-0.19954722041104722
-0.020347273445627964
-0.020876603672692798
-0.359676903211323
-0.09232572550095941
-0.09602753024687763
-0.03758818018855708
-0.21681176598963353
-0.0035290227515774736
-0.01960008583903605
0.015877426827727484
-0.18805799910024798
0.04721821145061844
0.28250721279163044
-0.07881170085850794
0.0489396792154711
0.09591795414424883
0.1919192115026326
0.02818895784465241
0.19531190165029527
0.268786630211848
0.013843643135960308
-0.22069055367804938
0.05497451886088414
0.11313343434816883
0.020049748014492285
0.21345229189097856
-0.4883679245210592
0.12236981474507852
0.18814906042117246
-0.14540961500661154
-0.05234784541937106
0.06345470468707955
-0.4148311453469138
0.09412484464462031
0.18099685525927928
-0.06918029221629288
0.15858683890177855
0.13713601464539218
-0.013201123656284649
0.18442294546559868
0.06938858368416204
0.210224579305185
-0.04664003051595866
-0.06275420006399858
-0.08323234990770896
-0.0063987933934131465
0.22299401029057273
-0.18839084661663955
-0.2946003829690058
-0.2224181996204933
0.27073345258010756
0.42123246876958526
0.02618821807612649
-0.48956428397264834
0.20664723721394035
0.0727859412290846
0.05111788097594044
0.3186242612960481
-0.6414465803030324
0.10109836470127499
-0.3718296104558613
0.16136377370294203
-0.2758944509647436
-0.24930427267304756
0.1035258647895979
0.04690056748513609
-0.08767525023596501
0.0925802642666139
-0.02173927396267046
-0.21323975643838577
-0.048272600342373455
-0.19052416836818423
-0.06350553285419806
-0.048535665043401295
-0.0776723211102675
0.058626238147699315
-0.0014086162745719423
-0.12271256719175683
-0.08323269943768205
0.09534063742890661
-0.011919329186126551
-0.09320774641636627
0.05914456829659642
-0.03653567502667065
0.10283585135172854
-0.08141066747999477
-0.06683860312840491
-0.11415880374064688
0.03818120270356231
0.1498738752865956
-0.24225100289489568
0.10590349007048214
-0.016700233984056994
0.03642396148596322
-0.01705273599959274
-0.005243481733466916
-0.13069304738695484
0.0028803709853854383
0.19118660545046764
-0.04477021944513117
-0.05387324810738752
0.06234669304845699
0.040435417000704285
0.030239806666359854
0.21017541686706626
-0.08286946085209179
0.14429844946242562
0.12637638046991104
-0.07832852763647656
-0.25493754782545874
-0.10470383694671168
-0.06449886482216621
-0.0059314899036686936
0.1048171081312201
-0.006399016072878372
0.11366219052646484
0.09740698004021825
0.003067404387538474
0.04403650678163182
0.0873053205131771
-0.010173243010616116
-0.02771328222670683
0.015785915123130007
0.04208824473161346
-0.04786471036193199
-0.026725571965200794
0.009423915951494171
-0.1525826297703004
-0.1786879484905939
0.08762551857284483
-0.05613312422228404
0.06637166098647393
-0.18161666420636668
0.14013078550521316
0.04312328765565862
0.053888529829544604
0.20644108249322385
-0.26972405733669663
-0.026995245527754928
-0.1271470700554531
0.1655256807460567
0.04680045979013269
-0.1629895040304836
-0.06425160078043991
0.0665683873762256
-0.06011558978838579
0.12798974522825327
-0.04205824850812212
-0.09251509810230338
0.12192559519592089
0.09186719785354672
0.01995315013003387
-0.05563044570181796
0.03456627981810835
-0.23046948934528272
0.01594179851348159
-0.05055562879438177
-0.15684411268747062
0.006616245393158415
0.04882778241519667
-0.15438694917384005
-0.22851272408711576
-0.011126178673298216
-0.07935757024642501
0.05364243320572214
0.081997284622612
0.04137633531768754
0.052217233248213354
0.059093974229372404
0.042753378267008264
0.2617908897042482
-0.04617835478619549
-0.06699582508870139
0.027140402416456627
0.06941527689661463
-0.17187977340296767
0.20379086291874868
0.09885594768766945
0.006322605959761223
-0.01442326534804617
-0.05149559188097524
-0.03482382449627437
-0.06813159152242701
0.16174034680354193
-0.16626432719232684
0.14664096438722166
0.24891358156273458
-0.03872044459135626
-0.13582422958961024
-0.16000721980886223
-0.10354716078985227
-0.04339443583741094
0.16997894317525009
-0.03690674747992258
0.12763237104599667
0.24853752201157833
0.142024976000456
0.07981016256386397
0.04567450770570452
0.055340165203311
-0.12934436622411866
0.0607859587120177
0.09133092274961785
-0.06330796322750062
0.282906595135135
0.1064862765193631
-0.29385195478605425
-0.18574157039949893
0.08134123458334375
0.3997287065212928
0.13460425576506707
-0.518477588339876
0.2111491501466359
0.03590961399936911
0.10627727623075262
0.40471252855555134
-0.6607584616377051
0.02072769669660607
-0.3804063473933109
0.19456120685441858
-0.17726012684560497
-0.17283849031844967
0.05150373198923977
0.09934420846914667
-0.0928047764955884
0.01210472245159936
0.0032905772726092575
-0.027669665352113647
0.1587899708528559
0.15485313533296774
0.06365017349949402
-0.011292872404222503
-0.031915808556438746
-0.26955623842285614
0.02497912081652035
-0.011850786457785617
-0.04595152656379834
-0.09854742069734541
-0.020799722996451053
-0.27358195193617196
-0.2125045316759269
-0.049031698608003486
-0.1994913765997935
0.022241963067674654
-0.08744928994716539
0.10538668033073337
-0.01697734464034094
-0.028643518090841424
0.0756263216691846
0.29287452547683873
0.02599962789613617
0.05692498626866668
0.06903906646053812
0.1370024776222004
-0.1384917762376994
0.05740467044426313
0.12165458175286904
-0.00038171497216146397
0.1184886378709151
-0.061865641047809165
0.11118546493935723
-0.05444621654191121
0.20028663161552818
-0.16541491560502572
0.07901259185639378
0.2613409562544557
-0.04409363091487503
-0.11381924448183321
-0.03401317894092427
-0.11765004258015072
0.04378457507687197
0.19247010583164578
-0.11189077364446659
0.01929560918130464
0.21951766184922306
0.041674959627030495
0.1503589460148599
0.013814578950131882
0.11636642343822245
-0.21470665627985777
0.08840806437598872
0.033383268920215425
-0.05380645653729923
0.24998482126707075
0.16882358674375464
-0.4372163044118933
-0.18321045156191057
0.1662310325940578
0.4827515677502117
0.08965124365702169
-0.46838400972762584
0.17330123085883553
0.1736911358645986
0.10822634860587906
0.3679148661290378
-0.5961874692619421
0.013359094301111755
-0.48266084016928235
0.22276847210187792
-0.24347184359996196
-0.2979950869532734
-0.020565875281498436
0.09359470005975051
0.012085014104738794
0.10397844755316747
0.04112919837272011
-0.021219948940221067
0.1314945731905272
0.15978514044429312
-0.026179795727647392
-0.12653065351453496
-0.1899467354864638
-0.25627042906473907
0.028420435293896627
-0.06410205063605479
-0.07239217249557242
-0.018407223386056007
-0.016747733094234718
-0.29600386330111134
-0.08266920995107908
0.05272157702389382
-0.1527210911625732
-0.005047542190407419
-0.017378457237389094
-0.022998336070097228
0.022127128013272393
0.09490894943362417
-0.03863244118235932
0.2158522228245511
-0.033049864799084006
-0.09580740222203854
-0.004941435996952848
0.006219228157139787
-0.10319555245237631
0.12599996353716508
0.09026547344333491
-0.06764226116450492
0.14420065254339084
-0.01675619206027679
0.02095779453218832
-0.0737836911003359
0.24697367919356644
-0.12169575806436264
0.19312576218939956
0.11816287467090526
-0.030993950732967034
-0.23842650547850422
-0.16253066498832563
-0.17764557883165016
0.004841236991082992
-0.04167739793918514
-0.16051381005251217
0.06066212430490259
0.18990050644803805
0.10841566398862354
0.054148180580137636
-0.0602155145664671
0.08027699093801108
-0.08455853453255453
0.1407254192206362
0.019457241682834622
-0.09204736453890248
0.3840264488638119
0.13268722728639323
-0.23426623924945522
-0.04746672427953648
0.24736998803317048
0.29499431982848556
-0.027006924830267114
-0.3095134983055765
0.10174531482052777
0.09751368031704567
0.02725570428380704
0.31787613880173726
-0.6720989444253084
-0.04094495864458957
-0.20687851542668756
0.1412363261717475
-0.14529347176721807
-0.28123905423964934
0.02845053606158165
0.05579690515426847
-0.02837716601074016
0.12294485892004187
-0.004383543279961849
-0.08598750591833687
0.22203134526461762
-0.3472593379751217
0.08521451453912386
0.0762307718428648
0.07943766389446087
-0.028517789308286523
-0.07047963991337639
0.10885912038102093
-0.1823202443982663
-0.05656354291521362
-0.05745751247215243
-0.3609754402553165
0.1754448441423782
-0.20914089465967164
0.19472535002927588
-0.14790328404778488
0.07208971809300993
-0.12870700826933104
0.012434951879649802
-0.09788592635586657
-0.3066333282990101
0.26359623023761525
-0.04380537427093798
0.07751210883170936
-0.03601093396937234
0.16822112469889405
-0.03472368384687757
0.21713394277889903
0.2562539148439874
0.046255923198249976
-0.10783737282257204
0.02708383056368707
0.1309565829004467
0.12299311148980807
0.25073744307708595
-0.5268464934185364
0.15876971755166966
0.1258548683700531
-0.06409054777839335
-0.19144804329551351
-0.09308585341647693
-0.4917916867175558
0.028707098407086018
0.12941542161377487
-0.003151326406062822
0.0853464387038637
0.3207842669971319
0.024132323771497686
0.10475374605531024
0.012640486377951022
0.22751774869071217
-0.17409795985061854
0.03614062415442608
0.09020412661592211
-0.04543661076212378
-0.02335090865634085
-0.24969931636991963
-0.2746077074410313
-0.36541080915429297
0.28057524932229416
0.2530553690294052
0.038072649998823295
-0.6067622162116522
0.3288560645145642
0.05725770591611114
-0.11361714084382392
0.4516961567973646
-0.6382041012548435
0.044377660809260866
-0.16371508012265074
0.2272674929042741
-0.042825670689681315
-0.2764220713825795
0.011095068038064242
0.13354174517361053
0.047821650196731486
0.09570817529540072
0.0979901246522436
-0.11906192456574777
0.013709961144060624
-0.32593046043235324
-0.06851997658805402
-0.018500519254221404
-0.041403315434712915
0.290527074088492
-0.0726087882967047
0.058616586289865984
0.0522980300354657
0.015993692008473934
-0.0832058608858425
-0.04611804835936899
0.33829345882879513
-0.10711978822460995
0.15910107763045475
0.040294167775692336
0.07289749295668943
-0.3856334016510843
0.03516036276981949
0.01972170051387882
-0.1968736598896313
-0.3139134284473922
0.02121566654028921
-0.08655530035485398
0.019553972785241153
0.013653673198769384
0.036551390053959666
0.033497788761035145
-0.03228072563120484
0.042863161412458356
-0.13140980379736591
-0.12399248684447034
0.06787588166477607
0.12802823153447015
-0.03237368392074815
-0.032587628674303835
-0.06379732886939764
0.014497842413947028
0.10081813477129678
0.060298232140140365
0.030485046048244462
-0.020262522076767268
0.003495029462503768
-0.0812693019618126
0.043188468369948746
-0.07956937642558184
-0.008905271074005888
0.023911208267561566
0.05186428124194525
0.07054615486815295
0.06281317790093591
0.025535065024427712
-0.0033726169328748275
-0.0008159840228460224
-0.0023106294332221286
-0.2504006708969528
-0.21938932312289208
0.09113393030190324
0.0693948853083828
-0.19870437208101838
-0.36819807473719623
0.04721806068765637
0.019259955032573228
0.1098172422737118
-0.05642419496165637
-0.1134455470619783
-0.21721906717727732
0.26792272733338807
-0.014109495571760373
0.29187548632366406
-0.13142479178059255
0.15490906476571517
0.08917904351058051
0.05208771488978238
0.04732538060555173
-0.12551917046569794
-0.1293038754730335
-0.003950446772600286
-0.0078492833014825
0.25503856477892684
-0.111887054235055
0.009566322967999903
0.09333251888828484
-0.12197383037660518
-0.060757833713059456
0.041159804928680946
0.10718306215390233
0.07337260653443486
-0.06883370726088167
0.0590258988545225
-0.21797126712799647
-0.06823289658884299
0.16814759981547892
0.04635762963687436
0.06442934395001045
-0.03487733777499549
-0.13895352888988202
0.11737347481256748
-0.01761429721866033
-0.0020112422492156584
0.36068325901885756
0.03206041208333387
0.032919002368996086
0.05344767433963915
0.08711766571315206
-0.08203483236234993
0.21149008357840085
0.3050455036638749
-0.12437381356401653
0.11477598243237146
-0.06695128619938787
0.018362904827995297
-0.08232865127644005
0.2232760946413012
-0.24565437811953778
0.14594223470635853
0.2619261569700109
-0.16084480490882846
-0.1665014257219491
-0.07410160005455088
-0.10752747585230722
0.01807842795701689
0.1168761911949661
-0.16024730130088813
0.01732295841472671
0.26811191297340503
0.0417106200640522
0.0835788417915059
-0.043994101982299236
0.13124156858281527
-0.08003687798983741
0.04758875806283953
-0.017062480928801665
-0.10885553637927345
0.2603102608564516
0.029426821208343022
-0.44165812295251994
-0.22625210138931143
0.2044451662732783
0.32918499461237627
0.05630066800846213
-0.5239730383791424
0.08987499214798614
0.032056554040119124
-0.045397342831055336
0.2841896153935657
-0.8379662740206623
0.14945606875751907
-0.31273329999628763
0.2709345079817829
-0.11766500011925839
-0.23603994453521496
0.03205909739548818
0.1483100868536085
-0.048380349153884915
0.16779173663257538
0.027240374621016777
-0.15152038686659955
-0.17431623762368234
-0.13180767598519508
0.03087717455912236
0.05597127962039515
-0.03990340196101978
0.1538284247910377
0.05346036110971162
0.03987919034506974
-0.15540615286564338
0.0811663063050655
0.046555033502044485
-0.11398068990288221
0.10503207411557561
-0.08116168003950745
-0.03427651807207903
-0.032932579803661655
-0.09522050179855245
-0.051965412061660624
-0.028096440328091173
-0.1300386490919452
0.0020172624314648523
-0.10737360698813841
0.020854594490286444
-0.01578128747610219
-0.061625847828047677
-0.02304136295245291
-0.0510699415700511
-0.08557449540256275
-0.033036040309928356
-0.12331756503865607
-0.05756351408459925
0.042128463279135206
-0.07715522643043225
0.06764728448209852
-0.15263800383381604
0.14688889620477932
-0.11416202457729792
-0.06127783812083684
0.05580777481180004
0.0234877659286866
0.012203873077158563
0.04309022592548128
-0.07283563956365657
-0.1458376019807051
-0.04558229556471146
0.027974703162579037
-0.12381512347274166
0.011331125812370835
-0.01879774114510892
0.00500122425264745
-0.06915823274786537
0.008872082229945998
-0.10930710627805225
0.021183118480785718
-0.0023760234576103044
-0.19401713143651658
-0.17766596035088064
0.15775448308302742
0.07894545269802843
-0.19713263765210876
-0.2322967338590323
-0.030786171910678863
0.2508821288250411
0.024345465168853796
-0.10461325482320218
-0.015677446242030626
-0.20395869479349588
0.14860591480672353
-0.028781962742235663
0.0992807436326237
-0.06767244419548309
-0.012708442781124048
0.06364483607848163
-0.13601171165752324
-0.034742574967740185
-0.003213845657993777
0.035167464710931656
0.0925801550048104
-0.17709812404438785
-0.2751238227411201
0.21405719073525414
-0.04627029737142821
-0.045564384375660474
-0.029556872678549773
-0.20713112013047005
-0.01055458168761669
-0.08402953316970292
-0.04785240993373255
0.008114895821524845
-0.046929138276225274
-0.062472930438832175
-0.18922497447258949
-0.05057465699581093
-0.15905495010422765
-0.02569566673595005
-0.07331155863069497
0.1556369639025525
-0.08270813250013638
-0.026405418950629853
0.16727193261596696
0.04198332599974544
-0.11185100365798827
-0.07632259243642117
-0.0377008936755882
-0.020338585950068707
-0.05173395926318686
0.09531656302128362
0.028356453028653514
-0.035730811889471595
0.0816366324883965
0.0529766186740082
-0.010917200645316656
-0.12025228660741855
0.12840150220821386
-0.10588160730767467
-0.026608142032656185
0.05916019254273498
-0.10174725876550633
-0.05182466686448068
-0.18207022475112986
-0.1127834417693136
-0.05531251392935828
0.03990300995373453
0.0532712252555804
-0.035092571845898764
0.08009147734221733
0.0899491073715294
0.06896979907408572
-0.05439939643993101
-0.056626208137321325
-0.028079177806606286
-0.09663560170260786
-0.0837972245560771
0.058485339856433706
0.1488569306056148
-0.03160453563007285
0.01669857722416199
0.0044919041283482996
0.026570812334198786
0.1654925412125939
0.003189200690790708
-0.01111620329702056
0.05343730548796389
0.10874550096121843
0.032035454222302244
0.1344497021551361
-0.11925742293604781
-0.04675700341740652
-0.20490994392631767
-0.06241280249354715
-0.07086205736893454
-0.008577697068596754
-0.0008916290587563465
0.02088690128570102
0.013694303739167971
-0.09706381496634278
-0.04990785836344012
-0.0286680062122498
-0.2905655278701178
0.05368290846640949
-0.018235896519658575
-0.04267994503021145
-0.10548013927181604
0.02656480736391237
-0.050034271941205626
-0.04637184639085874
-0.002770008588097902
0.027376521756467237
-0.048469310024004564
0.10363887521014971
0.05858469149756926
0.022793420953571883
0.06344962951230877
0.05822028026051199
0.04737585045843953
0.05106158465379691
-0.15400532930031358
-0.07863467779002095
-0.0064157400795182
-0.07339901841043804
-0.07620174833388098
0.01979570589849569
0.06406431355196074
-0.15946429110791097
-0.04254403913022262
-0.03334635099777986
-0.08828941046864311
-0.08770081621713888
-0.12703539684625176
-0.04834942350907489
-0.01858723844771614
0.043505261784846753
0.008639670580560555
-0.013187485647351624
-0.1527139842375562
-0.10642775441503431
0.09163033920526041
0.028298995862946378
-0.0056647075281355775
0.043719965836788374
0.009657344334842291
-0.1666641066021192
0.1505026234245771
-0.04307134463089085
-0.11748804229064859
0.009190663535969758
-0.08243776932214292
-0.09790204996969219
-0.03533941075734824
0.09076967163476202
-0.11932438582805435
-0.04993888656542276
-0.02020673649781706
-0.12092404802480025
-0.21424707743220903
0.07168290227013441
0.02962232380911553
-0.12849591257078738
-0.15495882451471502
-0.10510397276149919
0.22446849167784863
0.026323653420575275
-0.15381593017461173
-0.0017429362375765115
-0.17885427581734067
0.18779368966392426
0.03857302839151175
0.0774905626316606
-0.19777356504336377
0.03063165865588216
0.12753765054490013
-0.09054453695739151
-0.11167042591877503
-0.07427309669929641
-0.13316060686670056
0.04963920740745914
-0.2012861162169909
-0.32670578818543394
0.08786434286392814
-0.004244467878839398
-0.016117723508046033
-0.12041652394337238
0.0786253711992123
0.10616526942852446
-0.08474392558224071
-0.06137206092194865
0.011473418193875082
0.027005821287034354
0.1899315572679034
-0.03021613447637067
0.07998979949012752
-0.06389094999595493
-0.006158513722253539
-0.0828342054372032
-0.05781640644229646
-0.10640055891664073
-0.12392852813473736
-0.04506208525668536
-0.37306462645637695
0.06566866948720823
-0.09256891072513858
-0.003385278102209094
-0.14859499131082468
0.07496677862952793
-0.15413510466641686
-0.16650941198547783
0.061618714836998684
-0.1389073829637423
-0.006737086218008197
0.035804881923210415
-0.00802177337934622
-0.28440646608252396
0.16725674227416004
-0.15757797884369315
-0.23750704716043633
0.10390182009788074
0.11598099661008619
0.013143921060038937
0.13993556125581832
0.05693574685652725
-0.08118120569111338
0.20776498651098607
-0.21274913023404307
-0.3177750843966891
-0.11104147969178926
0.0009704878039345973
-0.09926389154688604
-0.09654237491147569
0.07856990245870114
-0.0721815836952677
0.057310393211224636
-0.09603783255971332
-0.3192887526411586
-0.21413154398948872
0.3933167665208299
0.15768114744261677
-0.2362271698596816
-0.3080070416300215
-0.00505476023338124
0.3466918822372594
-0.24722119434499928
-0.1622463271185891
-0.07150087536724006
-0.477716885740425
0.7429618561355192
0.027297469539477284
0.08480964569553624
-0.197953757609468
0.15493047888746625
0.19944645652678947
-0.08401802619549348
-0.1900635002352275
0.002688326050769263
-0.10257534765796858
-0.027838141037139552
-0.03459046751612054
-0.26595935540463006
-0.07393152431514989
0.03456788781741148
-0.026680220761961932
0.08925238512895803
0.2134267340592461
-0.03595198252286014
-0.11478400039308288
0.025650702124086048
-0.05948222499651639
-0.005323017443933459
-0.052683931149027086
0.11190103191715717
-0.10565391421092629
0.19254532012020395
0.06832109369166396
-0.05878995261300817
-0.13233203333619425
-0.02359210056326099
-0.08153382832839431
-0.11450711325789897
-0.1542586921529805
-0.019490256826845173
-0.07784041180743347
-0.08559562474240974
0.024057715727956123
0.05472687142380374
-0.07327223170581464
-0.05676364384137644
0.006932040952970061
-0.023176524838953
-0.16002285417223455
0.08357653366407859
0.08178095517609468
-0.16376829490920097
-0.03827473369291565
-0.0868520910484765
-0.039069382963140775
0.05081060535029851
-0.06022666452972536
-0.1397236223996757
0.10744586708898003
-0.03668727316189284
-0.07128076896313564
0.0991327788135274
-0.01846346779071682
0.005581068206691493
-0.004177665023143626
-0.024507037519080586
-0.02929997445553152
-0.10608566427788976
0.05441981752400511
-0.017524501026600487
-0.08733321788007252
0.011158704631521112
-0.15880555157298623
-0.25618796067746796
0.06974756323940014
-0.10866141410712055
-0.14237034247890357
-0.142097200157475
0.02821109903256907
0.21154017828503374
-0.09431722571315948
-0.03939932527295552
0.04629209486527322
-0.11982739202696688
0.08256906381742511
0.06797264796255038
0.10853248603047126
-0.18040459428262529
-0.04390043785634951
0.08531822769254709
0.06771334666907522
0.026931458782965784
0.014145180080525156
-0.001129606434278309
0.05345670149284698
-0.11938022387360915
-0.2380755805411196
0.17336183900239507
0.0371021133367334
-0.12778213303317118
-0.04499778415941668
-0.043378905313885066
0.0032644651956497198
-0.13092283793587803
-0.07324413436033861
-0.017829137101800743
-0.013623427408260613
0.010861348601172558
-0.027085251052147527
0.008466293216038352
-0.0013146906098600417
-0.1303021675731316
0.054068037431831556
-0.01584965216104047
0.01623349223133272
-0.05864705084575774
0.11074131913017869
-0.16674954032896477
0.003764511091871116
0.08041872372868494
-0.060730967056586316
-0.09667282306652199
-0.05948827496681542
0.020186575673194485
-0.011523405872804163
-0.001096018111138006
0.04862996138174364
-0.04580988633945793
0.03945811285414048
-0.13679937087528052
-0.15124440701056927
0.032979471770564185
-0.06429923293857022
-0.11665251279058343
-0.07077306618523335
-0.09078369972685148
0.03380971138829965
0.020840421852360166
0.0147775099903866
-0.07127571213626727
-0.041399992074653245
0.008463489312525833
0.030245685313790713
0.024767740967292187
0.01658794513386706
-0.08160499113417277
-0.10503043052473514
-0.08519676509370994
-0.003532269498077461
0.038040938505913724
0.06214825373506892
0.017398429973079166
-0.03417208404089324
0.08878348135287517
-0.03527539634830033
-0.15328624972034485
-0.021127765861732484
0.007559841421750634
0.09663089058006073
-0.11865345828714058
-0.021175088576109505
-0.030876261671665187
-0.09065801010356388
0.20534501084816026
-0.07766917958310562
-0.143812718936566
-0.061368035652526964
0.06223748621621701
-0.07810899190469962
-0.13029763697652466
-0.12999151440348283
-0.025470142189105375
-0.026914114666258995
-0.0528014272769912
-0.2071237035909494
-0.23113456044963795
0.07820474477849791
-0.13771545856662282
-0.12388744393963017
-0.13584678642817927
-0.02909445080920525
-0.038101610893872775
-0.05635413066193304
0.0019233100926536076
-0.047904654484585724
-0.06417809392803603
-0.081182484123224
-0.06225469061567759
0.05405788389086076
-0.1299278395245986
-0.00529253775532703
0.04505386160670613
-0.18922634631900087
-0.12749361061490128
-0.01030216207148452
-0.026201353013437578
-0.264048758431424
-0.0249998948947576
-0.03254732508432914
0.07780998191580588
-0.015598037119599402
-0.053456119748061796
0.02303406025936388
-0.08715664884111185
-0.014829805574030389
-0.07333887900964565
0.09012802745061164
-0.0797030119200587
-0.11562482892235422
-0.1586112329170996
0.11461209693767428
0.00783205207863428
-0.11202615326906476
-0.05586968936918942
-0.05368754595827393
0.052760514748394535
0.09723809696923312
0.07872905290789353
0.007274986342160846
-0.043338191802200735
0.010536365951166067
-0.03643475860498828
0.06300338442130231
-0.0474422554577713
0.015214873516898944
-0.034951081856617834
0.08838414239990462
-0.02665405752443467
0.07293877528394818
-0.1016321631101153
-0.10468712480637199
-0.1295042435869141
0.2391618926232861
-0.07789053794555226
-0.230870284213745
-0.1853394514631392
-0.02713764704295723
0.1553566242713769
-0.00013184546258726646
0.026269588646893702
-0.0733926996999243
-0.3673349964451453
0.3932827440054312
0.048584332027376206
-0.07128567511356897
-0.16922763517394662
0.15724305809660916
0.03235377871478034
0.04944598997838416
-0.0020582378184216144
0.04422247740913522
-0.020336341039791293
0.050580769685649035
-0.10081708488318518
-0.16684473108942863
-0.18285676706361317
0.07449933854972617
-0.05819298380479865
-0.0032945240701924743
0.13705969426597758
-0.003331185009619709
-0.1496548436592721
0.021361881910160543
0.09162401860335379
0.033925959758928065
0.018571108165763187
0.21138970139124064
-0.18831508977699105
0.16179686749204977
0.024500036354513064
-0.05235637378120375
-0.09533257205823785
-0.0468199533695299
0.018470853320021196
-0.1555531985973921
-0.23341525486313294
0.03759627941577703
0.043629436563350665
0.014970935399500188
-0.06135003056604817
0.068248754237858
-0.062322899317748814
-0.1976927008402378
-0.13477769377582263
0.01992185106107816
-0.12332048860916345
-0.078310791269527
-0.03348664867537458
-0.14748459350916376
0.15680043860435533
-0.1798952454285713
-0.13975480962738118
0.07954869498754948
0.17560549975830883
0.03211134180962092
0.031971397534344574
0.09984906173317684
-0.23652169677075455
0.1238386232782656
-0.13184913738508125
-0.12774664553315013
-0.06739621907589947
-0.16754108175327168
-0.05135844889075915
-0.12833263927987928
0.04585190254929751
-0.2279489448521519
0.04196689618385269
-0.04847988106770997
-0.21342639525594487
-0.3248550118763959
0.28915286443033167
0.02622354909433086
-0.16775390205303353
-0.35234581310152996
-0.06740116939515554
0.3917163726617967
-0.209915702986611
-0.1910973692592196
-0.07605292760977768
-0.36110953831818204
0.5082562097355131
-0.05366852087860864
0.2630285664150304
-0.23502911710543323
0.14885139761660318
0.27297892405776714
0.061077200512198636
-0.0808586881254743
0.06958306160233003
-0.1772094769844642
-0.013497556379052547
-0.1204747638413188
-0.3871370758549882
-0.01016916805964043
0.033136992945839286
-0.03561531070565531
0.005642327433167068
0.20870060860179546
0.14130438451046953
-0.08797420109128462
-0.10336123557888557
-0.02645339578475768
-0.026904874208285537
0.35342199805405267
0.17865667353343276
-0.05162196119190003
0.18290938791631037
-0.1385152965659876
-0.08537674069054597
-0.14636055598265374
-0.13395955867376297
-0.12739750520094176
-0.07818227447066707
-0.5754746110260477
0.03966678108834417
0.053948362423540924
0.040071728758689085
-0.15500435903682375
0.24209422504195668
-0.18399321518846595
-0.349968873144068
0.04031336235782377
-0.14333150008026913
-0.07495491667328026
-0.010959541780428269
-0.05726879319564455
-0.4225445898932442
0.3444063558647777
-0.36779882606566
-0.36830262765841276
0.16076045649308415
0.16391833787326998
0.10836452711825229
0.3761968077150755
0.04690666504193089
-0.25927873734965856
0.24485418921008212
-0.18512826109872826
-0.3730096478878142
-0.171842486442155
-0.1274631530492061
0.03050952390832156
-0.3473981611652023
0.10799472708773274
-0.22826655318721756
0.09109391529979657
0.08438620851012774
-0.4476327542420787
-0.39745097200043555
0.623840555244793
0.22024352592080187
-0.5109807955215867
-0.6525149699140367
-0.11480446618689077
0.884903376569334
-0.34867827348161295
-0.19591346984418756
-0.2400542482012767
-0.737064921909722
1.148336882733306
-0.16647930862784296
0.31881232908497614
-0.49676282762259166
0.19388792933415136
0.4149577070694477
-0.04093760471698368
-0.14248774238876172
-0.01571219724226545
-0.17757468869067258
-0.07837947997435174
-0.08064352270837404
-0.15081611294688924
-0.11904858058543585
-0.011107075009671234
-0.05905682877202112
-0.044056676021905425
-0.0233792050155779
-0.046754142819804625
-0.05275071062747713
-0.126297224559865
0.029895553964933236
0.07850805360593832
-0.1382223105397695
-0.04436382165912575
-0.03743601966690117
0.05742500942619427
-0.005328952206252591
0.010446847662769307
-0.025303531224558605
0.034992167921208954
0.056165448811481736
-0.06968226315771019
-0.12089727057909158
0.006959193097175151
0.08933962078044572
-0.04394554654000076
-0.11260653288810937
-0.06332956298254705
-0.048385081809819125
0.0850501329114699
-0.08954020792978566
-0.10983545656663245
-0.019587756497499605
-0.040151940460786295
-0.07136191476728347
0.05556797554881766
-0.05969082563213409
0.0867578218688768
0.04115541641356007
0.07650357992780041
-0.03994911859434412
-0.14694745522532493
0.06017547239547761
0.03996277309769902
0.015304918750150545
0.03321573348984499
-0.002743531305805887
-0.0864536234552732
-0.02345256234664757
0.052070692684838604
-0.09004991213934768
-0.0031284759483634138
0.054461544030209405
-0.08160109660680549
0.024428622386831966
-0.030856956074272527
-0.0948841798834929
-0.17665338024961796
-0.09623689726088167
-0.029322112479113843
-0.0627165340835532
-0.006754460839000145
-0.03522095561437024
0.0904252155302342
-0.014400232881059323
-0.07433127655975193
0.016055044254598517
-0.08909288238125075
0.02342914521231387
-0.09784965799872955
-0.05716285961179137
-0.0063202749488663005
0.03453905464664462
0.00030427831201514614
-0.07679000763291666
0.05204808853905782
-0.05888243359223411
-0.07385478009737319
-0.011131318873034937
-0.11696203330023894
0.04886904789458362
0.03242126690382391
-0.007757453976985702
0.01595256673208221
-0.15693964112940967
-0.07477084074691319
-0.12039252634938852
-0.095560694516739
0.08177867881490414
0.08886603101840149
-0.07885571551947074
-0.08225993360927453
-0.16117862525374632
-0.030239844779682765
0.0042970717329346006
0.09128926791496511
0.05811013220888328
0.03942301068447317
0.011829594739614415
0.050065683556149966
0.0662150972933582
0.32473292938984955
-0.034117473929980005
-0.04040175524956207
-0.07003553431452683
0.04455784283193116
-0.2659810119612132
0.01158301007300893
0.14081964788698154
-0.10562411099745352
0.05279301143807677
0.008730794017808796
0.08927996667666849
-0.03257592038876646
0.1710456711769107
-0.18645682548141887
0.21389544485025147
0.11169207331303563
-0.02714585209819001
-0.30349484227626033
-0.18000707257842063
-0.12771859805177302
-0.006200628652745399
0.1758804793551108
-0.07988907360907582
0.1160453215659585
0.1611429945789491
0.03649947556445965
0.10034776832724489
-0.04100314706634704
0.04774465993452053
-0.10455495483715807
-0.042380013893774396
-0.07424847705607066
0.005983546130954019
0.12903616823096728
0.03579888069026099
-0.27322115667447233
0.011123670607386305
0.22491018505427343
0.2506755686522616
-0.017192946913485354
-0.2847130929764547
0.02837731739475356
0.11069395686589695
0.07662822388288325
0.3154225589705847
-0.6293542252283827
0.10341954375822776
-0.28082634712549526
0.2768214637149582
-0.12538271296913633
-0.2288652620646834
0.03096999051385692
0.05813241261670614
-0.03640418852778623
0.05109275285200199
0.07391503565893495
-0.14604155802784433
-0.3467852562908676
0.21447985714765747
0.05043440271644046
-0.038457261631846595
0.0143216913691708
-0.13376308375570703
0.09957278954717004
-0.07332705623731116
-0.07567406865938249
-0.023673385266185745
0.03373966659831304
0.07087573856289228
-0.20424304343412028
0.08133205309375491
-0.0844437618931403
-0.05464650058410118
0.05974614120023361
0.1668994518120482
-0.14268586311142345
-0.11323080845972934
0.1348024365446384
0.007787977034147912
0.004659340746892471
0.027181490013123283
0.009493066739685974
-0.01824480558527228
0.003431958899969445
-0.0930051152067209
-0.021491219084213753
-0.07649758718328614
-0.11276620324524032
0.06894823640276612
-0.0568222048127716
-0.01132959841793676
-0.17857907749310378
0.18725785748281618
0.020959529226234636
-0.0006637067802679359
-0.08721895881195955
-0.024597839404172494
-0.06125609198666735
0.16330953531655065
0.05373786779624845
-0.1284565539730183
-0.03765969164409179
-0.05641764539723136
-0.08127176722285315
-0.09193771656345459
-0.12352087843049483
0.027856953849423164
-0.13600031838895094
-0.06639839733594803
-0.07892295977659552
-0.08731470729925057
-0.014570957973704068
0.022161948951320745
-0.016293276315235142
0.06514338631809637
-0.0875970726475839
-0.15351824984756637
-0.02321414772879173
0.00981186140446114
0.2769553097440596
-0.19761936680008196
-0.14295719424722855
0.04208891898552196
-0.21006511796542834
0.2616044528104733
-0.01778165047420197
-0.016624753216689856
-0.14436193044376855
-0.007837964467118916
0.10062206607141855
-0.04399340632382008
-0.19326452080174525
-0.06573983136461233
-0.003436576522137993
-0.08728017982022251
-0.17941734324343367
-0.383471421920134
0.24912891023029288
-0.11374675381875067
-0.1391588646512005
-0.018439374580017907
-0.16300100412232119
0.06861047192651401
-0.009522959431671026
-0.1254566980875788
0.08566363541215669
-0.027051213948608058
0.21134635752419512
-0.2802508798428186
0.0717809385382471
-0.09457398058357955
-0.06004889297749448
-0.06557458932178226
0.22822175944801745
-0.17391750923174992
-0.17258992156836703
0.30663406379239805
-0.17427233683799112
-0.026530986072758743
-0.0765213770755696
-0.0386517483732584
-0.047360156950573766
-0.1028210079842285
-0.0985170546492604
-0.2233347860579372
-0.19857720501894474
-0.050982853289569224
0.02936896162098167
-0.1133277044272402
-0.09173880136770081
-0.1503653407251608
0.0861013910135098
-0.02385973779275969
-0.07011966658068843
-0.061569836952412534
0.03918467160078921
0.02496587165745358
0.1280386164785155
-0.007321359432913371
-0.09802409497031109
0.07858050081421046
-0.13461725711764244
-0.10624591735661358
0.055021232082023364
-0.10761920542238622
-0.00281508875668336
-0.05702127590265195
0.012278764273381875
-0.13765554903205615
-0.04963459804028883
0.06746172250435578
0.05607366790915792
-0.08403762351651492
0.11686342986093141
-0.0624921889788766
-0.06277491855594657
-0.0616670928521304
-0.12221488644478286
0.27253274456309995
-0.23018213579977134
-0.09437715190153625
0.0335710769455665
-0.12544425337343537
0.41813248604504494
-0.12730019307090118
0.06489413344382966
-0.20339856759009595
0.09722350486872906
0.1977371824415828
0.003326190507045528
-0.282512797860637
0.09441996364866648
-0.04519241446233011
0.09401719271085829
-0.10242717911434629
0.09255551399056276
-0.08594822227509802
-0.07282102865902375
-0.07568968624588285
-0.05966964723330199
-0.045942359256702245
0.04763465957886703
-0.05251556709715621
0.05081691330554651
-0.01818340900547924
0.08607666572743475
-0.34253933880287246
-0.04486549331914621
0.08785687532466394
-0.05966894092897637
-0.07562194871890678
0.09181465685698242
0.03635163304931123
0.08971547080614385
0.1288191138189545
-0.09487890582335233
0.28080837813821924
0.053133104929972266
-0.07908901179754838
-0.0025191331834030634
0.0374293683582516
-0.16721709597368203
0.024797741099338584
0.19714105346500635
0.02328733021924771
0.006938979355569987
0.05951880799381053
0.06364113776827868
-0.07108387102368952
0.21998338686200844
-0.2580816781055937
0.09765375294250908
0.22914195931938047
-0.06936025001169913
-0.18545914461167035
-0.09411668345848455
-0.22979199266128253
0.09704502763390602
0.1820721813149941
-0.08936672611369917
0.11263888566544931
0.30236598067371173
0.1204124035888986
0.0015695624610159316
0.0748714613893087
0.17113521510048788
-0.11068906646868978
0.11817236062288743
-0.019538140200119944
0.04684612713431582
0.2196348862460873
-0.06205732341137912
-0.3215084291007059
-0.04869784717529775
0.2959141970318924
0.2737027347607319
-0.02909305740313739
-0.43239993286604783
0.1400124971490729
0.13135917537167915
-0.04599572594077515
0.27226917286874386
-0.6477189309861774
0.057791224137846625
-0.3644687300833651
0.10104570839758806
-0.1375913911540253
-0.21169395018843623
0.05715262207810095
0.09506819071158659
-0.1420865317327417
0.09334864557375071
0.06389481789251272
-0.11429705993766481
-0.0861163734697194
0.1949624683964184
0.08957797505430809
-0.12142313459037087
-0.11242710779880248
-0.19871943035639353
-0.0029927744734605266
0.08104166945969107
0.0014221185149472472
0.09220415495367282
-0.040901505942587235
-0.24580301052946346
-0.10527063409949468
-0.0297545587085667
-0.035136947118839426
-0.0449164591575359
0.04085436823702679
0.015611088534147553
-0.1068959505908811
0.0078058073724722
0.15289040052799893
0.14412082160957462
-0.02236386161207434
0.052446769190507364
0.06479090531822615
0.1272959999555344
-0.039153087991113125
0.055671700929973644
0.11444271687238522
-0.08663723005221713
-0.06253030228691706
0.07533179775685848
-0.03259721917541235
-0.0028866115919546965
-0.02581135841035001
-0.15168107856667867
-0.001663704291631429
-0.00878231298205584
-0.004920723382702117
-0.07600496167713555
-0.058556803951357365
-0.034783871004056846
0.027906443526058006
-0.015358459013435197
-0.10919267383211338
0.01936357975832412
-0.006290875394533527
-0.012257567764573785
0.09524187877061059
0.07439674517809457
0.092479137987313
-0.09524972878093298
-0.047900885752393665
-0.02306703345780267
-0.1165410721533723
0.2663486550021213
0.11660319780126245
-0.27830407802119966
-0.10857231965790008
0.01734349552939054
0.2916823429157618
0.0910305797862341
-0.24473259996693267
-0.04755149661860987
0.07344772276718554
-0.022915458351848102
0.20431927918616735
-0.3172335639178592
0.12143649879899786
-0.3088346929482617
-0.017334121784133835
-0.04628028564056237
-0.20763667346789774
0.07436047792666163
-0.07383416004530606
0.060440110723332
0.13140098286452798
-0.09889001772654674
-0.18189026329395222
-0.17681433076634684
-0.11743740434577427
0.008182675389790369
0.02500802450448048
-0.07836525386703797
0.039714770869523304
0.003223610130763099
-0.03706991094397915
-0.01319407546330291
0.07317648858803938
-0.07516854610224083
-0.14986836215197416
0.03992814423455334
0.004610138795794826
0.08683706690609483
-0.0434510694453858
0.060893107564867544
-0.06289309569003461
0.05863526148106006
0.022902011452336318
-0.014587012140177763
0.00027568707029206524
-0.06252314252708108
0.052891093256051624
0.02282624148248076
-0.03465509955026917
0.0011942219721714036
-0.01863676958159962
-0.04385153549288822
-0.11679055129619258
-0.07704366213734504
0.006232206666624586
0.07106049751096383
-0.0802885627064302
-0.03726125697686493
-0.10920084894604422
0.028464446753580633
-0.006215920628852579
0.03295386587435672
-0.039973693700286375
-0.13459826849889342
-0.06509916376146385
-0.0677264087302448
-0.08321412855728005
-0.06219466372278951
0.07644600947540516
-0.06739675291851167
0.06982905180529053
-0.040617250415571765
-0.07412842055874416
0.024315315777421395
-0.02635687598307439
-0.1124664161479114
-0.005953916327644387
-0.09329609547271445
0.05388293367394641
-0.15896532391326293
0.013270688869170318
-0.09007290456879494
-0.0017322257694232616
-0.07722021989309874
-0.033312890663108004
-0.01703371192186975
0.06643839243201444
-0.01446342924451575
-0.07422560965634373
-0.03684511127420941
0.011902259472694085
-0.05882002309863577
-0.12122664760342075
-0.03392793817338289
-0.0009233181477342317
0.026450531897944968
0.0650509950206992
-0.08528718904046496
-0.0019346243813690282
0.0316823091251111
0.09502837738733202
-0.13759046400813277
-0.13538463116737728
-0.056995574053724955
0.044030105592919
-0.034753669497960625
-0.08923327618405696
0.23175424121190685
-0.03398964607435258
-0.026824417404563587
-0.15710326158666435
0.008036705700280228
0.07435512995394422
-0.12355677283286957
0.21996716636162253
0.024611374176430684
-0.02080150803391471
-0.12063827436306446
0.04965020759859978
-0.24063401683072733
0.051220410199492146
0.01175793242019094
-0.1557179570079704
-0.3242105889748055
0.0684618139622088
-0.03801823602579364
0.016974143759893895
-0.024948724371586375
0.007057081977476631
0.03354404374976816
-0.04009777958482578
-0.08803776966647167
-0.02623208625399148
0.006374560365021123
-0.07252387715609039
-0.11678473727145725
-0.06907698509363687
0.017990354362282
-0.0925299980869563
-0.1393284692603534
0.13008153115009985
-0.07355601432873451
-0.002542208988962849
0.05512561518313332
0.04504201598467342
-0.04905863540492066
0.0688599440450136
-0.04706308056209437
-0.1156197207388466
0.07114677503181753
-0.08692556229242315
0.035153436588415694
0.030170418831378342
-0.028525110056200877
0.04967626078462017
-0.03628925308896551
-0.00727658176336846
-0.11986701979186543
-0.10514326645305602
0.0897952017716969
-0.07901389306521893
-0.28321730352509683
-0.33166492965747935
-0.06959975444095325
0.15910375114261682
0.004676314749986054
-0.010943318955430364
-0.1005784772260109
-0.24411017100097876
0.18883894381872507
-0.02166581184760961
-0.032148423719207606
-0.12648114842600577
0.10403677947237011
0.18443267802612623
-0.06186044936386194
0.008704842924378809
0.0036331308083292894
-0.011237881264133448
0.02612568163526846
-0.06906161344447785
-0.1805825233236424
-0.03889929051522648
-0.030530684236947322
0.019646367819033988
0.049491885026308836
-0.07267169690110656
-0.03569817064424622
0.03667043105123088
0.004299271703654998
-0.05851085751302119
-0.032622896928335074
-0.08041218605524811
0.040413834899656574
0.00033946357469619815
0.030732370356956525
0.07232307612707103
0.08954430113732967
-0.005206605281726025
-0.11999432798330059
-0.14515577007027977
0.01727066926912755
0.02473504309780737
-0.05268319063838628
0.0636040435961259
0.011992453054804078
-0.08812865206916322
-0.01408767745553525
-0.09066156365601125
0.08788696403420092
-0.06631876162140841
-0.02618339732592552
0.02411192423167606
0.0029606845894657196
-0.10504794906685892
0.0761418650058061
0.004403453059727129
0.006383461911552708
0.07018248310275434
0.023040593132795707
-0.05028689997084411
-0.05694264991882672
0.014352365430976028
-0.07574800678776368
-0.07519306519354685
-0.022648450771399754
0.05361766516527524
0.009427189185461397
-0.01240996516708359
-0.06743839814406477
0.027176185614702357
-0.014792470219000807
0.004754928892377732
-0.05169453381927519
0.049531479332830336
-0.025839785940618153
-0.006326529848298271
0.03751330665113646
0.014249802631807206
0.037813311405268384
-0.04674085181240698
0.07876562270448689
0.04504527082856397
-0.06428551016835753
-0.048955285716239874
-0.06656304004995647
-0.03532557463966614
0.01534541855826321
-0.1151740319192319
0.032568934968082185
-0.13533744720149987
-0.08358116403270156
-0.07953385340955796
0.06168085840171162
0.053360473886385554
0.047621030095466386
-0.046713542634659724
0.09133216132724986
-0.05708094718887067
-0.20911496754340342
-0.11558761083487964
-0.1896693137050881
0.08066487390501131
-0.029658153216308745
-0.08812689768406126
0.03430195522718689
-0.04407966064138762
-0.01659357858338147
-0.052292959744564264
0.05217898007614319
0.01560308387285085
-0.02516121868846458
0.18122116493805115
-0.13623511935420773
0.030970140748107066
0.015648075558944118
-0.021768643262385784
-0.21068334963545488
0.04025288584625875
0.062460286340143396
-0.1614163499342323
-0.13268160073148824
0.11696587169611268
0.07922270311296664
-0.09016454270422854
0.033737024641905984
0.05254904809600118
-0.11155374661700639
-0.08627420746003804
-0.08724285004628876
-0.12101604460305199
-0.07030684335341979
-0.034383422228741634
0.019304153384025587
-0.06290593454410336
-0.07985650898863862
-0.11438613034036677
-0.13490258327070823
-0.059508394804016054
-0.04546808700412437
0.02838625151215986
0.04831149461969113
0.05383522693933071
-0.13526823012435327
0.009398259244843362
0.0044589536279434645
-0.07341855097905454
0.00622286015369357
-0.10489491236336279
-0.045356964939092755
-0.02764283666313293
0.05721554995576715
-0.043582367891432564
-0.01268850158320571
0.03460453623231714
-0.07607981776369817
-0.18296309510646722
0.006630705240916322
-0.019043510738377026
-0.1640830677211303
-0.23333656191931332
0.0035243387891341405
0.13111916244749938
-0.011689610641650292
-0.024169367661769345
-0.10461281447692894
-0.1457936699901071
0.13301616227997753
-0.0030122666827860165
0.09732580132378138
-0.10877098191114638
0.020002527795131533
-0.016402844130936307
0.038623528839696164
-0.016389753215774204
-0.08927483543529921
-0.05569206236971238
0.052211415484532925
-0.14326815800642753
0.11751788035848655
0.08467706539224318
-0.06505484679277865
-0.1228802422402214
-0.04568519553228709
-0.20041255748544767
-0.03942378264620407
-0.011725771591774499
0.017881640147021604
-0.09027000616329645
0.009017336642532542
-0.4247584769893096
-0.02095242735379445
0.08360303744348627
-0.08580535319532528
-0.00552511930035843
-0.04836347241130426
-0.05368664192625296
-0.0779127584189084
-0.12257053409610622
-0.01207290757452635
0.04808432936372885
0.027879811675119125
0.0857615304605027
0.009526261394530014
0.06819140508784619
0.038687180412343876
0.04160731863151132
0.11567733886088637
0.02206562526463368
-0.02839333320134067
-0.12855723235297264
0.14626237219497942
-0.0288650776132492
0.2084304370656072
-0.23794171454636034
0.19532060309247037
0.24681945658670645
-0.04368561177663259
-0.1040189222072024
-0.1275750607111198
-0.261106081632213
0.04696683484191827
0.14554692623854273
-0.18245450268649732
0.14232600881710197
0.15730208337962487
-0.011555865260538983
0.15728026850013727
-0.03414921699638366
0.0913625064920753
-0.08946278083138054
0.060199897895043986
0.0973639330235164
-0.037723308334184066
0.2494451928306858
-0.1073880023149831
-0.3399888920486704
-0.20506752015465626
0.23048990823917567
0.4700686923502224
-0.054701893290092535
-0.331392122099038
0.12152700103516778
0.11983699926597796
0.1108049199496928
0.2889328212857289
-0.6263344845485287
0.10607825130849421
-0.37152169238206256
0.0760614813755689
-0.12014730350813341
-0.2829830787826691
0.03879060070679257
0.0571686630593016
-0.1359266235937921
0.03701220357344352
-0.06638443763067628
-0.16674974716231658
-0.18184836843121469
-0.1053382111139593
-0.07835199053570968
-0.034873444372967424
0.05872172104256846
0.0914284308109113
0.0758809566885773
0.04361444238890604
0.04633640906462194
-0.025679586892709036
-0.007186701001152346
0.10605297322795572
0.2380319657310358
-0.09322957527922607
0.17012410283052834
-0.051388935384494815
0.001151463277186321
-0.2720941775549302
-0.06718652399586028
0.08520148483819276
-0.13703203386348212
-0.23529151706193327
0.11597920165763961
-0.03922987351455592
0.0008971971932013878
-0.16720997436550247
0.0953463862117712
-0.03826678984138787
-0.22616502040157843
0.02009684660628625
-0.03655019128548615
-0.057515562081178896
-0.10993063343984401
0.11396722065320221
-0.2682812507823987
0.07867093608490769
-0.11475596650575065
-0.048576200004801666
0.19266478303613996
0.047805786987950176
0.06278975938113854
0.10428770822860557
-0.03622321821966781
-0.26066483987422956
-0.011061831054038612
-0.0003423239438521954
-0.25907880368016195
-0.09073538333861728
0.017812016003055323
0.042899448528256064
-0.07196224822704864
0.16344857339386934
-0.11283111117075065
0.0260403719582587
-0.14210282311380457
-0.2434161401206731
-0.3589638970789357
0.32817880972374286
0.02853485007304622
-0.2576935943681249
-0.39572089669263655
-0.03183373600136968
0.29291840728155133
-0.13599465072544425
-0.11988965517931345
-0.015581960498269811
-0.33605277334737804
0.4642947083261914
-0.00011616284846035311
0.17993616128857526
-0.23057405809229725
0.08377380108592206
0.14665035487792777
-0.0672559979005462
0.0070904468618760205
-0.07953042722275713
-0.07345084103381862
0.03398504067179034
-0.16494493081908063
-0.08348322899638444
-0.1450750839360312
0.047608147154168244
-0.02133772374711713
-0.0580234534716498
0.0714874819311363
0.07889874056905966
0.023415834126692955
-0.043295469322677554
0.013033057649331423
-0.02266209497216487
-0.18076310997145265
0.13808965906545997
-0.08362258222023927
-0.030859193323391532
-0.04709647533261087
-0.08096614295407262
-0.19446222147380615
0.035683409523830936
-0.003315693506694778
-0.06429257667709229
-0.02901422271059123
-0.02742076412664818
-0.07169001729545299
-0.05101246787313307
0.03500218049950591
-0.07165149671414943
0.1030179536692643
0.12479886488110466
0.043384332062077216
0.030169288381871873
-0.05538326176299088
-0.015142465977468461
-2.53005917599218e-05
-0.02240302958603999
-0.12159444518506404
-0.048092235181882444
-0.04638539870843118
-0.06160150721199666
-0.030471582181228776
-0.1260197105503598
-0.14262513127712728
-0.036973574283757235
-0.09551683622278749
-0.015697740500187646
0.09608327567300896
0.0014191256977966254
-0.03323506494071146
-5.692995177998049e-05
-0.018538108932533926
0.07003847045517443
0.06603990131162385
0.09383276681604626
0.03335226670284089
-0.08359050402464381
-0.07487658335050053
-0.09708591977851498
-0.04003227676797765
-0.06362414540850193
-0.015176693142339333
-0.020418109689707264
0.043808973858437975
-0.01841840214055714
0.15136018913254246
-0.0660731107202312
-0.00909819950680619
-0.028898343152246885
-0.19379063109782196
0.0014471783373074503
-0.010663321912452263
-0.08541359188575792
-0.06936599737834483
-0.13363069919462034
0.047305838744614255
0.10419920617669741
-0.08712948485991386
0.10082168192195066
-0.07207887450290731
-0.17839431109185752
-0.32041042717160506
-0.037234402865477786
0.07585999661944672
0.060941480337803874
0.10106374493926164
0.12528164157318308
0.017902954803616488
0.04142502636419271
-0.18203771269179383
0.06848895113955464
-0.015074875420897443
-0.05099720241960295
-0.06763863193920377
-0.17014335414621415
-0.08138667534895982
-0.13812120184191257
-0.01740072532397678
0.003909059573656733
-0.0021757975861951447
-0.1388453154080411
-0.045824477450503574
-0.2706736906212993
0.06289322942163839
0.06248212571046041
0.057803692763670894
-0.03364264586245782
-0.09128719863077081
-0.061093901182811924
-0.10233768724964713
-0.11133294566023402
0.06803200162229393
-0.11216336648893381
0.0033226407435317964
-0.0711213530958044
-0.10967063533124125
0.13870912210457434
-0.027774019508575828
-0.16841332537111106
-0.030627587905920222
0.08741754101467178
0.01639178663934128
0.1742878643085214
0.049686797367452795
-0.18615265974678782
0.1162678815611348
-0.13027540527253492
-0.0760131557422464
-0.10818115044751575
-0.04406797028379232
0.07958348390371997
-0.11600985769560739
0.09407038601085765
-0.07498249964589182
0.04455414032360766
0.05663326159550485
-0.11626673879415932
-0.1572804304381895
0.11739813281811007
-0.05295177122477889
-0.1170209338021104
-0.28024234317961694
0.0471993689942045
0.3650723016684613
-0.23179446479328922
-0.11584928920333978
-0.06903175559789028
-0.3077026797825923
0.4144819024304741
-0.09466459264030154
-0.0062405881650612486
-0.12012113000062827
-0.06461366332282817
0.06638567527029625
-0.10062596065314557
-0.024503638486175917
-0.08549952129267956
-0.1032794698605592
0.045861096106551674
-0.11400150383276629
-0.1407723973251255
0.08345506660620594
-0.07076103022060962
-0.014184793365639227
0.02528600826133072
-0.17954616128588666
0.06174357720638063
-0.0838538580385154
-0.12944116461630578
-0.058359756768806365
-0.05819415200714304
-0.14914942062466763
-0.07803508307186514
0.03057858390239662
-0.03587353339234486
-0.06127460796103602
-0.03475068242138461
0.028772383613219994
-0.040468913775150654
-0.08345785320146051
0.12217165937049505
0.06246477685081107
-0.05156977834834
-0.08957406154418904
-0.024808738941312483
-0.03364496006550112
-0.15548390258904388
0.10960142558325757
0.10365755957861028
-0.10850240185255576
0.04757234991440487
0.044899275390135135
-0.055704651030798025
-0.11963690504940658
0.1431230659698423
-0.13403141906638064
-0.017055304190969855
0.02573174081929108
-0.07585805083418684
-0.025983713539454216
-0.057041233809760866
-0.19534793180751855
-0.013053886717910773
0.08819581252038056
-0.005331915452505914
-0.062476181981577096
0.03926320783631089
-0.021790174125787147
-0.019009550844634945
-0.07068377706154567
0.01122221793319189
-0.0021978086527539922
0.0599523598856973
-0.07654927670929484
-0.07786791997913912
0.08907119526240387
0.13514450091331398
-0.1943491493140897
0.00746043909502812
0.12990611570896182
0.2329051706622488
0.1045556714874561
-0.16666765130740427
-0.0977516263618229
0.019223619937199173
0.06021607785754344
0.15062511009632953
-0.28658217308678735
0.11849927558527582
-0.12942780724878186
-0.029951329898809862
0.0016193104669046797
-0.07209945253509313
-0.1153256057734931
0.06902788532929315
0.047494769679858335
0.014271465915506872
-0.06465822315287714
-0.19999773330618345
-0.3784325926664199
-0.029025851052029393
-0.05456384838252244
-0.08567015148757622
-0.0664962911267734
0.29155256536571755
0.08446239443074671
0.01655940043382082
0.007606144265497975
-0.007888600151402886
0.0357884774515283
0.06197017450505368
0.2493786651466369
0.020840221191134656
-0.08493101358723375
-0.1251306546622861
-0.008376034935289572
-0.3564166640391564
-0.035898877103922
-0.15453143846395223
-0.023743402820172916
-0.6059032841451958
-0.030367928416762138
-0.06319872858917581
0.014570068383292736
-0.07918074314861469
-0.0037579420325957744
-0.1519322043828195
-0.3614811687128399
-0.0700523207060995
-0.18191921625424795
0.0016140810885196459
-0.018848137502179105
-0.013948433555489085
-0.4337217897639211
0.2520250827450206
-0.3499194767219251
-0.31821233887193384
0.14395947716236263
0.2612337652336987
0.175580013710918
0.3341722915932231
-0.09314042768980318
-0.2668131769344464
0.08732221578064175
-0.2555297007975283
-0.393825574441513
-0.14710041953161707
-0.11489189033393164
0.050421499145445116
-0.25565280223447007
0.09473027243079155
-0.15970352979499122
0.030542237428479335
0.019024744557846585
-0.6374111445810098
-0.29013758220281
0.5247232948278876
0.17044393102025493
-0.3927320950879551
-0.6039501157335555
-0.16316812927506277
0.7144998622777947
-0.09692182748726826
-0.21142936999380074
-0.1736312849588352
-0.6705140003134193
1.1415608422606272
-0.09438096423455461
0.3514369139146198
-0.23915736228406007
0.12324630583763721
0.3723445501740001
-0.12197809307652119
-0.15581680646300025
-0.06537028565552534
-0.13086600105668755
-0.06623969402888377
-0.03650898134583384
-0.1313700594546509
-0.19906228397909895
0.039938168950823236
0.08478236958581041
-0.11279452131276696
0.09701524649580325
0.04079308426534511
0.04641145463064917
0.03441130640894985
0.060193625799392275
0.04176708430634096
-0.19796159069507097
0.10677040069716176
-0.11120714064029215
0.15241993604909193
-0.005276563775950759
-0.04791934104122939
-0.2996108326463878
-0.0006621070483797082
0.07926747443709022
-0.21264228538239804
0.0031886314231239026
0.06360936582079933
-0.0335648337471888
0.09582684345782305
0.007388881170290949
-0.055253686888274624
0.052971728112786026
-0.08192494381659507
-0.028742706879461042
-0.02201513806119494
-0.013242513708932514
0.07862432914175459
-0.07136375050816554
-0.0404065230536199
0.023566153302370187
-0.09420318574665379
-0.017997047309721917
0.10082285797544856
0.040194675067449795
-0.14446118837627653
-0.005602311954710689
0.03771538048171352
-0.04303171713500031
-0.05291240808496602
-0.003741856364848966
0.004499053164819854
0.04705113310792633
-0.010446188796055543
-0.09710628161926818
-0.03964149517056641
-0.04639860058576775
0.030829332323787702
-0.04657058620179475
-0.1565293972203455
-0.13152504006541596
-0.12051773727627128
-0.04931204717432186
-0.11308165625214131
-0.0009397533268417253
-0.03550440260164293
0.06474252220026148
-0.1128176920541435
0.09504143706427765
0.05038098904346821
-0.053019009357670004
-0.028962686848517768
-0.11114183320685161
-0.08468280172691679
-0.04841692327207395
-0.011250617547184233
0.09255189857337201
0.07313665523158826
-0.0516615614379442
0.125326011199626
0.03676692150007617
-0.0502220017791347
0.042077591058760494
-0.023030717825389176
0.10323582170235285
-0.14328495167301253
-0.046729585131673676
-0.06243299738244287
0.002976983764889551
0.09096528936693718
-0.06582925647709768
-0.10810769579254147
-0.007985596851651509
0.02773295676711346
0.06279647299128804
-0.13062484468878435
0.15922127056027477
-0.0721262452498397
0.06996777044753455
0.026100962537888014
-0.09202287105672642
-0.22182435603451703
-0.039019826214913136
0.15929114051189347
-0.21204383157641277
-0.03722910714896395
-0.08215355308332659
-0.0422434299559559
0.04653433429156825
0.03286466092916543
-0.031150646329791466
0.14128632526699206
0.1615335365398475
-0.06377680929824538
-0.019945145127861136
0.05788392124439584
0.08317027607080485
0.10460028355170622
0.07356522403968457
-0.06855801381535155
0.1038432842333173
0.0030834600310231885
0.011114855675558288
-0.20103878822582089
-0.051599759871791176
-0.2225225809357591
0.09617487405218358
0.06537124267333796
0.01662852189351874
-0.017890298983819105
0.13906716693464344
-0.014355503104709705
-0.013698005190890377
0.002319706541067217
0.10932133260386662
0.005121144479574896
0.06450532960893249
0.05800665860114515
-0.008359152294753466
0.05277233267250585
-0.10857277151419059
-0.24592908693830107
-0.17765952233614754
0.0018120964767440824
0.040730531687239405
0.11267435661989746
-0.26950628312953184
0.15092859240405399
0.051671288576660555
0.0645817864601784
0.1842069337913689
-0.35654115577186496
0.09530459674938757
0.018793011978106282
0.031628487655423664
-0.11212611810190276
-0.123964916863673
-0.05108264168350649
0.04219772672692665
0.007883138744394032
0.08579057589024953
0.025239484757101416
-0.13620360026055137
-0.16512755304038818
0.17263100167294124
-0.03368019339572199
-0.03322432187226811
-0.08169574731146562
-0.19090446093721605
-0.08305802151808984
-0.04498794718233325
-0.16289852977744287
0.04395644990337094
0.0682860366843536
-0.11932367793360656
-0.10060774892984607
0.11077559020799914
-0.06187989177256123
0.046136109630125335
0.08797955054929149
0.0011203871295272978
-0.08322984739315242
-0.012995793707663282
0.19907290034491576
0.13806217563463
0.04638185077681541
0.04866360103782075
0.035038339027457066
-0.07388911124448219
-0.015789185940828385
0.05211801048341938
-0.03153997536189021
-0.09707362129743353
0.045083752766361965
0.07820865276674185
0.03434941178358386
-0.1099288368967342
0.14315363864397848
-0.07322629619086997
-0.03140975406761179
0.1430108010269219
-0.1264329948865255
-0.07625621760916101
-0.09756427363782966
-0.08043340640282547
0.014828072195672087
-0.009136621533293043
-0.08204916726992886
0.061726042172610636
0.030939879089339015
0.03436624487603749
0.01929636998823784
0.004781295124387429
0.040195969314492236
-0.12967584299707527
-0.07661135416327765
-0.03982238702345915
-0.08096822239920078
0.20732538455500352
0.12878560080936508
-0.015990150098230117
-0.026684329452798933
0.13451818980295027
0.11403182620958814
-0.078067056459976
-0.031515869104579354
-0.10706404198942118
0.03237543286658591
0.0433076434404912
-0.000702695561201307
-0.2534001594877745
-0.052527365672459136
-0.1731790685366049
0.0568656674599664
-0.1481385951037417
-0.14103321623221324
-0.06909870440089204
-0.11164338197154391
0.04544785050265793
-0.05037158151327893
-0.018153111400418503
-0.1786601203661246
-0.19064014229825993
-0.09518706912987492
-0.005461784313052598
0.004240808463870251
0.01945972182033628
0.12951392954683985
-0.07761305789579397
0.03519405105972743
0.004024321944230801
0.08947382524520292
-0.03821351392889001
-0.03996481766397946
-0.015050949910886059
-0.11333153499163354
0.1064081999718743
-0.06243698228203286
0.05698645277432288
-0.03735298568454724
-0.016314600892836678
-0.07103168295191878
-0.11421689995600204
-0.1951228971028575
-0.048008828249713004
-0.07304717873169841
-0.00775767506976735
0.04869051670534955
0.008608519821689925
0.03204605087499038
-0.042886635887585976
-0.012387554807318499
-0.07730873224041342
0.04578464423374257
-0.07448989542292062
-0.06306696155130094
-0.1693623125635815
-0.026292476676661822
-0.13043471800782205
-0.08005548760083267
-0.007300915034452513
0.05560148042614042
-0.019072442467943315
-0.05996626311491671
-0.03876549651346986
-0.10376948981264328
-0.08563348494039626
0.036939157291518004
-0.10965197777760347
0.021905034573691747
-0.04783605892164065
-0.06424897724833739
-0.08239204730560946
-0.07278876579379875
0.018687912394118707
-0.04789580364172763
0.04026515486117754
-0.00012857443695159855
-0.14693053382487672
0.06394923755931645
-0.019193312831854558
-0.07723791516528154
-0.03243423169821212
0.006303435142371222
0.1313156679097168
-0.05494144519669703
-0.01576746770077687
-0.043343514274828805
-0.15503249041082875
0.040908263289781394
-0.039921479173852935
-0.018829740218041353
-0.056774759074305514
0.006440294085964012
0.10689139497852478
-0.09257307759130556
0.0031629712739614986
-0.08973815395746389
-0.009984801008725657
-0.0799262434126709
-0.06681990970929422
0.017646348751305375
-0.18451139313370915
0.016396551403683193
0.04535651290112669
-0.0356555249788656
0.13718604629482012
-0.034690629134298975
0.04766674576926206
-0.10858408147399173
-0.04050955241061709
0.02240018808114072
-0.09006048097598697
0.23615719709933713
-0.13299044279764777
0.16265819958023994
-0.04052165448957939
-0.0904487253238709
-0.291093559936094
-0.012533095645442435
0.07337839711619006
-0.16721604790248043
-0.20093740043894948
0.12112964620526889
0.0076191073513510454
0.031607861175824425
-0.04516516766896263
-0.012055018531018284
-0.0753136877500808
-0.08031666212707826
0.01850854033494534
-0.022126001113694546
-0.09220412956568563
-0.004280752002882642
0.05857957372263739
0.003952436832072539
-0.01050237859645071
-0.09998774130658128
0.02809998052805456
-0.07003659630243556
-0.03433828153026008
-0.05631355067625373
-0.13526804350305363
-0.012452253814430533
-0.01959659914289696
-0.020193806583715012
0.051493574387910586
-0.022701574665587764
0.029492645413538993
0.09368472140218291
-0.04807015118362364
0.02873438816844478
-0.056673300000603576
0.004391617905154872
-0.0506332453689986
-0.005481716235641611
-0.19361499847836014
-0.09744053621645961
0.01827494534383746
-0.12861902104089135
-0.10685741358637589
-0.06661308860226985
-0.07128032712137516
0.017045419788398512
0.07081777056651017
0.03857305563422017
0.029133930173876228
-0.07377830444697561
-0.020946954794573765
-0.04370462909681621
0.088109800231557
-0.054158136467987034
0.03308021947588535
-0.13356747184625964
0.07253729382379819
0.13359511972575827
-0.08718414426292832
0.023144457035424233
-0.08457927430185226
-0.0858537806487407
-0.1638808053273323
-0.12765595537005958
-0.09304446938267828
-0.10448023197631058
-0.03230224763333567
0.14424206193058117
-0.053542531233424964
-0.07018676358844811
0.010331056064248575
-0.03365271053963732
-0.058998025319438055
-0.02960895600004874
0.03721211718442579
0.025529336482395346
0.0009626270468587499
0.006841597688317753
-0.01884776161217956
-0.13479027722674874
-0.10157985245339607
-0.09788796753714767
-0.023619473689310257
-0.14092380926013395
0.0832329741240554
-0.0408809337784507
0.0728966874814734
-0.050278835962259
0.01114252727441742
-0.13547217453181346
-0.05712150595148309
-0.07999421135350832
-0.01729029609629398
-0.06356836577025428
0.007767744847864472
-0.017660970585501916
-0.10336860394227151
0.027910161691664367
-0.010923563889215957
-0.005254319278026862
-0.05841041201370345
0.0015090246812246764
0.019818942472069005
0.03432056860286745
0.021926387238559955
-0.1578703208278882
-0.06540450793090323
-0.11234573437516876
0.01708250752112084
-0.04929006295357628
0.043118820983615726
-0.06379449143631812
-0.0922934571027881
-0.05280545933788156
-0.09217658656865838
-0.08600462577368516
-0.01478525863633841
-0.1608232101972795
-0.1472421819405802
0.12651687649851587
-0.08167314813660594
-0.15250494299857265
-0.1771242550108953
0.012161657443256983
0.073708038355574
-0.13699834387221527
0.008356741374224942
0.06253081576167559
-0.1556361666126771
0.19096539983825497
0.001589632339731792
0.0040698497981711025
-0.02196255043994412
-0.06743342435881447
-0.04168613519762619
-0.09727173453551964
-0.10338298658030753
-0.08235937160726704
-0.0018591863764297687
0.05261459176156644
-0.12267228956004617
-0.07363948065993922
0.008003629981227148
0.08887555447371653
-0.07431634269802842
-0.03392087194832177
-0.05168473092385862
0.05741547492809585
-0.02904344733089096
-0.035144593703933476
-0.08584077508416676
-0.01542034614673908
-0.06721691713481466
-0.1462527356114841
-0.02417823788753657
-0.03215206155517519
-0.06521596108070045
-0.011631056715634691
0.005130898398639833
-0.04725045460860099
-0.09463198785009772
0.07398176056807657
-0.028688567941345586
-0.0017504617575492803
-0.038427103791544376
-0.07736215561999855
-0.014997520791525514
-0.007147773243133451
-0.012083624124373278
-0.02861327298832111
-0.09293873828133371
0.003891911210106197
-0.13145955580538313
0.0667415212471296
-0.010872723473781883
0.018752346941640997
-0.03947511197591934
0.1214641233475707
0.09657573449901875
0.036432963785103245
-0.08802040473810271
-0.0528795998212432
-0.17166638502587128
-0.08646415844142247
-0.083796174173909
-0.014246347083792917
0.05781671566155774
0.07721882492753612
0.05104226726093594
0.08000385020155056
0.058109416347309414
0.10470364792595126
-0.07415780392361968
0.042080241351180596
0.07624452604614532
0.019187645174277984
0.20806975095649827
0.09404547620714578
-0.17636589729300192
0.026297561808082785
0.03248224733205414
0.20577379594304201
0.011307984558375395
-0.18059380561005997
-0.06423869583309604
-0.004735299792288759
0.038336354755129455
-0.05612715989857644
-0.30196202963664165
0.06787962682834335
-0.24927070241119495
0.015331024512280118
-0.1498139820200151
-0.1460630388052463
-0.005856084167556618
-0.05417470624426303
0.020997413731823487
-0.05337651395028242
0.08887427895745176
-0.21545932152332734
-0.1354846783035034
-0.14806134000759258
0.030604775788928635
0.05042977744331747
-0.11018559792486855
0.13873140745614762
0.053748019845103315
0.07284487871782919
0.07328420496193866
-0.07171969347711463
0.034994475921048374
-0.16251565081327243
0.25390816255332344
-0.12066837783470917
0.03549599383299321
0.05864298879654095
-0.015314115093735856
-0.18254711303161197
-0.00424126638031097
-0.012340790918567754
-0.2421388187323463
-0.17730263075757371
0.09665625987555854
-0.049867583751558
-0.008012321791876567
0.0043393823563950655
0.0262539489654231
-0.06265324139645521
-0.1288138536423687
-0.14194940163053252
-0.1452861815343155
-0.06791267095733622
-0.04691277069056354
-0.04865954051777197
-0.06439969300955466
-0.07010013210650963
-0.06381262164808195
-0.12268524523396071
-0.05374587474433577
0.08059416374177591
-0.09863169425454925
-0.08023706710939137
0.08872807282887446
0.02289746057933868
-0.07140398535065914
-0.0096758086801356
0.035839135338987645
0.026788085908164196
0.06125015555594712
-0.06763401242389183
0.010887195405741661
0.012690459472001486
0.05674299174782276
0.0165392566968499
-0.12893885720719836
-0.08773380565858782
-0.23267160286535254
0.08660641797742882
0.022054528207448444
-0.13748142423216925
-0.10349184654084068
-0.013675013237415387
0.05836812402300419
0.10845257054794721
-0.0545762421205495
0.06051869517897109
-0.11263870126160662
0.21975576013444237
0.07957499042887739
0.13138340269644141
-0.011547211879888438
-0.03788418856736125
0.08187000980262304
0.05891493944275019
0.03937782428370944
-0.025839948197991604
0.03021103376401345
0.07517106023154757
-0.1493731766770563
-0.1046954975415205
-0.049837835522919094
-0.014342932400285354
-0.010007116566469753
-0.027389971061017006
0.032903417969748584
-0.01708616923825493
-0.09880165611194983
-0.07536787171661397
-0.0024076168497634276
-0.03519870283970021
-0.02777265111090495
0.09417253776693231
0.013721809914494103
-0.06519211614779141
-0.019887219075781035
0.047064737689747616
-0.13737404611541534
0.00736199324840566
0.0649641051226294
0.010160904414357803
0.02766171673379901
0.031085445700809733
-0.03830372530893327
-0.04111359174638161
-0.06296455310001521
-0.005289370886724327
-0.04034250504220287
-0.055811878398200884
-0.029021347503015042
-0.04687325907567636
-0.08232480467319019
-0.014483008096482735
0.006243564946832213
0.02731709850006342
-0.10666579995430603
0.002149800644969649
0.033807756082615756
0.010266159411850134
0.005665593829606015
-0.08732230320111134
-0.054383065634668507
0.05163596522394115
0.043993437948762024
-0.022638450487640658
0.013098563546011403
-0.053777773920127434
-0.035815270238703456
-0.09431677606607013
0.005717395763046906
0.04164495977248861
-0.0019171655458145665
-0.1107555878513689
-0.03115798530448488
-0.09932593186907619
-0.003274449576808303
-0.05082918520809182
-0.07038517365744884
-0.009705030104349801
0.02060205956185087
0.05743390949954892
-0.011055349816907813
-0.09526272542995941
-0.08826086983690974
-0.11537905723165409
0.013060173915348283
-0.0141791684099728
0.041443967586544436
-0.03543175605010026
-0.05362418319361339
0.010950136059874632
-0.11093106520531258
0.05780577433121318
0.020720700366069256
-0.10432804451772815
-0.10073836339816901
-0.02593718107960713
0.09620095056209188
-0.13913351941951657
-0.22933501138135567
0.00440042409762797
0.02251792661194269
-0.025626672943826697
0.01605931666304598
0.012403846881515938
-0.019633882848764782
-0.00658045189889833
-0.07616323180608264
-0.010180941950649253
-0.0060702597068996444
0.0481117939483775
-0.018997503753852254
0.0006574281385027773
0.07730046523965052
-0.08489821545582424
-0.05270841378832219
-0.11168096832004425
-0.023834611145114776
-0.06147040802893278
-0.14635883990725826
0.026669797681286602
-0.011102112641885375
0.01843575528272237
0.004331088296638863
0.03155058030181264
-0.05865492923101694
0.0806956519365816
-0.011978853689493472
-0.07311407357977984
-0.036543433074594615
-0.06207670929891362
-0.09904678788136596
-0.04915046878334826
-0.1336645883264282
-0.0593541676878447
0.031128020831439097
-0.0936451148143404
0.05981405472496184
-0.05904261140106321
-0.007861113870492481
-0.04921558274347767
0.03996195758150911
-0.15044997659607287
-0.008957753066752087
-0.05203207270839187
-0.08636845703218572
0.06567239646726758
-0.02785265147533234
-0.03385801632830645
-0.09393299377716294
0.019744810129349193
0.010602819754382434
-0.008060503894204124
-0.007495718852072654
-0.06180197331084435
-0.1400391648762802
0.06804306153417225
-0.011980177808059428
-0.03526054598464565
-0.12170905794679689
-0.05341722382894084
0.16290124745026693
0.01966373457831121
-0.005304015191239719
-0.013091295660365666
-0.12287033283547712
0.12400853324642375
-0.02970108299575182
-0.02729776378360249
-0.08752260184511985
-0.03720544899163845
-0.03869302888040351
-0.07058383338969784
-0.07715792055994487
-0.04796551654305412
0.06255433420108476
-0.09086814850543863
-0.12059898152434506
-0.30577860382349387
0.07838320896911759
-0.04932162462201706
-0.13546331069203485
-0.07890335533070858
-0.042679815760262155
-0.03186051071510559
0.005915345589949002
-0.07333034094539885
0.08568334029766606
-0.006649964100342506
0.017502020163319466
0.010812944893107983
-0.04480065857243963
-0.10323612943023507
0.017101405572100287
-0.011722339855442881
-0.05818174497358899
0.04193271258223005
0.004509622223545508
-0.059873747455881914
-0.19217735526535762
0.048969088129918195
0.006231198179994332
0.08374903747773046
-0.03673414558642622
-0.0018988995663623295
0.00452580876589379
-0.09347897863900642
-0.0952968769826829
-0.14911929787655132
0.06821502723540218
-0.03215160165459431
-0.04311584022671729
-0.09557015472299774
0.13706281032515694
-0.1367861596772528
-0.12532165596785677
-0.01678196163958994
0.1269784165064222
0.009105183079587766
0.018832115608099356
-0.026868037898738262
-0.08739752157200438
0.017345991137555895
-0.10881818223086692
-0.1749378402429226
-0.10599351955867195
-0.1132620920318962
0.07471450437783318
-0.04077372149114654
-0.002134050875072709
-0.07083450895989535
-0.02242781947187475
-0.030554179885204133
-0.1290597059672237
-0.03325501000737078
0.18519805894596897
0.014651142935956677
-0.201765976964418
-0.12502559242669053
-0.10967871994533242
0.33223703327457665
-0.04980342845356424
-0.1366891312532863
-0.03835716813576158
-0.32916914318509355
0.43562608342619813
0.04920503872395986
-0.06836865807231926
-0.2886785667153382
-0.004529526615457851
0.20702125039525332
-0.08592917357513487
-0.15829541082968637
-0.04048166440561523
-0.033618148094455555
0.09308487306401206
-0.030461511806707135
0.08231750291087618
0.00631957199409707
0.040109737557547924
0.08387642140517802
-0.036224040123472974
-0.06786369965474912
-0.10278517195833652
0.006646723450472263
-0.030534291496920416
-0.08572510833332661
0.07016642993198316
-0.26389439238573387
-0.0641465583971976
-0.06037787335587997
-0.08388049098112697
0.0677719722308431
