-0.01561783115812769
-0.03998707194674942
0.03297912260193231
-0.007834002462463352
-0.007840713268839422
-0.09453039370228754
-0.0646180932652812
-0.06306451191747062
0.05740860341737136
-0.027845345182535786
-0.0643457361457008
0.03484492177450721
-0.055916114905524755
0.07867400881078424
-0.027036315606883132
0.011389537041279721
0.05037806018687166
0.0710597025254753
-0.057694041189697454
-0.08820542056159056
-0.09775832833986271
0.024251323690696908
-0.022647642396398576
0.05718306408327564
-0.01616440141687095
0.07658103930142549
-0.06621708281129429
0.07778956019554581
0.059982274868786295
-0.036844223690696065
0.028055733902980134
0.07430000701144435
0.04760187036499114
0.030562524769002647
-0.07222476820496433
0.06616199565330336
0.08657365238878578
0.046106638168914055
-0.09519417463900924
-0.06174681722362721
-1.5926220337525443e-05
0.02466804445976141
0.025890733377533948
-0.09226224365366904
0.07501356920769359
0.03333765406210126
0.022525905456971862
0.08884848943445961
-0.027276207042059727
0.08530244599913683
0.04179420562269251
0.004406666166547876
-0.08025211092544737
-0.05350112334704378
0.0844703191324023
0.03085555792700362
0.03525309441036528
0.01375066036464008
0.09896557793743896
-0.07575385549517955
0.031420957968946006
-0.03223089604686494
-0.02018839504349368
0.08464032135726923
0.07506182263683078
0.054581396980753816
-0.05543244393334523
0.050849632319199894
0.01110706241110651
-0.013959240005649118
0.01579734034709554
-0.011942485396685992
0.0009760545962499145
0.00779021496457151
-0.004431536910696504
0.016663418712122333
-0.07128520684578386
-0.001754042038166495
-0.05380592696375049
0.2737330997249957
-0.06678024624986319
-0.09205419537049092
-0.17253412455619485
-0.16115283757199073
-0.012221600649614061
0.013513109467370969
0.015807911331789312
-0.07452265176022428
-0.09949922853576217
-0.11884443027227763
-0.3734604440401866
0.19959306639212734
-0.28040682978707876
0.01971879275981523
0.07607533324420584
0.13481615724297988
-0.09135693038376502
-0.14061867173952944
0.23671126647059593
0.18885033299698661
-0.01991004151596835
-0.09129435698499418
0.07971498024629056
0.14876506086202262
-0.06356782779918078
0.032768408601528916
0.07760959355540631
-0.1426364248931486
-0.012235806942367965
-0.09762804842260216
0.06867625366550835
0.03863037406765401
0.026539624281557612
-0.03392111218891331
0.16213248752460016
0.16114327492130684
-0.16639110144772834
-0.15691356078570315
-0.16346222345648087
0.03841792019776023
0.06005203556876079
-0.0004360296093075069
-0.0069741793459087995
-0.07806625197467863
0.047113122433052775
0.019976634435057962
-0.03181288601506095
-0.04384311283597322
0.024170868610387437
-0.019770713960977963
0.025396642557878914
0.018413460482348792
-0.015526258854619602
0.33027269227185413
0.09643734140840776
-0.06067360999974705
-0.05026046581747608
0.17663130401660304
0.3020640051239729
0.10640320840905798
-0.10444847381473521
-0.11717232486599627
-0.008323303180948155
-0.03556033525338106
0.09675728193768471
-0.32672101397346526
0.05908404083292396
-0.3977663647414865
0.12294852264427177
-0.1350564601538973
-0.07339463336320796
-0.11330778280818679
-0.10403865324625501
-0.11129483671984756
0.08636710919940856
0.07179609012557961
-0.06602468683994851
0.06782462099105573
-0.1920978472614943
0.008706937283119645
0.055780165416895754
0.05142438216535631
0.06847997172472867
0.032389203317621254
-0.10847265191162168
-0.07542444302269836
-0.09494224634038068
-0.05457202820793932
-0.20321803979839115
0.011853801000413309
-0.13964299133284236
0.008104723391557486
-0.07384787945015418
0.07621218976932581
-0.16269890706504886
0.11871906701400926
0.009928100193350204
-0.2609327751461879
0.3893672000966756
0.0996377544262686
0.02183910282304298
-0.03478753209104926
0.1190019842919481
-0.03412414066088976
0.0601292106754824
0.28729181230276424
0.014679308051237856
-0.03524896006037884
-0.047322418936070504
0.030022938733500995
-0.10980263571638717
0.29295492042575627
-0.4055957858654593
0.0624947014940459
0.26932462722598116
-0.09230552890006026
-0.21999081334097592
-0.16165817128763038
-0.36148460119075176
-0.09672517802400737
0.24073294405286638
-0.057791166871432584
0.1935768919873007
0.20673788671771126
-0.014925263599118903
-0.0008609013973100558
0.016504538534081625
0.19777764243030074
-0.1737450231695231
0.0276436172740569
-0.06450837761493161
0.030665933882515872
0.020830571971505948
-0.11551130016819938
-0.3540138501046904
-0.2042153068626777
0.2203353469830633
0.23852507926736002
-0.002091401842033122
-0.4036281592178886
0.23912872929155182
0.10458470065621908
-0.0012616464777357313
0.2984073873873281
-0.5883285903696497
0.052970053366712504
-0.13761623951033028
0.20343488242014238
-0.21711096742304092
-0.13054558143561426
0.014242990060091375
0.23961948822726087
0.06668199959721871
0.050255651769073054
-0.03236512449439033
-0.12268630894191156
-0.11518626124734715
-0.04256051644254343
0.08949170405948279
-0.04773918271234234
0.01857495126665757
-0.02747554310515778
-0.1081961714958107
-0.02442045288576382
-0.03076856652625464
0.0505010149791508
-0.08353232968420628
-0.19308272349242017
-0.0027478116465881088
-0.05606020977334296
-0.18125181434802165
0.04008032603406512
0.02596493171773734
0.0309893586787468
-0.12126321378046191
-0.14823236002186893
0.10706131099250656
-0.10570926120285021
-0.053791466873333124
0.04952967842822856
0.0638216934145571
-0.002949565056711291
-0.0813808823127454
0.048578634427987905
0.027471274944504714
-0.131909401226171
-0.0912217327709979
-0.09340721864992718
-0.02377345088769533
0.079854424056227
-0.0062674766936916615
-0.025759959410208817
0.011218047198857484
-0.052485148208686314
0.00512633828161925
0.054278044697593036
-0.08594565446232452
-0.12093698355306698
-0.047091932969073616
-0.025917184084907258
-0.08485878970635242
-0.01992383450161677
-0.020077274417065347
0.07774029644154438
-0.03480413826539076
0.0414377113846378
0.004421841249648665
-0.1104359382076522
-0.14205438366339665
0.09273132220104205
-0.0382323834595024
0.08877007988060764
0.011228470840392114
-0.14046126660645947
-0.08769085170141072
-0.0981698626314406
0.14965048089314406
0.10022540416040096
0.0535258909363676
0.05231141447060312
-0.04412932204927499
-0.05708830026139602
-0.058736071049737076
-0.051404833256110796
0.024186827192598237
-0.21630563440003528
-0.044611176609902596
0.04181505362139206
-0.13057448828324064
0.032754860071283566
-0.0012603337237282314
0.05484177006043437
-0.07161321863841777
-0.022923122136618485
-0.20401884370665802
0.02812602155777917
0.06778592546650056
-0.06236131973378399
-0.07049840161082861
-0.13790224814293822
-0.10665699103712377
-0.10200323790880991
-0.05179816919105398
0.02325273094372955
-0.0018146999579449485
0.07930834459007849
-0.0850812032445516
-0.22054090640406862
0.0027364299289819516
-0.12014454945041392
0.033499632486780374
-0.08732336597926288
-0.014316366759882635
-0.014662358567012158
0.08260459640869597
0.1132169420710092
0.23669509151097254
-0.10038613390678594
0.09141672952811813
0.08803743970645247
0.08855367801970374
-0.14706876663936888
0.005647484183340549
0.1796505049128664
-0.17386379285037012
0.059052220917224583
-0.015902782223951507
0.01389773016101409
-0.13803254384429212
0.09971626385976509
-0.1790912511047628
0.14073793686332586
0.07627221122859378
-0.03569904939893096
-0.09843296143298164
-0.1816297791724035
-0.07452406056675033
-0.05208965358219653
-0.024457139083296192
-0.13684671289228065
0.10156788924012845
0.24152047918597053
-0.02500460416029935
0.09814516281956522
-0.008107710835202038
0.1650118247639494
-0.09812078311727346
0.13939669440480343
-0.004544919113377732
0.03665209044966731
0.22860941033937232
0.16838800591094208
-0.15157140319141968
-0.15589743362507835
0.0813429917153595
0.3032853559193287
0.06619417009048513
-0.25053620300594415
0.10102849736382039
0.18893040922529641
0.09085039146492901
0.24909865675614748
-0.5248122409633315
0.00039498724651136266
-0.2979118038635916
0.016444677273750916
-0.17760507529337718
-0.06422649097833334
-0.042499328400660875
0.05081292413009304
-0.04601256325651029
0.0008750677159392929
0.015169944351235781
-0.06101574872124717
0.14060143792968963
-0.049918080879451224
0.06405878253917636
-0.08306100746129083
0.06774437599078098
-0.09925202073449801
-0.08371469932413933
0.03770291423820208
-0.02820815281332523
-0.01607454559669126
-0.09161325393696718
-0.3842408920667425
0.027815806011096504
-0.14154000361488933
0.11739627141432488
-0.15363950765290865
0.045776267816829364
-0.04112201133561856
-0.07594718694936478
0.004453925005276028
-0.10521248044450816
0.2315845444192712
0.014723392145264975
0.018665212652996505
0.08330199651653888
0.1228552769330615
-0.11063818767175322
0.11101602621770522
0.137704226336249
0.07157689402480795
-0.13819308457254822
-0.0032540105782954826
-0.0007308178209197862
0.010210520020229747
0.2794298942374539
-0.3762777862954448
0.19081098161111562
0.2855490430666161
-0.06631682445454141
-0.19016187518964164
-0.027891598181975633
-0.3188431357729568
0.09645428563355815
0.041660887140378605
-0.11725383092173772
0.02453823201956659
0.2799909924114688
0.009439730625545154
0.18981593303971
0.07563190127821423
0.12819110750556853
-0.15673277521747267
-0.016718127320859574
0.04545554179813635
-0.0566339779320171
0.10750863393956984
-0.03353792016248119
-0.19433812062601583
-0.14815944470743644
0.26020500996067797
0.2601756649077487
-0.00043821967500525194
-0.5142303829003717
0.1257124077805438
0.1062849488012087
-0.0050787753826039206
0.21431455445491848
-0.6118402434861786
0.12234758958827024
-0.3284357683206728
0.2009926782125606
-0.11141249816440671
-0.22551871707470053
-0.0073353217664324085
0.2288127692670217
-0.1042451865220488
0.11320116003551543
-0.0427702825157819
-0.05831594967334046
-0.015071854330123681
0.18983369918577794
0.08062577589046026
-0.08170627833382904
-0.19482281585454952
-0.18162081638273053
-0.11439619809872234
-0.02445445438110463
0.017855257100567852
-0.07505212139877643
0.052931380048371696
-0.15291466571325968
-0.10505518058058111
0.03296860532759735
-0.16898785773364872
-0.0524628384268
0.02490590716017102
-0.01680752693663592
-0.024844553705102898
0.09707259773140575
0.11312746537341012
0.290270115047946
-0.04042762841923803
-0.09019463698699333
-0.0002706511276392848
-0.017510277324236767
-0.060094611295758146
0.1228149920543286
0.1256847338996945
-0.09445504171293828
0.035823633080250106
-0.04875032707138178
0.07237623327475504
-0.09580822143356153
0.1046746325138119
-0.10048060423613825
0.05723452438951315
0.1416263926299159
-0.05829862879224806
-0.12823638234886048
-0.1484802815544641
-0.11114728503479543
0.0458986083065894
0.08408832217146951
-0.19212785360473073
0.09906921666618078
0.12858417286205126
-0.026440608180684076
0.10332289937866697
-0.027784724175029266
0.057273186419814895
-0.0812868246638939
0.12846341303146197
-0.050664299574758265
0.03274802184294976
0.2568330967360815
0.07576358108477597
-0.3732194920198983
-0.002860012062624878
0.25314963740422297
0.2646513381852693
0.12406542050309965
-0.3278846242497141
0.023632123117160973
0.09433092763825253
0.1085470168644193
0.224114127751687
-0.669839719849961
-0.022875283089073283
-0.3618228315495138
0.1737616130319343
-0.07470648689927202
-0.21002358358280446
0.10431449949525917
0.0882994386177955
-0.04555538542384216
0.04926708304266094
0.007589308674939538
-0.08569081913371669
-0.2445754095360085
0.010447566378416411
0.05808235909453004
-0.08413347708776528
-0.14707928885086496
0.07851696015838501
0.02659400681759641
-0.09242778524949964
-0.05853915465414411
0.028009518593118427
-0.06887076820601234
-0.020781798310033055
0.0014115517165366371
0.02459340094558561
0.0001778612258334259
0.009833590042848098
-0.05508780637033948
-0.09907658245449308
-0.0010601840304482616
-0.05654138589697169
-0.05118405850312509
-0.2624822126421117
-0.02401062980406193
0.013385761953015413
0.03835913606349017
-0.1601064765430216
0.059953333643341634
-0.10810700515069327
-0.08098600501899234
-0.012073960006994625
-0.1196721725257078
0.04385774296233645
-0.13346621134746622
-0.07718690123212116
-0.15090227046984167
0.203960676937857
-0.15441935280007
-0.07322306714593077
0.10306053944622431
0.026504864880675102
0.09283853183547429
0.1586955896916557
-0.040236957111293825
-0.175730006096842
0.002371565122797949
-0.17138470003869852
-0.23702356553615478
-0.011238545015110261
-0.110168291245505
0.09427237414338584
-0.20796193361628998
-0.00414460937861444
-0.10134753354860597
-0.05404294559779539
-0.03933613083491572
-0.2584953492086955
-0.14415998252007017
0.3194897009876063
-0.01525223854734115
-0.2107611004015587
-0.176379044497556
-0.020069929943007096
0.37445725854959483
-0.05128022213456958
-0.11959872404253875
-0.03729067248339889
-0.3782924080424167
0.4400040483780531
-0.001960559608569778
0.13535044620486197
-0.15994859184342755
0.032242293716816
0.18932047482142988
-0.0488135848244663
-0.10910345332615459
0.045769116699677405
-0.11574862091655146
0.0804449924978686
-0.08267295301473888
-0.03558477435466748
-0.10726419684938868
-0.034312539369862456
-0.0005713178015876338
-0.04808836965355942
0.1574959450553227
0.04399603595699823
0.017113985789907
-0.020293200242989445
-0.09801791696020962
-0.07812322254536495
-0.18206980992825847
0.13629230276723714
-0.053146101112957
0.0931757555770892
0.034738686451011996
0.05337550182786732
-0.19911777884234097
0.09224413618454601
0.1347321020615858
-0.17176071838235343
-0.026171897416131698
-0.02120225604853522
0.05306485832852356
-0.004109154385206801
0.038147781475909366
0.00916045707478571
0.016329799216299103
0.11929344236366358
0.018915882868759625
-0.035384650992494875
-0.08885326459123952
-0.020452079962958343
-0.09812072952433919
0.0760190122688508
-0.09088102378536915
0.0635900188265587
0.15792168684852184
0.07058725477921061
-0.14035700780505705
-0.1371727474270731
-0.036326129342383696
-0.09895945063459262
-0.010211131255727363
-0.13600983112478832
-0.002684009089267626
0.05850925684657472
0.009853195304402257
-0.06508160829130873
-0.08519202239794751
0.014949252102884709
0.014415318880910966
0.004580297191176732
0.027291881197149315
-0.17503562208144502
-0.09126017000504293
-0.05252287793769501
-0.1432959597062637
-0.04790902870341764
-0.014269349262175861
0.10123204868748185
0.10475243892388525
-0.24633705028605685
0.07089055109796014
0.09027151139736693
0.033744009677913224
-0.0074456472342284115
-0.22277235794869502
0.11274430661038093
-0.03007411886035525
0.12481869031734001
0.014469894374270107
-0.20360893069805308
-0.07260765814200715
0.10410217076625418
-0.084633383137743
0.06063916123064913
-0.045493098047065965
-0.026715361596715805
-0.05245991979645586
0.02053752808915339
-0.023313758181234632
-0.0482903513133918
-0.01873618378673438
0.05911437479328669
0.04204963033044102
0.022994349674990804
-0.16170392839145517
-0.05615484502857622
0.027108345023542618
-0.1261816203982476
0.009098959468242834
0.054574225964221804
0.10176908768327843
0.055603432127447706
-0.09350061665059262
-0.1665289323880692
-0.05274309069109736
0.06869248530467224
-0.04963229463793002
-0.0004310331080448847
0.05227280961794566
0.02712924957556398
0.08596692807129838
0.05424849614451711
0.005445862272726181
-0.07998618028531475
-0.0793992354929146
-0.0872258148104695
-0.0221366986992897
-0.1120191927215282
-0.08370731013706131
-0.018507801738503908
-0.024181077076002755
-0.09636008758167815
-0.03364846936083359
0.05630719646249582
-0.07506112031752536
-0.0851284194969143
-0.06556207658297862
-0.1168063962315591
-0.0420171311423401
-0.06953825605738112
-0.031811010603534466
-0.0997651124490785
-0.10483854553526877
-0.032193562303683226
-0.04220155019340252
0.04048308515175925
0.018627389503190782
-0.06746810210518966
-0.0009191316356887106
-0.070994630674069
0.022626216069339986
0.03165737813603774
-0.17332714363727555
-0.09136981025977173
0.0026634586327061636
-0.14234333143689923
0.05254845591208198
-0.03410829114242049
0.10132270790366252
0.07490483144146258
-0.0397388841924513
-0.09652191247609462
-0.11127043933398864
-0.00525569931492029
-0.09666469819056556
0.006059307359354553
-0.05152315086192411
0.046459264798268105
0.021732779769853272
0.015577197802091925
-0.08135367764325706
0.03867252948420125
-0.03021921438003196
-0.038715857804666645
-0.14552507161419
-0.19412797510954202
-0.11354541284070813
0.07701625063547599
-0.11354069258617898
-0.03751735822217162
0.15619551352115196
0.016710970246766706
0.057238189917770126
-0.10917875304986092
-0.08592517373087227
0.08384258167035416
0.007449620931623449
-0.06426119197675076
-0.14269171005618048
0.11206589525053408
-0.02694510278036026
-0.04685436420713647
-0.04774261984363738
-0.009303350410262866
-0.15376622791172703
0.04006412583670926
-0.1564005988056776
0.08010237994868566
0.03971621490720409
0.07096194439363476
-0.019615538482587933
-0.12828997371050277
-0.14084625107877113
-0.0748212293339587
-0.17141773310239333
-0.05069367933424802
-0.09045669664103453
0.06409042397126553
-0.032343928277685695
-0.02223809507219247
0.1431745090871152
-0.09325524723059077
-0.11362966671836927
0.07898999914240235
0.0472812759281103
-0.00700801012038296
0.1247487994046078
0.09202713009586025
-0.13943870134675287
0.12830117669823637
-0.13832744806257516
-0.15563987287392178
-0.10352046675829486
0.012844789776708988
-0.01543178592911706
-0.10678155233660751
0.05900282092727716
-0.09364590770669058
-0.08040335586243988
0.0005972112992381755
-0.18888289681687617
-0.08739597933854815
-0.0137073123268658
-0.014024264113477054
-0.09756208433772151
-0.1932389975294061
-0.007814937070540921
0.14894849299971952
-0.0047513710926829385
0.03635308247417213
-0.09450384017105663
-0.1114633881390537
0.2226414376306757
-0.05330910039374552
0.08441145546518623
-0.10097560856628163
-0.07726162830801382
0.07727318485724582
0.011784313989777175
-0.10012228509318576
0.06280272269215875
-0.13430538907753045
0.027612992722026303
-0.23781845491336706
-0.06259405019809154
-0.05245029634952192
-0.10326575139884671
0.0829133666690599
-0.09462157526072904
-0.01666876502424108
0.018710218491652424
-0.14501099731412603
-0.014641848975142728
-0.0643109618505383
-0.06791073267914301
-0.09440706632588987
-0.07999689907359019
-0.1181478552177699
0.08584941118374233
-0.0862172281740432
-0.02341630083098767
-0.18396933499490783
0.06549476903036866
-0.04042001816472382
-0.031134685825865926
-0.08302790146550364
0.01219472565713245
0.05923289495053871
-0.07379892447943895
-0.06265783529589618
-0.0423797980353421
-0.04229488687135662
0.022839454360520723
-0.0449462119133412
-0.06540654788037038
0.051582529744271875
0.02876759055412195
-0.004604416564592171
-0.052166978660012846
-0.014559281614774421
-0.07377343400016496
-0.024274265903199033
0.06111696414794141
-0.010595016758253861
-0.1390200770897312
-0.10716672635594385
-0.04928519847858213
0.06816413618316787
0.04646322014409946
0.06696105253330653
0.057266756741056246
-0.07322947769633215
0.09132106048917116
-0.020296647368364826
-0.02626225604744454
-0.0024648271452487698
-0.007514111049744588
0.08312915691452269
-0.037954315152007645
-0.08858663013774905
-0.056109807356187064
-0.01559330243637855
0.007612570203705903
-0.04833431314033403
-0.13906570212244382
0.08316795344228817
-0.011899597723001273
-0.03371605947514237
-0.04499114113052083
-0.10796185082050554
-0.1234901872976075
-0.04718603513205378
0.03338185476959471
0.01903692276034038
0.09264067132355247
0.05217968774208741
-0.10837775792561477
0.03373124121196878
-0.029360438453357098
-0.029487308032255424
-0.07503573348628738
-0.023386637100422242
-0.04614601142295903
0.04640748056592872
0.017435130938084315
0.03638572457454546
0.024845408304787056
-0.04005151477890736
0.006239739465597524
-0.11061217807998859
-0.025605906345114154
-0.08019495266766657
-0.013317262403212071
-0.0904804108794221
-0.26740313489004214
-0.08735295663478004
-0.018106770635106698
-0.07749198299378526
-0.1287884014241556
-0.0582603577722604
-0.11216561596602971
0.042558235380827716
-0.046624718557560396
-0.12039627504711595
-0.026928732255893668
-0.036880001933372264
0.016379552834726335
0.04169807582827445
0.10119175579633284
-0.097742191251835
0.08587610750392313
0.03780569305297291
-0.00032709377845679933
-0.09221156670648972
-0.0711104487426484
0.06712720835072647
-0.08180679228947813
0.0115959254086451
-0.0222638459037758
-0.0082726457154545
0.088242617566728
-0.0691424779176559
-0.06069895160306158
0.0100433603442509
-0.14722122260849374
-0.030808141774019734
-0.07126703848584517
-0.0673869448164787
0.08944788297478709
-0.01659381650626459
0.06849957538850483
0.06339785519082367
0.06558138830871856
0.10084063939002634
-0.12559099010387645
-0.057496499325720415
-0.02783491714041586
-0.12664855627270247
-0.0377096161336835
0.005305164120404861
-0.04811800337588717
0.024295515574791243
0.12812391328598385
0.09896405191087594
0.08092530426874563
-0.2252870266359465
-0.08000396260689618
-0.04130712554103781
0.082096760714356
0.05545841922993144
-0.22496938445508669
0.017228700566905016
-0.2288235500738166
-0.02375432588319444
0.04997125547847119
-0.019367927722288708
0.05593809145719618
-0.06675212601366202
0.0380597297254736
0.12977325879264923
0.00846068039476608
-0.13735931028090437
0.06066507796327913
-0.13280073790183677
-0.02467315927680019
-0.10942084681613273
0.017236280216155975
-0.10164646797747892
-0.042955500340874087
0.0009023998743210968
0.03082135722074668
-0.024425950362003387
-0.09808468317337798
-0.10606091724709028
-0.09830208703240255
0.044458341775023426
0.053677178313351864
0.014129324267019629
-0.07648634416240717
-0.14430761072548282
0.01488890973089266
0.05607353915764308
-0.1265491205296507
0.2257472560824623
0.010938227770167645
0.005402823885868366
-0.08577552041886714
-0.0066208897644460625
-0.16277518231313814
0.034962383526005704
0.03397559090659787
-0.037690047923973444
0.06725461284973024
-0.059909249583508184
0.06918713633088665
-0.138238892468051
0.08830906484015791
-0.1742614522143721
0.03083341235167354
0.05058356077792709
0.009460908219369188
-0.20927944125547837
-0.039358509968720215
-0.1662514190532241
-0.023292502667711212
0.14586071742145257
-0.032135908290646574
0.14576321742968817
0.13974370427752358
0.0874432482838921
0.0371243571582833
-0.04889162323629992
0.13944024731125587
-0.1071451452299049
-0.033960501232175595
-0.0742293746883614
-0.06686673513575454
0.030944773284598492
0.02645862806942394
-0.2815560255031281
-0.1082346906301994
0.02043575169316665
0.11365680942755797
-0.07303494902217936
-0.31820169695640427
0.0020394224953472866
-0.03880894767424053
0.02997941624846321
0.21055621534756916
-0.43982920555272087
0.11933291068998665
-0.15343481993584054
0.0748611156480015
-0.09852442713439756
-0.11208510600254873
0.06506855177021827
0.0617421420709132
0.02990293435642781
0.07748407994354181
-0.05809128319628196
-0.09365528227811845
-0.4963655644304601
-0.1292430341520695
-0.09320395845939546
-0.09462170064732911
0.07506082725228636
0.06220493962244746
-0.013043011362541717
-0.10303057548242113
-0.050739493711244796
-0.0965289023944092
-0.08326533971678758
0.3399084227717104
0.14254691980673176
-0.19748765776289287
-0.006943146033661427
0.07559360267874421
-0.07232128619286976
0.07052941566037293
-0.10401857146359424
-0.10659847238802256
0.01374937350182942
-0.2547707932188184
-0.06383261517934782
0.011497059843778606
-0.0062693098330137975
-0.16727351974023255
0.26365431081964136
-0.24148484228753153
-0.31275613262814694
-0.13143008735945058
-0.1854062287654277
-0.17568532811376927
-0.12498533245090909
0.1058355574766034
-0.30354476967127125
0.324052205161652
-0.2756314129593752
-0.17535675529534603
0.10371085733380071
0.31286350040745453
-0.08169358089476307
0.27158696731284454
0.06393136409094538
-0.30485203010935313
0.2925412952977592
-0.071171307535996
-0.38436112862462846
-0.0019494097723385605
-0.20088216147449708
-0.04212137719693626
-0.279048869630048
0.20438128877726322
-0.2878154321991794
-0.07583119699282473
-0.12578161155391
-0.31779902235033214
-0.34570360672730605
0.5739630669111923
0.07536356079512276
-0.25279258335879745
-0.46095066450631844
-0.06830760559141613
0.5951284770676343
-0.33281692992108597
-0.24011318460105174
-0.05090992515718153
-0.57450631798063
0.7164311175512841
-0.1035088054140339
0.26079898351715064
-0.3619636672220712
0.23871762461342014
0.4646775123222583
-0.07541849845990907
-0.15283364825514473
-0.06178006552688598
-0.1749186163201607
0.020140415282104904
-0.19682095983537812
-0.17312048999784627
0.017593372864058942
-0.01428532233778867
-0.13062857113971615
-0.04591857468682
-0.08464025583697543
-0.11814475740021346
-0.007734112035560339
-0.003962118147574191
-0.004290639116790104
0.0688999028162792
-0.05648170061308189
-0.12552442637516292
-0.009052963571636891
-0.0470506682790413
-0.07627078016414458
0.03906163682674996
-0.03318380237809867
-0.13976174100424213
-0.13935343686515533
0.05380581209696646
0.11589819811168174
0.034100170175989944
-0.02948164641082192
0.04942915428150041
-0.045070421549289814
-0.12405471387300099
-0.1028954584909524
-0.09042470130713919
-0.07145572612331083
0.04986614482175599
-0.0030035085704942484
0.014243239792768078
0.006592612488810118
0.06941466701667381
-0.09191832389614255
0.018933087652990552
-0.03404665784207428
-0.07910039186620528
-0.10865586263664948
-0.15224476025007877
-0.014558390732586355
-0.01801949470100092
-0.09963007190205414
-0.005418110855057502
0.00032262070289119135
0.08888208707261323
0.025660432341611427
0.09122317905574234
0.005802283801994897
-0.06441371278490361
-0.03651548260875957
-0.12706037941978995
-0.040340101045783165
-0.11456408747302704
-0.021197930952472195
0.040223695342535525
0.010780918532818505
-0.12664115911610208
-0.06512285541188816
0.03105047603555803
-0.010821226434053052
-0.10691772427189287
0.03125432363663129
0.02990212025807484
-0.0963694758155973
0.022925951836281527
-0.09012208239516208
0.05756029159826672
-0.13445023563890887
-0.09927900439173946
0.06360845347388162
-0.08391973327199301
0.010855557674993254
-0.059993490666879326
0.020951417332870148
-0.0626549174309455
-0.08133034389859872
-0.02873795057902732
-0.1641628616676623
0.13414455420109708
0.08567901778091852
-0.13428559021238984
-0.10836244464552083
-0.23629631477427507
-0.08596411537150876
-0.07986284636366371
-0.08830381765070358
-0.004237439553640893
-0.02768158164785342
-0.03621424491021347
-0.1665087213037469
-0.015423807471850327
-0.23354392002704802
-0.048901705060423836
-0.010087701834223223
0.1109137760915425
-0.13494079062036832
-0.1498925529606418
0.23485333709965792
0.17090473602213066
0.03334541055625487
-0.08825424556057596
0.08425608585131614
0.0686188699073064
-0.06774246198617978
-0.0753659455030125
0.022823808167052834
-0.036717452615710904
-0.05126513780163033
0.06694992466152182
-0.03239237803430031
-0.012660133502197284
0.033148035712057385
-0.07321980496680389
-0.02452710109764219
0.06018244391589125
-0.09515963513127636
-0.15692391604693193
-0.035239311124762175
-0.10168018505397702
-0.07037774480513802
-0.05840878904426348
0.03932180801988143
-0.03267881947162349
-0.05495823097473696
-0.09181871246453933
-0.06296699024695274
0.07819693007450024
-0.011037572829147043
-0.11907317665529078
-0.026028713286082947
-0.04381139138047836
-0.008826710841571678
0.2246651255463519
0.012045659349366784
-0.11504435796551178
-0.07463533373580956
0.11898141463528919
0.22211172963796738
-0.04333692353583913
-0.019123815750665154
0.014499866678406033
0.07772254663137068
0.013527084998858682
0.16956356745420165
-0.24964981718875712
0.10668028564817757
-0.2098358550330196
-0.0657697033798014
-0.16186415753207092
-0.0027317283909993975
0.043219262803707886
-0.10823627350623688
-0.007744088449324973
-0.07833619349368265
0.05933792309966235
-0.08177854732410665
0.04004826049955474
0.052842808733897635
-0.04263042687441242
-0.0769135329671988
0.1583897879820856
-0.04915533370598497
0.017050539048311178
0.09504442060319822
-0.20004930566654716
-0.020347273445627964
-0.020876603672692798
-0.35328415157056736
-0.09365222404654867
-0.0993469589676786
-0.039677983526264046
-0.21341664045127123
-0.0035290227515774736
-0.014789068157515644
0.016917766224510675
-0.1843580101399124
0.049558183724782344
0.28413592416157546
-0.07849969239876964
0.0489396792154711
0.09591795414424883
0.1925595148328284
0.032154397313836125
0.19530394077129196
0.26875073576855024
0.0186357056877294
-0.2200288039613796
0.05484369631402851
0.11313343427148796
0.021071909512521622
0.21264735699532328
-0.4876686355198097
0.12158386949847724
0.1881115212132703
-0.14136418884666127
-0.05113678817924005
0.06404883697510395
-0.4141318563457666
0.09412484464462031
0.18082981437584045
-0.06905620965346869
0.15825404785362243
0.13695442803028918
-0.013201448131599096
0.1844149812332077
0.06938726339476695
0.20985587100574007
-0.04259460770939314
-0.05964896141630692
-0.08323234990770896
-0.0032140308989501805
0.2233284368756421
-0.18612081880848236
-0.2881970082418153
-0.2215861749987562
0.2700767395299116
0.42523716931776306
0.026188218075932527
-0.488427629648937
0.20662676523112555
0.07235882524166924
0.05089581807415855
0.3201373508354902
-0.6389239420833652
0.1010983641193525
-0.37297282931576997
0.16159333851620483
-0.2756784432689399
-0.24664696875393866
0.10615081094008318
0.04704609606603574
-0.08802082550230357
0.09258023038248717
-0.02173927396267046
-0.20875102620307961
-0.04557136298419369
-0.19059894681188533
-0.06359719148582603
-0.048104330775053564
-0.07708158756176169
0.058540365686049166
-0.0011196453461770537
-0.12252235042294178
-0.0823142889246153
0.09534063742890661
-0.011919329186126551
-0.0908086400047575
0.05689244999708928
-0.03854007775166862
0.10089074645005808
-0.07900984944279676
-0.06683860312840491
-0.1126573990558904
0.03832356604351515
0.1520911899770371
-0.24203681041020195
0.10574303249188649
-0.016826855767972458
0.03642396148596322
-0.01705273599959274
-0.005304895487313825
-0.12888257436080763
0.002876731560785157
0.19116868771271028
-0.04439957343793992
-0.05464652178587532
0.06169093375076171
0.04043541697560031
0.029748696799023935
0.20999187245035725
-0.08362417286507572
0.14364668356701446
0.12635781882951153
-0.07673293155869142
-0.25485040131763803
-0.10496117643353811
-0.06525357683515512
-0.0059314899036686936
0.10414330629162304
-0.0058533516457805615
0.11453392155586732
0.09731058582884196
0.0030672793531135
0.044032868121578056
0.08730480164495534
-0.009319432705072584
-0.026117685384375477
0.016061738092259706
0.04208824473161346
-0.04634682616156473
-0.027040887073540746
0.00925692888113195
-0.1480648901172068
-0.17853970924394463
0.08687101044668671
-0.05445546952336761
0.0663716609864471
-0.18049087173353695
0.13775466118445806
0.04220096960391891
0.054229608446107254
0.205610027949905
-0.2714305462244115
-0.026995245758031142
-0.12895655180148033
0.165022139028536
0.045680159993096985
-0.16015360079432997
-0.06385900750548014
0.06655689309308399
-0.061607801719895126
0.12798973866307542
-0.04205824850812212
-0.09213717244251424
0.1267698313024686
0.09255992063426775
0.019686126865256965
-0.054443128055015014
0.0388416735471114
-0.2266223529748796
0.01644391294589442
-0.04915050965019042
-0.1591136605442209
0.006616245393158415
0.04882778241519667
-0.15014942188427133
-0.22947366039702657
-0.015360194624361907
-0.08048515808667021
0.05408522360895397
0.081997284622612
0.04355429880058538
0.05290243646260344
0.05966319580431103
0.043948215480142126
0.2634219973146575
-0.046014994758906295
-0.06699582508870139
0.027140402416456627
0.06996219966933331
-0.16617042231603113
0.2037827619525945
0.09882501365309344
0.010783006582680575
-0.018949162647074785
-0.050148505003037275
-0.03482382457261445
-0.06696242276896258
0.16213644977654454
-0.17075743414174638
0.14562932302033962
0.24888079128946333
-0.036623758189058005
-0.13304176976689683
-0.1554435674152712
-0.10804026773934913
-0.04339443583741094
0.17129471069288518
-0.03534830187145412
0.1296492034724941
0.2483529654054067
0.14202459020515223
0.07980205965749217
0.04567303726223382
0.057326043010391646
-0.12724768176203607
0.06118157633893914
0.09133092274961785
-0.06382316193318982
0.2821428989455777
0.10641534397852567
-0.2874613906642609
-0.18414779679671253
0.07966895872350693
0.4024055304126959
0.1346042557648981
-0.5181251565479615
0.21158672886053606
0.03202779252817639
0.10746625321528747
0.4043499068527918
-0.6606526564990574
0.02072769622710951
-0.38021228694467507
0.19257438344037459
-0.1778810483603056
-0.16690003902373632
0.05242168469405856
0.10014954213887435
-0.09506908522618206
0.012104695153176028
0.0032905772726092575
-0.025146839857120393
0.1621965869604137
0.1561069470992481
0.06362461270981813
-0.009712059161438448
-0.027168909611179168
-0.2657774935418546
0.02570650035609116
-0.01023539906276219
-0.04962193648488934
-0.09854742069734541
-0.020799722996451053
-0.2703712576228972
-0.21354389916266417
-0.05253170245351932
-0.19980883976245584
0.02090760473477469
-0.08744928994716539
0.10678744050192948
-0.016123910937127683
-0.029763129982030637
0.0776075129750358
0.295012090663116
0.026197214461643525
0.05692498626866668
0.06903906646053812
0.13769988015823548
-0.13303018144285836
0.057396780423934576
0.12162519684948153
0.0044995798292246985
0.11346286339150531
-0.06014498468315462
0.11118546484466632
-0.053072804891069345
0.2006738441364643
-0.17040941758086792
0.07804932535613418
0.26130968384557546
-0.04217880929414476
-0.11091770909803726
-0.02913295362179436
-0.12264454455609988
0.04378457507687197
0.19416096206778966
-0.11041457272747697
0.021052782717495087
0.2193596340238001
0.04167454392474865
0.1503510517964814
0.013813107146810647
0.11809418624710243
-0.21279183885717412
0.08887338674448034
0.033383268920215425
-0.054259380962994916
0.2489282618034609
0.16860980350262356
-0.43151152028640455
-0.18185912184538144
0.16475498401165078
0.4852551542891806
0.08965124365678916
-0.4679841916276266
0.17416945931008762
0.16935224433823082
0.10911211677871939
0.366992240487155
-0.5957225965379098
0.013359093824065022
-0.48270184267649274
0.22094306396445032
-0.24383720304031833
-0.2924949305351389
-0.01971886145209437
0.09462651671573243
0.00951008015778344
0.1039784154005329
0.04112919837272011
-0.019070946578185834
0.1355480016010247
0.16029306304702898
-0.02617467608934806
-0.12543734731345121
-0.1853602486689088
-0.25251067041708714
0.029151757901755428
-0.06279356583594468
-0.07526398903693204
-0.018407223386056007
-0.016747733094234718
-0.2935786269175515
-0.08371650594284184
0.04853436951916217
-0.15432411444739838
-0.0052983923812825705
-0.017378457237389094
-0.02138859586501717
0.02248911160649727
0.09464446556454457
-0.03739319597176468
0.2170245445525855
-0.03297647465221542
-0.09580740222203854
-0.004941435996952848
0.006664578582905141
-0.09943993005603034
0.1259920714291816
0.09023834987382164
-0.06432719240674538
0.14003534031392495
-0.014975735270533022
0.020957794454685142
-0.07386097972688827
0.24716812459761758
-0.12583229350456462
0.19202328284804243
0.11813409795914206
-0.029234572260477355
-0.23701371726659173
-0.1589484053769977
-0.18178211427191954
0.004841236991082992
-0.0399244075737179
-0.15907104785957077
0.06251442274288059
0.1897249424411823
0.108415320717476
0.054140286282479036
-0.06021682443763878
0.08210214769716877
-0.08279915824973803
0.14083024932705604
0.019457241682834622
-0.09304611716066034
0.3832579361599936
0.13271358928149074
-0.22847441316977565
-0.045860666639692654
0.24517807067640068
0.29641052313458593
-0.027006924830407713
-0.30934057287455025
0.10195746506216562
0.0939101884944931
0.028612151223600776
0.317017246104072
-0.6728327810322476
-0.040944959060903556
-0.20651590979834933
0.13904588020361913
-0.14720132693377858
-0.2755363875279839
0.02901246198450154
0.056725690603390985
-0.029928676283233757
0.12294483348731969
-0.004383543279961849
-0.08462428779855115
0.22754984790264768
-0.345582556372979
0.08460991888823151
0.07684195564367624
0.079744744888988
-0.027369120216738194
-0.07033205073247253
0.10860248011096839
-0.18230894860739602
-0.05656354291521362
-0.05745751247215243
-0.3567807931123799
0.17163297669886746
-0.21202410932255386
0.18937032591139383
-0.14331662246161367
0.07208971809300993
-0.12550053350172924
0.012898546499557358
-0.09331930392497542
-0.30480895751596354
0.26257483932907555
-0.04386265116198891
0.07751210883170936
-0.03601093396937234
0.1680426490813056
-0.03166718532010509
0.2171251320705813
0.2562127629234585
0.04677061647812286
-0.10703477734125247
0.024475571899968976
0.1309565828261788
0.12143236559972839
0.24976954266978607
-0.5260011630808938
0.15739790954839977
0.1258121335879962
-0.059218673533441415
-0.1923437536162996
-0.09654158337611458
-0.49094635637999495
0.028707098407086018
0.12676573789471637
-0.0025608125500935783
0.0860188224279021
0.32055390686283175
0.02413205001092684
0.10474493330233763
0.012639177276910805
0.22814896345293725
-0.16922608765031918
0.03811835790803687
0.09020412661592211
-0.0420159110828935
-0.02259168686821646
-0.24706905221410003
-0.26455433248227467
-0.36453367498273964
0.2791300531207138
0.25717740964548946
0.038072649998634515
-0.6047125070553596
0.3235041205401652
0.05640431232251926
-0.11278549854057889
0.44988542624295297
-0.6414909173322813
0.04437766018358562
-0.16781577813737983
0.22634001192707612
-0.04453580339475978
-0.27180865861902637
0.01280841238649423
0.13319401148698687
0.04571956569546737
0.09570815284840305
0.0979901246522436
-0.11781962616912259
0.012404089736905684
-0.3269352833058545
-0.06825615856431483
-0.019235707610548144
-0.0443775413158949
0.28646640153510533
-0.07253132818889073
0.05659316179721209
0.056914314264672854
0.015993692008473934
-0.0832058608858425
-0.04763509480692588
0.3365305790621053
-0.10479282954493407
0.1571543774098177
0.04411082482613944
0.07289749295668943
-0.3839993571930127
0.034347714305678775
0.023042146538978396
-0.19780102265531826
-0.31573672701270195
0.020786270023572164
-0.08655530035485398
0.019553972785241153
0.012563515522842468
0.033523247044056556
0.03350243114036148
-0.032277964833087355
0.03816111630090163
-0.12765529908033812
-0.12638183556101562
0.06787588172094998
0.12497731643354874
-0.032327622738535976
-0.028837128068927333
-0.06341258619319
0.014501846469426418
0.1014859797144373
0.05683790265331284
0.02435364298471606
-0.016512021471330227
0.003495029462503768
-0.08365562925764564
0.04278064691571472
-0.080258006173154
-0.008831419956943273
0.023911469021958637
0.051868926255252815
0.07054713737117987
0.06212732596908587
0.026202912601547827
-0.003998835045159356
-0.0008159840228460224
0.001461325409984887
-0.25061395856346524
-0.21828039921142645
0.09205995796673362
0.06704021932098422
-0.19675393339487784
-0.36807269702764744
0.04721806068775482
0.021488788315985215
0.1060124542240448
-0.05337074383167823
-0.11464898810115201
-0.21675595364608996
0.26577017884478377
-0.014109495440021096
0.2897688024513739
-0.1300205561186002
0.1542942622166247
0.08683190115714698
0.05150331442282294
0.0464987105939372
-0.12404344561257764
-0.12930385049725343
-0.003950446772600286
-0.009507888685971673
0.2602549785477144
-0.1111966312884331
0.00936948303444405
0.09446735326705546
-0.11712126908569213
-0.057593908781055116
0.04193815157839698
0.10804239837328078
0.07143966931396611
-0.06883370726088167
0.0590258988545225
-0.21433639513501115
-0.07095812924039634
0.1630631354594071
0.04346083552128649
0.0662086294007426
-0.03487733777499549
-0.13552672260317783
0.11772996254162205
-0.016021559316109244
-0.0005424726528778425
0.3620035651744083
0.03205664382840347
0.032919002368996086
0.05344767433963915
0.08741618349550308
-0.07839789961001235
0.211481011846094
0.30500848540533987
-0.12120768062193447
0.11099419143830129
-0.06510474783363528
0.018362904736010526
-0.08294344703973636
0.22376049426065334
-0.24939729603193855
0.14473027219067242
0.2618872839803234
-0.15874735913458649
-0.16519262345363855
-0.07119996794433267
-0.1112703937648113
0.01807842795701689
0.1186853180467531
-0.15838972477982963
0.018956209829495998
0.2679107782224205
0.04171022621605787
0.08356976682029374
-0.04399556286556358
0.1328377800253761
-0.07793943545449805
0.0479510796444965
-0.017062480928801665
-0.10886624748588501
0.2590005848688013
0.03024801097314295
-0.4339722050308075
-0.22561991975245124
0.2030724121472709
0.3311471769326141
0.05630066800823463
-0.5226048957926285
0.08977999795659974
0.028963169904358314
-0.04462371277426704
0.28423739129771763
-0.837935148175467
0.14945606816506285
-0.31260576764189446
0.269069612462604
-0.1193506579755968
-0.23013221849177468
0.03207586211121344
0.1493796188741119
-0.04986737745140733
0.16779170743090333
0.027240374621016777
-0.14982738462689446
-0.17546938489515995
-0.13236023578586306
0.03094767657523779
0.05536204318790091
-0.04159948815778773
0.15236884673153714
0.05324797440103495
0.03915178933501067
-0.15379427041598945
0.0811663063050655
0.046555033502044485
-0.11488450392388663
0.10543862552618696
-0.07973661507959942
-0.0339537148694474
-0.032234208006576635
-0.09522050179855245
-0.052152297787970515
-0.028493290051908753
-0.12941100908801617
0.0012523159221204559
-0.10810261089881022
0.02077159246162149
-0.01578128747610219
-0.061625847828047677
-0.02334070448057512
-0.05284561553960632
-0.08557097786572582
-0.03302499031825508
-0.12506620612168073
-0.05611105687158282
0.041980902654056
-0.07715522639402003
0.06705486861694973
-0.15242591174515852
0.14832948391850934
-0.11374198108646874
-0.061265968657961405
0.05473803610090949
0.022608064643364102
0.011138281752570553
0.0445308136392492
-0.07283563956365657
-0.14597395146111733
-0.0458505070916091
0.02765998243287499
-0.12374250583466405
0.011331287177183407
-0.018794221913953423
0.005001882359076052
-0.06946189352411071
0.007802345213372794
-0.10933476995682728
0.021183118480785718
-0.0024303873209064347
-0.19365279986039088
-0.1766459397021086
0.15561092596769374
0.0785748339790551
-0.19649818334798272
-0.23347692476792656
-0.030786171910596016
0.2506573583571751
0.02412567817928906
-0.10322786408377078
-0.01586486284081958
-0.20331088890243945
0.1488147270730061
-0.028781962530456714
0.09982093668824875
-0.06679409314090541
-0.012345884729613123
0.06199493837775298
-0.13683245517967763
-0.03515690819241929
-0.0024673595265581657
0.03516747898573963
0.0925801550048104
-0.17756554525398088
-0.2741926815054611
0.21385155031582742
-0.04652558873470223
-0.04521066070823721
-0.027871186926846665
-0.20458291214142316
-0.010694889059609143
-0.08282691609496809
-0.05071402086923981
0.008114895821524845
-0.046929138276225274
-0.061097411800198446
-0.18824496245122554
-0.05298925525890139
-0.15799897438290855
-0.027784245117260225
-0.07331155863069497
0.15376094592820827
-0.08221410146072074
-0.028182415643190215
0.1669259848245478
0.04312303702587211
-0.11159739131811318
-0.07632259243642117
-0.0377008936755882
-0.019722192748330845
-0.04980077580543871
0.09531369233506745
0.028353835277424164
-0.0334041104819638
0.07892319057192677
0.05403576682763344
-0.010917200664746282
-0.11861356765229496
0.12848028754319119
-0.10859170283350922
-0.026879697444622496
0.05915684617152989
-0.10206675223855934
-0.04978181982011261
-0.17883718619333822
-0.11549353729514858
-0.05531251392935828
0.04095941109195283
0.0536725167748002
-0.03455989601591178
0.08003671615044221
0.08994897807529234
0.06896692897398328
-0.05439999576366975
-0.05609615538753735
-0.02839867069354599
-0.09642478089155669
-0.0837972245560771
0.05544292056714525
0.14921915253965076
-0.03256415583653109
0.016337172728034914
0.006233727226647158
0.0248667986060435
0.16536988557375307
0.00318920069080173
-0.012860454493821475
0.05528873480859355
0.1067180589120128
0.032917761087296854
0.13363126375223452
-0.11853686572896976
-0.046757003449466164
-0.20410744320927332
-0.063574522051888
-0.07056321107760062
-0.0067876311752840856
-0.000690936031099277
0.021230212389497738
0.012509406350329818
-0.09706382570033359
-0.04990785836344012
-0.028391857907324437
-0.29212885579630615
0.05308043023749129
-0.01831713046348775
-0.04317248539570043
-0.10687592478377762
0.02583866104506026
-0.05043411782036022
-0.04655903881230485
-0.0022314182764084575
0.027376521756467237
-0.048469310024004564
0.10242412147981864
0.05996741951275953
0.024072161156492213
0.06470527328345511
0.057359448873610434
0.04737585045843953
0.04963242247991096
-0.15409802378664803
-0.07941938053021744
-0.0074180641875910116
-0.07378514162524903
-0.07618421163138478
0.01979570589849569
0.06406431355196074
-0.15951929719644395
-0.044283474802580595
-0.03334311428787389
-0.08827407267696376
-0.0887708593224595
-0.12564509263234952
-0.048469348436442364
-0.018587238412688566
0.04349512487376308
0.008542303970541123
-0.011813178855891709
-0.15224484439383443
-0.10641175702761786
0.09062654988400329
0.02763137893500076
-0.006422916605563888
0.04509427262829491
0.009657344334842291
-0.1667685588961973
0.14987296481540013
-0.043684285460447975
-0.11740851124857729
0.009190798614966147
-0.08243453039020988
-0.09790152545290336
-0.035937004109441485
0.08976588453553046
-0.11888335039504828
-0.04993888656542276
-0.02028836548320246
-0.1202902108417105
-0.2139200311493875
0.06864807159182267
0.02960091046518299
-0.12809410435253407
-0.15611783252648
-0.1051039727614057
0.2237210395330195
0.0264555721760663
-0.15268959543338836
-0.0018283919679647819
-0.1791304940925806
0.1881259291222926
0.03857302862884881
0.07784583364945782
-0.19680494550534378
0.031089186323874436
0.12530380374326275
-0.09071787284468917
-0.11195072314109134
-0.07368459534406643
-0.1331605965333728
0.04963920740745914
-0.2017520709719035
-0.33110776666689834
0.08662096648102567
-0.004252796655079957
-0.017279669590425522
-0.12338552859775526
0.07610108089573538
0.10533252765608028
-0.08540907586617633
-0.05981115597774219
0.011473418193875082
0.027005821287034354
0.18686728406726716
-0.02766396090448872
0.08332943820286484
-0.06069306079818639
-0.00785082502585058
-0.0828342054372032
-0.06037440898663012
-0.10672976322657607
-0.12555206620073642
-0.04713820341203201
-0.3734694639873462
0.06564843752847031
-0.09256891072513858
-0.003385278102209094
-0.1487562739108779
0.07055095369760046
-0.1541269922867148
-0.16647167207177813
0.058116402617863924
-0.1346224358477499
-0.007901946308375483
0.0358048820060415
-0.007850123299757655
-0.2847369108777073
0.17150243416706293
-0.15636540770236793
-0.23746779202017526
0.10124907411323482
0.11439929841238487
0.010546422923338425
0.1441812531487927
0.05693574685652725
-0.08230798390075683
0.20607982934246746
-0.2143160082863024
-0.31759287402944486
-0.11104113716954445
0.0009786021722062279
-0.09926271884249589
-0.09807149598480311
0.07591715846262229
-0.07241322341046148
0.057310393211224636
-0.09713634009823464
-0.3176837045548925
-0.2141682518881205
0.3856167498540977
0.15751490824564013
-0.23495835989621516
-0.310997048635065
-0.005054760233196787
0.3454798389636172
-0.24629306917226138
-0.15905532408580497
-0.07163479150051351
-0.47647601345359797
0.7434592278224023
0.02729747009462332
0.08654671888550874
-0.19646569726507918
0.156279860959634
0.19397432928088704
-0.0847424330086076
-0.1910014883508455
0.004652314079961636
-0.10257532516344516
-0.027838141037139552
-0.03587843556496277
-0.26633644950435653
-0.07416642195376316
0.03464433664608883
-0.027233482957852502
0.08727047307055387
0.21163220587295897
-0.0360742802102016
-0.11555848502973165
0.02802799272282952
-0.05948222499651639
-0.005323017443933459
-0.05303221968600731
0.11172714867864897
-0.10402838248025917
0.19211496933542863
0.06991116827803152
-0.05878995261300817
-0.13173164913391047
-0.024023065071810103
-0.08009136465628955
-0.11486430858385366
-0.15528336682189495
-0.019612873504923505
-0.07784041180743347
-0.08559562474240974
0.02364564514674428
0.05314566498756298
-0.07326954442595066
-0.05675683018870848
0.00541072775190741
-0.02148742412285343
-0.16009947124338497
0.08357653369275625
0.08064340811353127
-0.16353061864201557
-0.03659310759857711
-0.08654708279887682
-0.039061908370056124
0.050451879964893497
-0.06149379089396908
-0.14126040053992106
0.10912749318334922
-0.03668727316189284
-0.07135043882923403
0.09901452740832277
-0.018779397750158595
0.005639848106261424
-0.004177531372445303
-0.02450434834932558
-0.029299447165781357
-0.10639477113607251
0.05406109402848993
-0.017034629812062996
-0.08733321788007252
0.012631008028387273
-0.1587371825418005
-0.2546690631131547
0.06881504800277365
-0.10937343042535648
-0.1415994986804644
-0.14272741717123388
0.028211099032632365
0.21187347179211186
-0.09511462987831214
-0.03784499831830984
0.04610643678927501
-0.11925314521122508
0.08284884864700857
0.0679726480608323
0.10849609164470789
-0.17899729847514
-0.04397597913905586
0.08395954127585262
0.06727950835680391
0.026692029632540925
0.015048613744150114
-0.0011295942470265763
0.05345670149284698
-0.1193463930357338
-0.23925117525041417
0.17327930165252736
0.037073759993564506
-0.12792496819377205
-0.045196933435888036
-0.04316825181836162
0.0030236961773851176
-0.13063403664192508
-0.07396272055291686
-0.017829137101800743
-0.013623427408260613
0.010581825751040755
-0.02585898541346002
0.009075584354453102
0.0004166448597795687
-0.1318303193363243
0.054068037431831556
-0.017051885976445233
0.01633142608899635
-0.05997986570186027
0.11041801276204623
-0.1662373968164332
0.003896174843721836
0.08041872372868494
-0.060730967056586316
-0.09646246211942593
-0.059905734390178746
0.02018778647121488
-0.011511689256350538
-0.0009509867255333794
0.049027441854368976
-0.04562098752598394
0.03945811286528041
-0.13584510730589885
-0.1513373262280468
0.033365098916878826
-0.06403922734562875
-0.11664065947541208
-0.07179488112590383
-0.09022819359747336
0.03469588385287441
0.021226048998689434
0.0147775099903866
-0.07107506098516407
-0.04177646386443728
0.008218179891250817
0.0302811498911172
0.02476777682138848
0.01658915647930678
-0.08160489028953623
-0.10526402234024218
-0.08621857948696159
-0.003427444166123853
0.038040938505913724
0.06066026525317074
0.01801824211384001
-0.03439940894874463
0.08612944022837425
-0.034502929479506776
-0.15342659001033832
-0.02204072401583788
0.007559841421789984
0.09561020108215
-0.11730927269059893
-0.021071039618939164
-0.03046827297570539
-0.09032727244565741
0.2059823352120888
-0.07766917945020023
-0.14261647085292417
-0.06135641133287383
0.06294143395529654
-0.0790554201243063
-0.1304179451061847
-0.13003699782901493
-0.025376697760553013
-0.026914114047668032
-0.0528014272769912
-0.20695360878428878
-0.23237586386718065
0.07747938324243349
-0.13758974888334033
-0.12427287091949153
-0.1364602200027032
-0.02999680549575998
-0.03827844072762125
-0.056794735530553246
0.003027561959066419
-0.047904654484585724
-0.06417809392803603
-0.08182146243031828
-0.06122955741581343
0.055179857869212
-0.12834122855409494
-0.005357571599522684
0.04505386160670613
-0.18929177324828292
-0.12770220776101426
-0.0103655391805382
-0.027103544383250446
-0.2639075094692893
-0.02501777882005371
-0.03254732508432914
0.07780998191580588
-0.015655633260468305
-0.0547919756151718
0.023037579756672897
-0.08714030645285978
-0.016210360884314753
-0.07121323447512937
0.08938631827331042
-0.07970301188905671
-0.1152940720851659
-0.15854718431711384
0.11672072186042792
0.00829921941989155
-0.11200913368830287
-0.056895869711162506
-0.05384537061761989
0.05164507901646108
0.09934672189202244
0.07872905290789353
0.006549759436098121
-0.04379721509286269
0.009848089165005484
-0.036361444179649094
0.0630035245739567
-0.04743873473018849
0.015215410556791082
-0.035623008971571446
0.08735796328820424
-0.026905204701651145
0.07293877528394818
-0.1021043756922461
-0.10369743607641521
-0.12946840192593356
0.23611856821253915
-0.07770979116970275
-0.23003196913280172
-0.18632419081933713
-0.027137647042880488
0.15500501141531342
0.00022529002279867558
0.027700164411409066
-0.07339277178404016
-0.36624432073101876
0.3934580817165697
0.048584332297007086
-0.06998090397136272
-0.16887297611458651
0.15801350659676655
0.03024382472285502
0.04927537144049824
-0.002655739699331698
0.0451775582044067
-0.02033633034369731
0.050580769685649035
-0.1007656260484245
-0.16910041751624896
-0.18339461845804705
0.07442867335442775
-0.05952158889509652
-0.00777262013233609
0.13384805465282226
-0.004026387895362063
-0.15082331474984095
0.024831412779955604
0.09162401860335379
0.033925959758928065
0.016231793759003844
0.21258474719937553
-0.1844466429036021
0.16201370903817267
0.02547785899383016
-0.05235637378120375
-0.09631031293168832
-0.04745335557408542
0.0193162424168558
-0.15678625287756845
-0.23555556457101381
0.03743179077288204
0.043629436563350665
0.014970935399500188
-0.06198073609749834
0.06360626624565283
-0.06231554457425021
-0.19767211104385557
-0.13759771808273183
0.023729815230490444
-0.12310307221730592
-0.07831079119937935
-0.03497068155465372
-0.14744799445527942
0.16058621839865117
-0.1789498921385622
-0.1397326253224102
0.07785588292070296
0.17304011985795686
0.029342478023181105
0.03575717732871722
0.09984906173317684
-0.23628337075821018
0.12279204699913085
-0.13333110276229884
-0.12758570232336805
-0.0673958988971568
-0.16753372437513334
-0.051357174560834364
-0.12979399564564265
0.04415909311708854
-0.227061593915654
0.04196689618385269
-0.04657641003763483
-0.21303193049967278
-0.3230684893469798
0.28434559787868674
0.02465121672554408
-0.1660699994507283
-0.3543112319595821
-0.06740116939500278
0.3916033693823976
-0.20994134753658925
-0.18754488262204894
-0.07718442300514484
-0.36011121676359265
0.5098888627430042
-0.05366852052425047
0.26325921233648497
-0.23217188449962373
0.14942265858538795
0.268054039029146
0.06005813635606991
-0.08137442868092304
0.07200024298728702
-0.177209450916824
-0.013497556379052547
-0.12108483670749623
-0.39352708984608403
-0.012325929862159532
0.03328083556092526
-0.03802512177955904
-0.0015728909357269451
0.20315095266702882
0.1400145089910919
-0.08983329051503715
-0.09774849404793755
-0.02645339578475768
-0.026904874208285537
0.3492100256140425
0.18178653486489182
-0.04541290035956195
0.18624243615513297
-0.13814994954403576
-0.08537674069054597
-0.14957225856937983
-0.13507949422828938
-0.1270464027927239
-0.08162891179256371
-0.5776659701670929
0.03955494716559601
0.053948362423540924
0.040071728758689085
-0.15578536130680476
0.23422777306424833
-0.18397980281362886
-0.34991378622151603
0.033519691332529127
-0.13657459485456674
-0.07590568991555273
-0.010959541637328925
-0.058384779125505465
-0.4224228862408307
0.3511052707086939
-0.3658144235267777
-0.3682446374197223
0.15575607601949404
0.16056657473782399
0.10442997379081533
0.3828957225591116
0.04690666504193089
-0.26017384235342234
0.24271690435824753
-0.18694152971743178
-0.372675357606625
-0.1718419043952492
-0.1274497381384428
0.03051184517767713
-0.3491563166421222
0.10299034915006586
-0.22800667751003273
0.09109391529979657
0.08335810427191498
-0.4457511781059375
-0.39560247918310104
0.6121317503779619
0.21910740821277574
-0.5087821893620607
-0.6578830827545583
-0.11480446618660782
0.8829694972819312
-0.34749323654218284
-0.18973425448340767
-0.24031927338641484
-0.7343628768452907
1.1501297958836931
-0.16647930789701842
0.3216120916811413
-0.4932404343645587
0.19550095558302802
0.4065596739973381
-0.04334610612301623
-0.14373579690227478
-0.012328734998861949
-0.1775746414284605
-0.07837947997435174
-0.08269101237471754
-0.15060860084680278
-0.11915248165633399
-0.011131303593582111
-0.05917277700133807
-0.04433307304061624
-0.023646639440345906
-0.04679918812475417
-0.05287794944165888
-0.1257135159741626
0.029895553964933236
0.07850805360593832
-0.13801513808347599
-0.04441109922775312
-0.03733106365975404
0.057319253190077794
-0.004827785142926034
0.010446847662769307
-0.025006548646519845
0.03492126499684155
0.05662636882814057
-0.06983120953355787
-0.12103366825260808
0.0069339732005890215
0.08933962078044572
-0.04394554654000076
-0.11267033271512664
-0.06350366741986385
-0.048384635679316126
0.08505108370294152
-0.08983932659044375
-0.10941555957298042
-0.01965854642768275
-0.04015194045498621
-0.07161247897312455
0.0556581044754348
-0.059271986100298116
0.08680985776880322
0.0411564738695767
0.07651905367394943
-0.04016975864592062
-0.14729795390796802
0.06059431192732718
0.03996277309769902
0.015235102637656872
0.03324717117661321
-0.002771747831850151
-0.08644585199639446
-0.023452539300514077
0.05207113963943699
-0.09004982852092201
-0.0031557389893318863
0.05447701860045328
-0.08135990572520395
0.024428622386831966
-0.030534275281042047
-0.0948033780088563
-0.1762336306669841
-0.09621748652968573
-0.029384405487731927
-0.06259736581751978
-0.006827694429397219
-0.03522095561434905
0.09042941663703719
-0.014602667735851763
-0.07392338169400345
0.016136391862603065
-0.08893109457914986
0.023520179939660178
-0.0978496579788284
-0.057080297812659275
-0.005998749088719516
0.03451486017473382
0.00012282264970229467
-0.0767977903286322
0.05201671296393915
-0.05864951157079495
-0.07385477773695384
-0.011131318873034937
-0.11678660758971682
0.052922779929874604
0.0331695151795283
-0.007984183861482372
0.01686048683380743
-0.15343135667577298
-0.07161206896108332
-0.12002527667014855
-0.09419889015696727
0.07889229663744203
0.08886603101840149
-0.07885571551947074
-0.08011866326936871
-0.16223825263581354
-0.03394638509789292
0.002392957687856686
0.09081757287003576
0.05811013220888328
0.040184546165635805
0.012370265162099695
0.04958974044743243
0.06733059524830268
0.32535381834838434
-0.034062052480117906
-0.04040175524956207
-0.07003553431452683
0.045042142909887624
-0.2621418952237052
0.011575624627063179
0.14079381354534548
-0.10209388109030287
0.048469712465135165
0.010508822432897073
0.08927996660075578
-0.03158194614394254
0.17135963647471952
-0.19075265631098876
0.2129075818558711
0.11166460524557506
-0.026263807266177244
-0.3010315443624618
-0.1755859347142644
-0.13201442888140305
-0.006200628652745399
0.17763236774128788
-0.07846504987375919
0.11766891695800889
0.16099232372087455
0.03649916945090001
0.10034038142262182
-0.04100447467867345
0.04934240622760313
-0.10367291146382121
-0.04225052934819414
-0.07424847705607066
0.003988785759292787
0.12861261910932834
0.03522836353709067
-0.26822485974929644
0.012701985253984
0.22291907246537254
0.25218757998796365
-0.017192946913616756
-0.28481768298756976
0.02888477666019986
0.10706782874568153
0.07788435011298153
0.314483604305276
-0.6296319661891148
0.10341954333200575
-0.28036515212138174
0.27461763351217977
-0.126202463798511
-0.22368912192193888
0.031014687842603354
0.05885032745556347
-0.03857686903499222
0.05109272824749833
0.07391503565893495
-0.14475479118057716
-0.3488098266711886
0.21422044638172538
0.05013505894457579
-0.03884707587524209
0.013636395700474032
-0.13293542464944727
0.09892206534579395
-0.07252539449856897
-0.07773534851071646
-0.023673385266185745
0.03373966659831304
0.07038498712308076
-0.20194047904352957
0.08162842398455376
-0.08164326951508666
-0.05784741782621292
0.05974614120023361
0.16358184624071195
-0.14242495315344317
-0.11602684251546397
0.13389230157733023
0.008534272344253671
0.004952627409421008
0.027181490013123283
0.009493066739685974
-0.01775321311135085
0.0028374541721475914
-0.09300346461959935
-0.021472111577261296
-0.07564210093072045
-0.11319301527370633
0.06965285169825056
-0.05682220479803448
-0.00949722023280895
-0.1787713169067278
0.18681177939061253
0.021366802195786575
-0.0006444407312664802
-0.08893621604587855
-0.023437199376239167
-0.05923648646654581
0.16286345722436682
0.05373786779624845
-0.12773278891083248
-0.038294794589710794
-0.056915969236245624
-0.0812168376364004
-0.09193767407937938
-0.12351922698845279
0.02785706990741735
-0.13647953371585209
-0.06811565371494727
-0.07838651692184412
-0.08731470729925057
-0.017693313750610805
0.022940256137872823
-0.017019552962328245
0.060473573118008946
-0.08615176837888436
-0.15457555574570708
-0.024829931485859463
0.009811861404521872
0.2743288868995599
-0.19506232952908728
-0.14305818949400081
0.04261680599971381
-0.21069449216848402
0.2629450932860691
-0.01778165024989675
-0.015427429066125375
-0.14415406078326973
-0.0067484716759829855
0.09906439195974374
-0.04398879510592097
-0.19305271703689558
-0.06583779299512586
-0.0034365773363164475
-0.08728017982022251
-0.17973243660119048
-0.38572902123193203
0.2481584437168374
-0.11425032116868736
-0.13965537801008987
-0.018866097067012578
-0.16149449269538285
0.06766373145002816
-0.00843232108598957
-0.12825934300987854
0.08566363541215669
-0.027051213948608058
0.21063843532050883
-0.27681082743625335
0.07145165139307688
-0.09090282582541055
-0.06436684906228042
-0.06557458932178226
0.22353863029582421
-0.1734672821141533
-0.17637400929749983
0.3047168568024566
-0.17322597921524785
-0.026152697192350693
-0.0765213770755696
-0.0386517483732584
-0.0467033768652272
-0.10386869331138068
-0.09851457486506164
-0.2233108495505056
-0.19726195498634683
-0.051581635130176044
0.030400912634263175
-0.11332770439593123
-0.08937234143106114
-0.15082360161239447
0.08547838394270606
-0.023328650616137852
-0.07009544138179842
-0.0636994493643797
0.040470101898271715
0.027538006788150216
0.12741560940776275
-0.007321359432913371
-0.09696812960048755
0.07754499054482743
-0.13541967521795223
-0.1061754006203477
0.05502131027282997
-0.10761672369519046
-0.002814878255978857
-0.057799753257923144
0.010149153804409854
-0.13709787967026782
-0.04963459804028883
0.06348494716528594
0.05720495469003368
-0.08545976833532355
0.11072087992363698
-0.06079082397972705
-0.0642744027874887
-0.06367304390333707
-0.12221488644464741
0.2691013648220024
-0.22689506811605584
-0.09445237954601575
0.033985848910311
-0.12650123913111175
0.419919519002628
-0.12730019272925872
0.06613029016722186
-0.2031569902464277
0.09859590663743602
0.19533017410823078
0.003354283594135851
-0.2824344629118394
0.09462957740390676
-0.045192412351806883
0.09401719271085829
-0.10303929367542976
0.09674752992383734
-0.08472462689461321
-0.07293000170358321
-0.07466980651877468
-0.05606409908739358
-0.043422045894889585
0.048196603477170925
-0.051857068454707514
0.048914982955477526
-0.01818340900547924
0.08607666572743475
-0.3394006658122913
-0.04693748919597506
0.08465722733332773
-0.061981024725280616
-0.07448682127410193
0.09181465685698242
0.03907472604298459
0.09017340663494808
0.12989590915638766
-0.09309336654456359
0.28180943953966375
0.05314441239875481
-0.07908901179754838
-0.0025191331834030634
0.03768296723742672
-0.16353142709013416
0.02479069154964174
0.19710873452801594
0.026582280844865903
0.004258702265733379
0.060497065275435156
0.06364113768280885
-0.07120980718231867
0.22007763278317558
-0.2607280205633221
0.09665587822494145
0.22910802477273912
-0.06677476388747597
-0.18429320839127428
-0.09213248373993257
-0.23243833511909753
0.09704502763390602
0.18301777187699675
-0.08813335204732542
0.11373878120086132
0.30218989135042906
0.12041205529645191
0.0015625100691554151
0.0748701940720153
0.1722027722006147
-0.10810358318662788
0.11893869607173575
-0.019538140200119944
0.048034929235405234
0.2189059903339336
-0.06101210219482506
-0.31494023506589164
-0.04793809652534093
0.29485240967858267
0.27618815174917927
-0.02909305740332822
-0.4311279675070754
0.1391340767041627
0.1286628099137671
-0.04532645674795344
0.2715801170895222
-0.6481053053354928
0.05779122362812194
-0.3653353895668737
0.09998598300319159
-0.13867122498010978
-0.2071132167005872
0.058005200233117005
0.09570375211645729
-0.1435058194673404
0.09334861941089978
0.06389481789251272
-0.11232011211958139
-0.08495703143301889
0.19570384603860655
0.08941909868753255
-0.12057195110994298
-0.10937936401777573
-0.19626041805211936
-0.0027904769936810654
0.0820178826590893
-0.0015151732644227466
0.09220415495367282
-0.040901505942587235
-0.2439290973053836
-0.10547773691223211
-0.0320166983791125
-0.03439089014035168
-0.04637337822712673
0.04085436823702679
0.016015803759795843
-0.1062470645902327
0.006575088626123351
0.15383407564996657
0.1461074186370515
-0.02216231404759457
0.052446769190507364
0.06479090531822615
0.1278850051485605
-0.03660117103301706
0.055666720030831236
0.11442998387431944
-0.08366010420590791
-0.06511566720525211
0.07643334743863152
-0.032597219220444514
-0.0015578887549659855
-0.025875247534216373
-0.15425268643215065
-0.0021738017272565496
-0.008796069989888786
-0.004310113970352671
-0.07414617782226314
-0.05545005333750725
-0.03735547886958744
0.027906443526058006
-0.014269837065114473
-0.10868372523803778
0.02002751163377293
-0.006367994413490116
-0.012257762750222003
0.09523689571769037
0.0743959161539155
0.09313032290177352
-0.09463912152235955
-0.04785300696693511
-0.02306703345780267
-0.11771853567975514
0.2659010898860242
0.1156495718874383
-0.2764612442660787
-0.10778872415631711
0.016393807837951333
0.2926371476337117
0.0910305797861201
-0.24495862363118534
-0.0458547939835466
0.071303632957792
-0.022617887539766037
0.2043870201464451
-0.3162158644188647
0.12143649854879712
-0.30836630452519614
-0.01859946655796633
-0.046227469524472875
-0.20522298798430239
0.07477102907616687
-0.0732741298075384
0.05935562462406839
0.1314009630296466
-0.09889001772654674
-0.18082694748591396
-0.1766348071740199
-0.11745451553375567
0.008171726423171438
0.025000804091859077
-0.0783394880369086
0.03950052412198979
0.003230355053132002
-0.03717172098609258
-0.012850885150374223
0.07317648858803938
-0.07516854610224083
-0.14960825395155086
0.039707422942552605
0.004653497243406519
0.08672780659271992
-0.043056162295288844
0.060893107564867544
-0.06247512482261782
0.05862129614606975
0.02326545674156521
-0.014597378405790297
0.00029922570940790663
-0.06255156265163525
0.052891093256051624
0.02282624148248076
-0.03472138228058839
0.0012357815246654272
-0.01863689289857969
-0.04385251830199883
-0.11690847380534679
-0.07670059850775852
0.006024697689934402
0.07106049751080393
-0.08045880984089558
-0.03729726054417654
-0.10885680013136491
0.028433021501737994
-0.006216905813785155
0.033216481686011726
-0.04014389306693864
-0.13499083138907564
-0.06475511494678152
-0.0677264087302448
-0.08342262094796127
-0.06219646118530561
0.07643021949609197
-0.0674005203015975
0.06982905117734199
-0.040617373121809006
-0.07412842230661436
0.024298543871152954
-0.026094259560676784
-0.11238018497844694
-0.005953916327644387
-0.09287763918652515
0.053989462128777484
-0.1588344680604592
0.013741532621627967
-0.09010471922776617
-0.0016455996078055801
-0.07697251001431069
-0.03331289066310736
-0.016813858150545924
0.06605857606614389
-0.014318863106456144
-0.07416123673540831
-0.03682662212437929
0.011679763260916224
-0.058820023121707324
-0.12136272024132899
-0.033881158177666626
-0.0009896022638680086
0.026478829245526483
0.0651582918497706
-0.0853582371545078
-0.0018306307465058406
0.031682309717716614
0.09502837738733202
-0.13741347249177452
-0.13690628452745715
-0.05772459052349282
0.04414830311770907
-0.03525703780159442
-0.09060091209104668
0.22940432723255677
-0.034120726583788175
-0.027746846134626652
-0.1545708566398655
0.008036705700280228
0.07435512995394422
-0.12371469977723655
0.21952891600105406
0.026033104020486926
-0.020040664744810158
-0.1191159860312269
0.04965020759859978
-0.23978280929861429
0.05084812240529395
0.013107354241199345
-0.15657805398717406
-0.3242120142613807
0.06829901282538033
-0.03801823602579364
0.016974143759893895
-0.025339018324066123
0.005860299736533218
0.033547863658264745
-0.04008890720778031
-0.09025577632284937
-0.024145955858818516
0.00513304945952884
-0.07252387711324605
-0.11707475911643672
-0.06881904716532657
0.02006664684612413
-0.09209600035035957
-0.1393186313918653
0.1293251897816852
-0.07410550731877026
-0.004482102917942234
0.057201907667025265
0.04504201598467342
-0.05029108304417726
0.06861497448152319
-0.047462752661569414
-0.1155404016875742
0.07114696611391749
-0.08692174025115533
0.03515421099780971
0.029779632755567408
-0.029281449291845868
0.04927390165146923
-0.03628925308896551
-0.006895421590902239
-0.11937092263369736
-0.10485128626988922
0.08832383250866768
-0.07969781309705261
-0.2819796589278078
-0.33221893711037803
-0.06959975444085147
0.1595079407530765
0.0038153407305956686
-0.009190367816847738
-0.10077269602426336
-0.2430812763122278
0.1884805254905798
-0.021665811654751878
-0.03178526737048932
-0.12579195941228383
0.1047465737055868
0.18269303843119056
-0.06240426864394939
0.008053122656400326
0.004262374701925993
-0.011237862258775632
0.02612568163526846
-0.06941014736934253
-0.17969379946190783
-0.03891682668414745
-0.03065407668368079
0.019735617981695687
0.05003145144142621
-0.07184640218051339
-0.03574787291719502
0.03704470786645592
0.0037830514338238605
-0.05851085751302119
-0.032622896928335074
-0.07959876796988204
0.04061890988063746
-0.000493592824094385
0.030792235090328007
0.07214796008619805
0.08954430113732967
-0.005311068079545701
-0.1198553755476901
-0.1452604267418426
0.017203430827257785
0.024975324457758515
-0.05262169157545543
0.0636040435961259
0.011992453054804078
-0.08796513323909542
-0.013338934827866617
-0.09066263950427003
0.08788529029578747
-0.06557988145005242
-0.02673819777598561
0.024415939964401282
0.0029606845814262386
-0.10468140119778961
0.07620574324369496
0.0038505831193314756
0.006259776259853278
0.07018055260112949
0.023128414129698845
-0.04971110355632761
-0.056041591750464664
0.013799495490578599
-0.07574800678776368
-0.07489077097484897
-0.022441636385625522
0.05384653097188071
0.009405848901457323
-0.01241001297758885
-0.06743947351772436
0.027175976661994602
-0.014565279462433516
0.004842750363879905
-0.051370366241465244
0.049531479332830336
-0.026504771757696007
-0.006113169659629281
0.03749286810395264
0.014594066136332698
0.03844723205795707
-0.0472473981001692
0.0788643044626463
0.04504527082856246
-0.06475721536445533
-0.04853801459001966
-0.06700974482898256
-0.03488292324561659
0.015295388314923018
-0.11490579370543537
0.0325689349331923
-0.13494261409217512
-0.08383142318300657
-0.0795354751548027
0.062421481997705835
0.05350979200797151
0.04772822981969793
-0.04694727517680068
0.09133215750791153
-0.05708094718887067
-0.20861803767082418
-0.11616873556400374
-0.19014180473003012
0.08079974976077411
-0.03009860348511859
-0.0896993626189558
0.03246621714804594
-0.044106414947668045
-0.017463895873472357
-0.049856127514099936
0.05217898007614319
0.01560308387285085
-0.025765689418255806
0.1808879820257541
-0.13478072686571754
0.030485821441833778
0.017346048874514915
-0.021768643262385784
-0.2098710199215539
0.0398391898837293
0.06396275016978932
-0.16191559526545488
-0.1335704055383622
0.11678496396901955
0.07922270311296664
-0.09016454270422854
0.03325673847137355
0.051088068931254976
-0.11155116966602711
-0.08627035262610627
-0.08931286255265002
-0.11899487182583514
-0.07121304837398018
-0.034383422196882785
0.018029047701766016
-0.06281058839069008
-0.07783989759897669
-0.11410181835403703
-0.13489802191501107
-0.059446229881371125
-0.04698616338615338
0.025861554092428195
0.050328106009386
0.05383522693933071
-0.13617044817620552
0.009160859919245154
0.004119296247618609
-0.07336512294441434
0.006222992391638589
-0.10489233431725405
-0.045356390655238756
-0.027978629461117066
0.057277715973540616
-0.04363941291878472
-0.01268850158320571
0.036498515667656425
-0.07607471019987463
-0.18219718079975916
0.006308924259815464
-0.020042167864920284
-0.16304266847485754
-0.23350004927186063
0.0035243387891899505
0.13195013241831216
-0.013064215418246119
-0.02247778341449207
-0.10512387594676854
-0.14521163887570024
0.13252706637092423
-0.003012266579651585
0.09682402870042248
-0.10780111245080073
0.019829982788841228
-0.01783139890178229
0.038401989567336696
-0.0167830154580531
-0.08834959765238859
-0.05569204753876883
0.052211415484532925
-0.14361172470148253
0.12131702898225578
0.08578251116063779
-0.06519797865649637
-0.12190212430535026
-0.04020512022293574
-0.19651318911014667
-0.038899176969619496
-0.011135885154327464
0.015011866396521701
-0.09027000616329645
0.009017336642532542
-0.4211698509296164
-0.022026097120897595
0.07965843738428524
-0.08702808137492386
-0.004928063282734066
-0.04836347241130426
-0.05013261068744588
-0.07745924616062182
-0.12195125662726082
-0.010442856129547245
0.05063754698385228
0.02802063207615702
0.0857615304605027
0.009526261394530014
0.06855582054998854
0.04181561415345592
0.04160017981591298
0.11564656586759303
0.025972380072096596
-0.030683818002090513
-0.1269280851465624
0.14626237211719345
-0.029065402221181372
0.20827604973343464
-0.2401998623600905
0.19435985569860265
0.24678711967747013
-0.04106694338661045
-0.10321842718464071
-0.1252817547111477
-0.2633642294460316
0.04696683484191827
0.14714495722052295
-0.18150895691415136
0.14316004950569414
0.15712970351239072
-0.011556208986396569
0.15727312659045176
-0.03415043718656009
0.09216575286584058
-0.08684411553544312
0.06102938497305563
0.0973639330235164
-0.03668657670464422
0.24821212892355338
-0.10542356404807664
-0.33410042616781516
-0.2046745984914695
0.229365245640141
0.47245163658484374
-0.054701893290270795
-0.33042370162367724
0.12285568522899498
0.11779534026168449
0.11102021786611942
0.2897855782697178
-0.6248890667113945
0.10607825081386546
-0.37165628377904486
0.07494590152939092
-0.12118132127008867
-0.2790577796739074
0.03974328966618094
0.05829965961039053
-0.13603943269124164
0.03701217577565497
-0.06638443763067628
-0.1642894461052869
-0.18400070995347018
-0.10628930680891756
-0.07792722533447918
-0.035846933323264336
0.05462019754766776
0.08776295025374244
0.07567924134248363
0.04207844311754255
0.05049342582366432
-0.025679586892709036
-0.007186701001152346
0.10326941086835373
0.23865199655554273
-0.08933688244596985
0.16997437730663684
-0.04976210113651118
0.001151463277186321
-0.27249318286607066
-0.06795829760006351
0.08657817306975163
-0.13818484490453425
-0.23767015847190096
0.11570914050962516
-0.03922987351455592
0.0008971971932013878
-0.16793013659495495
0.09125449623535879
-0.0382594072026119
-0.22614600912268595
0.016312408063401347
-0.03290572583819166
-0.05820183624242178
-0.10993063336527782
0.11192499878233168
-0.2678146967047421
0.08229464055258968
-0.11385839572151532
-0.048555439099753114
0.1914675219205632
0.04516130067008737
0.05874229709002721
0.10791141269636059
-0.03622321821966781
-0.26133174434252227
-0.01163243176236087
-0.0016426226747568785
-0.2589174466988381
-0.09073502456479753
0.017819401274839067
0.04290083938066705
-0.07324351376158642
0.16225131491129832
-0.1125874798964669
0.0260403719582587
-0.1395644829718137
-0.2431398032735317
-0.3570583456430424
0.3243821290433112
0.026839585378768682
-0.2558457139328507
-0.39741968579400794
-0.0318337360012052
0.293302681544407
-0.13749873789071154
-0.11630685163549767
-0.016887689216950955
-0.33531202939982074
0.46460978766226935
-0.00011616248877446151
0.17959885441532766
-0.22791916551536806
0.08392141103183308
0.14237110056917196
-0.06809705875459408
0.0062819659339146605
-0.07732822145387251
-0.07345080998759948
0.03398504067179034
-0.16607160564448398
-0.08254139823971679
-0.14524302032381306
0.0476101544985674
-0.021290459728034488
-0.05810052581838072
0.07082034391716756
0.07906425267819887
0.02301172808256
-0.04201819114605727
0.013033057649331423
-0.02266209497216487
-0.18009662395712123
0.1368409244711044
-0.08402552394374399
-0.03212233129294012
-0.04526818096910879
-0.08096614295407262
-0.1931717932850983
0.03556516143377435
-0.0016713812060162726
-0.06429500095573505
-0.029346515441834444
-0.027561469101738848
-0.07169001729545299
-0.05101246787313307
0.03473454718851521
-0.07120088177536245
0.10301759171146072
0.1247906581235511
0.04269967613224084
0.030437884955143324
-0.05610480291755727
-0.015142465975811573
-0.0010074678408236266
-0.022268664846892803
-0.12131770676251866
-0.0482491309018717
-0.04639354055936192
-0.0605684105616523
-0.031132380390546444
-0.1274580980401816
-0.1423483928545775
-0.036973574283757235
-0.09624657634063044
-0.015392373347879103
0.09634038448535706
0.0013969242542612084
-0.03323505720680768
-5.729196647754656e-05
-0.018538051759810485
0.07028737491206938
0.06707299790507419
0.0938451582190718
0.03335226670284089
-0.08202187207502563
-0.07523770708302896
-0.0964591921549719
-0.03753304717677926
-0.06414166148944822
-0.014959305842596748
-0.019520574756434043
0.04380897385843784
-0.0174627862255198
0.14964447178713255
-0.06585774600590863
-0.009213142596114537
-0.029111643104454115
-0.1948344086522629
0.0014471782769297685
-0.011752642317397418
-0.08526483623314052
-0.06984089408747148
-0.1328439901705865
0.04746253819871873
0.10415678912136365
-0.08723761901983307
0.1008216859931595
-0.07207887450290731
-0.1783970104260728
-0.3221197353638366
-0.03745981336942606
0.07564861485475634
0.05996039937291727
0.09839849743380374
0.12361846589510736
0.017233857845415413
0.040904545115924895
-0.1804820844004894
0.06848895113955464
-0.015074875420897443
-0.05126583910521117
-0.06657966372766883
-0.16798980889638987
-0.0798916079666374
-0.13774316084635327
-0.01740072532397678
0.0033230259003177993
-0.002487781592880617
-0.13832014635588985
-0.046718984912652924
-0.2711023638166754
0.06295640113598203
0.06248212571046041
0.057803692763670894
-0.033800642000324656
-0.09314444843331526
-0.06108970679966522
-0.10231635496379636
-0.1132547739340895
0.06998149674527787
-0.11216250832032447
0.0033226407864811653
-0.07106125093165057
-0.10949509336842722
0.14063640952676956
-0.02719161038022912
-0.1683911177132704
-0.03267795293816585
0.08696502062584606
0.01641021574270498
0.176215151730753
0.049686797367452795
-0.1861303237902572
0.11579430931488746
-0.13029674592010024
-0.07592366531000885
-0.10818100471645921
-0.044063774713086167
0.07958421354469063
-0.1160098591115366
0.09202002216617032
-0.07470128330454431
0.04455414032360766
0.05530233735768159
-0.11559627851021047
-0.1557807880906268
0.11365873595245145
-0.052826531118186554
-0.11660120288443787
-0.2822624959080106
0.047199368994294326
0.3639157249059831
-0.23078887959659763
-0.114004568370929
-0.06849994025115155
-0.3059596352102566
0.4155807018171515
-0.09466459241135347
-0.004416294804634326
-0.1190149196845069
-0.06362003114604017
0.06454003361086078
-0.10184325227553051
-0.024826670476644587
-0.08481123468170876
-0.10327945856901705
0.045861096106551674
-0.11390435169162617
-0.13889262267651817
0.08348277609215526
-0.070817209149348
-0.013654250758898461
0.026934408632049777
-0.17775745081006739
0.06195075003724493
-0.08305286856847939
-0.13085277323499456
-0.058359756768806365
-0.05819415200714304
-0.14707869358737716
-0.07827544215776192
0.028462397299773116
-0.03587462155357945
-0.06159173887277299
-0.03475068242138461
0.02869504889303848
-0.04014554399927422
-0.08362056888997503
0.12240654168730875
0.06327055850161097
-0.05143065293667345
-0.08957406154418904
-0.024808738941312483
-0.033292381084668234
-0.1536657948828664
0.10959743284050705
0.10364758777351774
-0.10633017108851867
0.04596867844025643
0.04553141749538816
-0.05570465106581621
-0.11866600771110586
0.14296879080146868
-0.13562425739171421
-0.017524749125159444
0.02572090770549389
-0.07522426392423026
-0.024617447835385872
-0.055070494657794906
-0.196940770132877
-0.013053886717910773
0.08881780612454054
-0.004953003731609476
-0.06211828490204323
0.03918813383174552
-0.021790350976287825
-0.019013544145966225
-0.07068446151977495
0.01157013428603551
-0.0015640223013777981
0.060318662680493636
-0.07654927670929484
-0.07844753217191262
0.08894758713869345
0.13401251271517092
-0.19309082442091682
0.00842418759560536
0.12885014926301286
0.23367465703161364
0.10455567148740863
-0.16701020138099948
-0.0969553939037358
0.01784089130405581
0.060456859897011446
0.15035898651071725
-0.28609757906514033
0.11849927543080135
-0.12961024236082144
-0.03065111592190105
0.0013092922630046527
-0.07020271976011908
-0.11478635710810586
0.06934735802684072
0.04654073985452381
0.014271452817329767
-0.06465822315287714
-0.1991549708611513
-0.38381220155443607
-0.03108418394238945
-0.0540781642169986
-0.0877646745270537
-0.07031282741438037
0.28724189275314554
0.08368878849014903
0.014039284358880678
0.013275686253599336
-0.007888600151402886
0.0357884774515283
0.058146802198130815
0.25281432441647694
0.026666525428045255
-0.08155578293992735
-0.12373560695932936
-0.008376034935289572
-0.35561344229593417
-0.03721979420280175
-0.15335483842517403
-0.026575341651130666
-0.6067692473058056
-0.030571319333504918
-0.06319872858917581
0.014570068383292736
-0.08012276782894216
-0.009640351621353292
-0.15191877217980684
-0.3614341405517602
-0.07672108751774215
-0.17478727979126912
-0.00043729271592281657
-0.01884813737211467
-0.01413198837410613
-0.43325430904094414
0.25910737303149806
-0.348064184704799
-0.3181626928254937
0.13929202640457483
0.2593492035116389
0.1718461969797552
0.34125458187979024
-0.09314042768980318
-0.2688169948139385
0.08570338820380467
-0.256982067541564
-0.3935433756185828
-0.14709989113585295
-0.11487845637945486
0.05042358863513335
-0.2570581157297117
0.09006282342446557
-0.1609839939599073
0.030542237428479335
0.017237064284445748
-0.6346602913446233
-0.2900588747928724
0.5151010149907794
0.16960557353480762
-0.3895958096087705
-0.6078484077963671
-0.16316812927484023
0.7139092332523965
-0.09633894959850668
-0.20575076569752934
-0.17392944711574182
-0.6654846003057246
1.1425750068111478
-0.0943809636027546
0.3557021488318453
-0.23752170922618698
0.12573952292214421
0.36535305373490107
-0.12447791234553914
-0.15815853629851237
-0.062156506765952906
-0.1308659591646087
-0.06623969402888377
-0.03729792446880397
-0.13050983745965797
-0.19921769317221383
0.03997764215346054
0.08469261888421185
-0.1136147612779507
0.09565263262468862
0.04093587077343131
0.045733017094375106
0.03668970046774088
0.060193625799392275
0.04176708430634096
-0.19752127907594852
0.10537242246434242
-0.11097954237534462
0.150856707121575
-0.0027597860979525616
-0.04791934104122939
-0.2979314809971094
-0.0008946442580643478
0.08151673537890011
-0.21265490806742668
0.002404609396567578
0.06340153133022304
-0.0335648337471888
0.09582684345782305
0.006993931367386403
-0.05545326292392864
0.05297226750300627
-0.08192943317306316
-0.03019528275701437
-0.020985481340603143
-0.014101336612354973
0.0786243291527304
-0.07284080182384171
-0.04020819168781414
0.024600003084160504
-0.09427318784200485
-0.018001240381895642
0.10170423689602169
0.03899365735465234
-0.14659929940278457
-0.004568462172905666
0.03771538048171352
-0.04389497841106991
-0.052645700871850366
-0.0035486303629257026
0.004496675761216815
0.04705118405347399
-0.010445648499813593
-0.09710603628050629
-0.03945275256987194
-0.04551722075917354
0.030933089798555483
-0.04657058620179475
-0.15434548716737373
-0.1317857372925851
-0.11961961692103734
-0.047142827263856026
-0.11386182787331756
-0.0003989986929495333
-0.03496834857224932
0.06474252220027804
-0.11163049137703633
0.09288152576102605
0.051250924282394465
-0.053208525387228665
-0.028811793062650904
-0.11221336678885103
-0.08468280176520555
-0.0493675050842363
-0.010694543337225124
0.09182931316404103
0.07351451063030098
-0.05164154621576524
0.1250988895713579
0.03698018608946545
-0.05022199400122548
0.042077591058760494
-0.023058971599200624
0.10606644837347257
-0.14318447975360754
-0.046964725148678804
-0.06211228977562368
0.0035639083841906187
0.09050650076547281
-0.06558719322473924
-0.108330005562899
-0.006257751011851507
0.02773295676711346
0.06279647299128804
-0.1279783156441898
0.15655082613888688
-0.0739373534919933
0.06774111342648458
0.029595871186863975
-0.09202287105672642
-0.21892928506208414
-0.03894118186045235
0.16251311455478137
-0.21170129640464938
-0.03730276261214508
-0.08235064586539241
-0.0422434299559559
0.04653433429156825
0.032654964875113844
-0.029148802412196483
0.14128320959809315
0.16151356313192977
-0.06394963907523964
-0.020226555120550833
0.05690376891128353
0.08317027604626355
0.10330040830608526
0.07360938800734278
-0.06881895007734863
0.10324080822540321
0.0030629863248716957
0.0132936288542679
-0.20158382839967492
-0.05280100504301428
-0.22278351719776956
0.09617487405218358
0.06437101044826143
0.017346239805661866
-0.01683138612646208
0.13897533149092367
-0.014355609820294867
-0.013701121067397579
0.0023193129584051556
0.11036026924270824
0.007299917450676488
0.06479588165929266
0.05800665860114515
-0.0057192387302080205
0.05201337378515691
-0.10755789420457389
-0.24023353756330967
-0.17787627830269442
0.0015204610558146722
0.04261489229490078
0.11267435661984712
-0.26780739376572454
0.14783279983869882
0.05111853628913151
0.06484390078121273
0.1838139095314251
-0.35862015598208613
0.09530459651786255
0.01694498479144138
0.0314973793232055
-0.11336659721489496
-0.12086243990897812
-0.05060409029234368
0.04229595453436413
0.006731859974675295
0.08579057201502219
0.025239484757101416
-0.1354663276220717
-0.16375824144812373
0.17259354995892112
-0.033779295857513505
-0.03277271288640093
-0.0803444809852188
-0.1888853448646781
-0.08295893734568124
-0.04406904460235036
-0.16490662441335932
0.04395644990337094
0.0682860366843536
-0.11802726794242623
-0.10032241258988384
0.10870794401281059
-0.061635091446614464
0.045014490472457674
0.08797955054929149
6.227170612255856e-05
-0.08287732257969373
-0.013894224618222794
0.19913453280330418
0.1386877147439062
0.046571209702691234
0.04866360103782075
0.035038339027457066
-0.07342595368101626
-0.014341133220202482
0.052114705010150066
-0.031545562734378446
-0.09504622930241663
0.04293580456377959
0.0792505439170901
0.034349411754810606
-0.10882369503918424
0.14304115081491056
-0.07536788198258713
-0.03173946004329046
0.14300443864482942
-0.1265008501813497
-0.07487450273595382
-0.09489398550230553
-0.08257499219456389
0.014828072195672087
-0.008100469902309167
-0.08178093222356096
0.062243855971364975
0.03088203656921126
0.03436609264113772
0.01929306393024249
0.004780672349661151
0.04070818803055157
-0.1297436988766251
-0.07637366622852398
-0.03982238702345915
-0.08298360263795468
0.20740423446927403
0.12757006205733584
-0.015640645002008718
-0.02544976071421611
0.13310845673878952
0.11391226554057306
-0.07806705646000779
-0.032566025663030976
-0.105843427016196
0.030727592588894893
0.04389510364905128
-0.001211078656792028
-0.25286939075014897
-0.052527365760460853
-0.1726654659573904
0.055975538540606204
-0.14836909296485118
-0.13920150046858906
-0.06889240815122186
-0.11135354710482989
0.04443100250416914
-0.05037159391917378
-0.018153111400418503
-0.1783212779361022
-0.19145864597833864
-0.09515361360964612
-0.005397946714938784
0.003971826337603492
0.01880487192461014
0.1287108822918669
-0.07768966397214534
0.03483774763846233
0.004676366118907777
0.08947382524520292
-0.03821351392889001
-0.040543070336864113
-0.014873859345617729
-0.11225006286515819
0.1067054357009236
-0.062313061140467675
0.05698645277432288
-0.03715165284259486
-0.016506976942752105
-0.07095538085343596
-0.11426005051212462
-0.19531101595107372
-0.048049454362023854
-0.07304717873169841
-0.00775767506976735
0.04853204598144971
0.007743744081217629
0.03204750149612235
-0.04288173554541519
-0.013119988862815042
-0.07633486860208258
0.04565199140479516
-0.07448989541025026
-0.06332222068509888
-0.16929985114747445
-0.025323784415836426
-0.13023976233507972
-0.08005031623599675
-0.007673425367587729
0.05517751412008879
-0.01975982422117818
-0.0589975708540752
-0.03876549651346986
-0.10389718085698213
-0.08579369724691262
0.03664452717792317
-0.10961894323845842
0.021905096071113555
-0.047834607243743776
-0.06424876772307736
-0.08268177322684109
-0.07316127507016974
0.018710269807896005
-0.04789580364172763
0.04055529443027243
2.8702742592613104e-05
-0.14653117738880558
0.06296399671394795
-0.019462079125262717
-0.07675907157078547
-0.03280047280261907
0.006303435142399592
0.13135608526094622
-0.05489841893763695
-0.014956208001685355
-0.043458032788495235
-0.15461484885379653
0.04110779717702247
-0.039921479118886036
-0.018525852277862898
-0.05634393659313379
0.006611461357099193
0.10587913623072821
-0.09276480153036772
0.0030508168059180138
-0.08913509247730173
-0.009984796311944636
-0.0799262434126709
-0.06684208551667221
0.017849479579945555
-0.18477346800938824
0.016527907068619032
0.0451018810788379
-0.0370417976343401
0.13491146572812915
-0.034502369867992336
0.0465034921574472
-0.10557865468367554
-0.04050955241061709
0.02240018808114072
-0.09015448774490793
0.23440132938892952
-0.13202233898761398
0.16088334358165438
-0.03744543316809535
-0.0904487253238709
-0.2890869446518537
-0.012975986734037806
0.07609361547119103
-0.16728986351185288
-0.20199253028260622
0.12083105759554011
0.0076191073513510454
0.031607861175824425
-0.04581320294559419
-0.012761965671886333
-0.07531204590087308
-0.08032133158344004
0.01615903523248116
-0.020425942587034545
-0.09362170938463873
-0.004280751985431778
0.056652730137030406
0.004147810553947854
-0.008798192591369942
-0.09995450455829967
0.02809585303218312
-0.06906219894260252
-0.03611233387330358
-0.05960784935146243
-0.13356385749796348
-0.012452253814430533
-0.021018748876725474
-0.020051654172017187
0.05153893570961658
-0.022685380960679857
0.029492744944936474
0.09368636357696045
-0.048069708754521295
0.02877508663834867
-0.055698902315200846
0.004146076045438567
-0.0506332453689986
-0.002637554024916031
-0.19404740157444514
-0.09628410940191101
0.020530079689485458
-0.129930862019509
-0.1057797337046567
-0.06595262318122819
-0.07128032712137317
0.018768302159753593
0.06800562672815066
0.039894473886307714
0.028632284456369478
-0.07355264828374615
-0.022571965263032966
-0.04370462910691458
0.0866897367757925
-0.05342105217344872
0.032469084623681414
-0.1337374391522479
0.07238731703324947
0.1332544229025757
-0.08677194445272374
0.023144468331203035
-0.08457927430185226
-0.0862767067640918
-0.1645129028269925
-0.1279006775208496
-0.0930082455880233
-0.10485567023228122
-0.033519934021378206
0.14323485946527362
-0.05370440020929658
-0.07059575407056125
0.011692629419441382
-0.03365271053963732
-0.058998025319438055
-0.030010995236326336
0.03758342221864098
0.02667416935872907
0.0013306312608033978
0.007412213632403444
-0.01884776161217956
-0.13468769255877397
-0.10179342173349513
-0.09736131880293963
-0.02402606481597173
-0.1413848759822018
0.08318367478698623
-0.0408809337784507
0.0728966874814734
-0.05044108821134793
0.010135915001663692
-0.13546987969924554
-0.05711374247982448
-0.08111211264153513
-0.01593664936342367
-0.0638759005089822
0.007767744871941642
-0.01794760301759046
-0.10317777776151975
0.029255511692559064
-0.010606805648835864
-0.005246022570127512
-0.058978901728075746
0.0010386896894298541
0.01888245755456693
0.03566591860378686
0.021926387238559955
-0.15816998272277463
-0.06557466646179275
-0.11268039403812063
0.017135339467916337
-0.049289953455337064
0.04312111654805528
-0.06379406769829127
-0.09262034734219306
-0.053373948320383106
-0.0919406775468387
-0.08600462577368516
-0.014403765744269988
-0.16052104854336233
-0.14663409273194744
0.1250414344240026
-0.081899147953247
-0.1519630858229416
-0.17773225883149074
0.012161657443313437
0.07357011724428539
-0.13709252898463156
0.009600276582044563
0.06243418469719545
-0.15501406265217638
0.19131154732632014
0.001589632465762346
0.004502627171331508
-0.02117099195093719
-0.06713125288465357
-0.04298307794124553
-0.09751310534372097
-0.10361538197625833
-0.08170819629756823
-0.001859177306635462
0.05261459176156644
-0.12263060450432828
-0.07150351937839484
0.008227628708110652
0.08878153591415765
-0.07382369225042681
-0.03176967059600826
-0.04942462414770229
0.05761509797587834
-0.028375597006719582
-0.036540333235350955
-0.08584077508416676
-0.01542034614673908
-0.06572246970055003
-0.14609463003530823
-0.026253416149399644
-0.03257797651269469
-0.06546317727780428
-0.011631056715634691
0.005765303739599773
-0.04695742720878191
-0.09479587198861274
0.07440538234274265
-0.027908391719675248
-0.0016321740385973223
-0.038427103791544376
-0.07736215561999855
-0.014670633275703147
-0.005569806430726754
-0.012086712200574569
-0.028623398678593436
-0.0909143073792224
0.0022802695760884123
-0.1303725460115511
0.06674152121333496
-0.010501769702214224
0.018842432490857992
-0.04107588106481679
0.12109406518832762
0.09656486198769211
0.03704635106964184
-0.08712552374802802
-0.05091809395987169
-0.17326715411479557
-0.08646415844142247
-0.08271944094320337
-0.013740024616171612
0.058310277655987876
0.07716133651885863
0.05104211623984416
0.08000076106399424
0.058108820547319265
0.10518707582454613
-0.07354441770043527
0.04250410070173483
0.07624452604614532
0.018547213440631413
0.20783834096280238
0.09407250056644446
-0.17457411384901997
0.026989453426142646
0.03169857854901614
0.20631360476500107
0.011307984558318126
-0.18083248215693462
-0.06328952170600845
-0.006029131868898027
0.03870681977063634
-0.05598798139852715
-0.3011712497932043
0.06787962668013364
-0.24869052778867062
0.014664126402539536
-0.15013155745948667
-0.14414932188298774
-0.00553097688035952
-0.05375446046976376
0.020642560205819283
-0.053376526683710825
0.08887427895745176
-0.2144089236062165
-0.1360901907570276
-0.14849180103936596
0.030735690760422825
0.050051039209366634
-0.11148890698784439
0.13679856091890058
0.05378910555204504
0.07182750772274145
0.07557686685646038
-0.07171969347711463
0.034994475921048374
-0.16307244429008394
0.2531361834165382
-0.11947426521272546
0.03469290375635437
0.06051508691040279
-0.015314115093735856
-0.18148020089364522
-0.004661090321203508
-0.010731272535656101
-0.24252819405717804
-0.17801873685645028
0.09644619391127485
-0.049867583751558
-0.008012321791876567
0.0038117342767088947
0.024933215093274768
-0.06265078685794484
-0.12881253062229248
-0.1440211389144305
-0.1435938748727832
-0.0688522318125326
-0.04691277066505709
-0.05006315435925505
-0.06420706085857085
-0.06840980273585347
-0.06359444228408292
-0.12268326796858978
-0.05351446113242353
0.07912505704517783
-0.10131603741447535
-0.07854673773870495
0.08872807282887446
0.021959358767701876
-0.07146890876418738
-0.010015783573722284
0.03588086156566369
0.026788222003487773
0.06125261144206869
-0.06763349427388966
0.01054855403001964
0.012921874431524006
0.056651071266947184
0.0165392566968499
-0.12709909990700177
-0.08783483760351453
-0.23191291216501828
0.08702196609819393
0.020856351404177825
-0.13649543367804115
-0.10342039350749152
-0.013675013237361422
0.05929567091822728
0.10675866114339962
-0.05295643363401837
0.05990531646070912
-0.1122572181103535
0.2191758651382767
0.0795749905006861
0.13051970118263612
-0.010652217485519795
-0.03808361669627721
0.0807198832910762
0.05865466759667838
0.03897104324912975
-0.02502871614758664
0.030211048131773208
0.07517106023154757
-0.14993884629968163
-0.10463863681573012
-0.04982042902793227
-0.014318306907273589
-0.009949992915937985
-0.027238182686927487
0.03273121593071074
-0.017046512864355445
-0.09885630593979335
-0.075146166543703
-0.0024076168497634276
-0.03519870283970021
-0.027439372343215997
0.09399676894838546
0.013801804737775829
-0.06502500736970646
-0.019667820824852463
0.047064737689747616
-0.13697416300200846
0.0073794605250379385
0.06517322785278727
0.010217967283244124
0.027866905167510007
0.031072284035486265
-0.03830372530893327
-0.04111359174638161
-0.06298527954481409
-0.005164804085846875
-0.04034265096161111
-0.05581256266974808
-0.028979492649179112
-0.0465964580467356
-0.08245746979598008
-0.014483008098732302
0.006282824048921038
0.027267538572297804
-0.10638829525427425
0.0021271308427911638
0.03380705241377418
0.01040379863195601
0.005681553152492446
-0.0874184810445499
-0.05410556093463846
0.05163596522394115
0.043860082783885444
-0.022662981036640325
0.013095112610789772
-0.05378084460130743
-0.035815276026077675
-0.09431692187201114
0.005717382153124908
0.04164082432606152
-0.0017795262122413766
-0.11072461161158859
-0.03115798530448488
-0.09905888182647406
-0.003201561504065108
-0.05084709747503709
-0.07016706202631143
-0.00968013226175405
0.02072969024390385
0.057610969687155164
-0.011055349816916858
-0.09506881500649603
-0.08836914154190678
-0.11532692100103811
0.013135513952891333
-0.014043182236811934
0.041350373622423574
-0.035431756066933176
-0.0535710017835692
0.010948953732895726
-0.11089985416923318
0.057823095726968025
0.020804302397366702
-0.10435542125010562
-0.1007006918937022
-0.0259371812534691
0.09620095056209188
-0.1388649568445217
-0.22929525959388392
0.003922844069403467
0.02244801999266622
-0.025907625336763062
0.015253922999245072
0.011995611374700172
-0.019830248367542196
-0.006693296168038168
-0.0752680200238689
-0.010180941950649253
-0.0060702597068996444
0.04832075335792926
-0.018619421176972618
0.0008661284468691283
0.07754523831900217
-0.08443689655609213
-0.05270841378832219
-0.11196374553119973
-0.023919198019273728
-0.06099726902193014
-0.14703278545426043
0.02638864932438402
-0.01110765686106118
0.01843575528272237
0.004331088296638863
0.03148898118303233
-0.05912109108005499
0.0806971650485726
-0.011973666706645271
-0.07382863030677826
-0.035981361147444435
-0.062125798961890646
-0.09904678786108966
-0.04951517890047385
-0.13341899199384863
-0.05879761736810165
0.031319076175008544
-0.09363959322720862
0.05948753423394549
-0.05938725738272604
-0.008295444097030225
-0.04865903242371087
0.03996195758150911
-0.15049380720264618
-0.008928642277803298
-0.05204748709116074
-0.08633731906742981
0.06567246864664987
-0.027851136916711525
-0.03385775390338055
-0.09394321587414763
0.019418291084961726
0.011067135840710058
-0.008060503894204124
-0.007485661511142958
-0.061458003854950545
-0.1392358583759218
0.06729347972210051
-0.011827738851064598
-0.03522976304763841
-0.12225804937654552
-0.053417223828885994
0.16247030111960914
0.019425036556707256
-0.004658473432565582
-0.012810104178897273
-0.12279768908795967
0.12418355300701414
-0.02970108288995041
-0.026955576097912323
-0.08691367412552513
-0.03714603910110757
-0.03916572408993668
-0.07074254018626147
-0.07728707304493143
-0.04767502039585586
0.0625543403293809
-0.09086814850543863
-0.1205507201766004
-0.3082680797225135
0.0777285548135564
-0.04936411845913467
-0.1360804916448523
-0.08013296082931806
-0.043548382397494985
-0.032328163757383024
0.005677188899237712
-0.07323479052285192
0.08568334029766606
-0.006649964100342506
0.015839288298923417
0.012549304779343552
-0.04319861608274955
-0.10115342231707139
0.015585004062863181
-0.011722339855442881
-0.059866476400344384
0.04178318467169023
0.003094759222377752
-0.06099605465372049
-0.19212241294507273
0.0490159278879389
0.006231198179994332
0.08374903747773046
-0.036744171250389236
-0.0042568430483948495
0.0045301531387196385
-0.09345774284947658
-0.09685185601759266
-0.1472026081941309
0.06798161149984981
-0.03215160161418764
-0.04281767530709684
-0.09562534338907132
0.13895743415294415
-0.13619066214393047
-0.12529959015362924
-0.018477788359350523
0.12651201064426534
0.008264837503186745
0.020726739435921633
-0.026868037898738262
-0.08760952911733276
0.016620029115029546
-0.1097022065863641
-0.1748400228857068
-0.10599334682710435
-0.1132577467665243
0.07471516167099902
-0.04163650098460767
-0.003829876702287997
-0.07072509098244666
-0.02242781947187475
-0.03165410592254538
-0.12795361958518553
-0.033323615765505944
0.18087610318128766
0.014771703759176932
-0.2011111299912848
-0.12664546137309304
-0.10967871994524665
0.33127962050796533
-0.0489474561667626
-0.135245034279555
-0.03834256410854893
-0.32889278871828037
0.4362019198048701
0.049205039054797145
-0.06708826752907206
-0.28813015342988446
-0.00375666407951544
0.204064865769369
-0.08638524404993246
-0.15871733240283065
-0.03954178721405218
-0.033618135683184405
0.09308487306401206
-0.031132009700612424
0.08487685751081615
0.006940485518085994
0.039819817574562474
0.08438406245694548
-0.034146472942200655
-0.06673700231230693
-0.10257100058841366
0.007001315419826596
-0.030995535564533876
-0.08572510833332661
0.07016642993198316
-0.26162040549196586
-0.06578122680283403
-0.062479762007084175
-0.08532189750060382
0.06911412829081581
